tree
version=v4
num_class=1
num_tree_per_iteration=1
label_index=0
max_feature_idx=39
objective=binary sigmoid:1
feature_names=bet_ratio_max call_ratio_max check_ratio_max end_preflop_mean end_preflop_std end_river_mean end_river_std end_turn_mean end_turn_std fold_ratio_mean fold_ratio_std max_norm_bb_max max_norm_bb_std mean_norm_bb_max mean_norm_bb_std mean_pot_after_max mean_pot_after_std n_streets_mean n_streets_std p2_max p3_mean p3_std p4_max p4_mean p4_std p5_max p5_mean p5_std p6p_std raise_ratio_mean raise_ratio_std stack_mean_mean stack_mean_std stack_std_max stack_std_mean stack_std_std std_norm_bb_max std_norm_bb_std std_pot_after_max std_pot_after_std
feature_infos=[-3:3.0049999999992019] [-1.714285714285714:1.5714285714285712] [-1.8333333333333333:2.3333333333333344] [-1.3998752339363696:1.2821287189323758] [-2.5478238292443534:0.42187999433065398] [-1.4456286109227625:1.8480080936608647] [-1.9109112781464606:1.3618116181049063] [-1.5805471124620059:1.9928637504955724] [-2.3129579640073494:1.5241068443068921] [-1.1118623326439425:1.1389474984924126] [-1.1299419987083965:1.2913806325687638] [-0.92701857891786954:-0.90948089463305803] [-1.2606077904552866:-1.0952641156769773] [-1.0622823088702698:-0.92161529305793621] [-1.105482114958839:-0.28130853998847388] [-0.69506594437008873:1.5136636006545248] [-0.73560241436869023:5.6261913124662408] [-1.3554307116104871:1.5665529078014142] [-2.0520649685684069:1.3730455533614914] [0:1] [0:4.8547671232876359] [0:2.1545551286740183] [-1:0] [-0.59863945578231292:2.5125109866955571] [-0.78499694671402065:0.83378195247665421] [-1:0] [-1.9478065241844764:7.1190143419572527] [-4.8966087446423359:1.5641963389495763] [-4.9721486084413646:0.71471292509476669] [-1.180651645888263:1.2596699323220935] [-1.5468936338630059:1.9272620239168781] [-2.3996138716370523:-0.063067779803094207] [-1.5066690868541417:0.32860395869810516] [-1.199814925808212:-0.43914315939030746] [-2.0683063219321345:0.60471233677585323] [-1.0246765045943766:0.25140271548811588] [-1.1131854302383344:-1.0434327451965979] [-1.1179953074011346:-0.67891416205278321] [-0.74277400283622597:0.91482297780137001] [-0.76616817131780124:4.1235182113655569]
tree_sizes=605 678 570 785 677 676 679 570 677 567 785 677 680 677 782 691 580 780 677 688 581 679 676 682 898 679 691 583 675 783 572 784 571 682 681 569 782 890 679 759 786 763 784 787 658 569 784 891 795 901 793 795 793 790 900 581 582 580 901 795 691 794 792 791 793 473 793 581 474 670 797 689 577 774 581 794 581 877 792 799 580 580 579 777 667 794 579 778 580 579 793 580 772 687 579 687 773 771 787 881 562 778 585 583 585 691 667 776 691 662 770 795 801 691 795 688 688 796 904 773 887 776 667 772 779 885 669 873 644 669 648 861 648 645 648 863 772 867 975 839 1055 968 966 757 645 645 646 645 863 647 776 649 689 772 759 862 860 951 650 646 866 559 759 782 860 650 673 647 861 755 561 868 689 867 759 650 648 670 864 692 737 672 759 670 764 856 734 858 736 673 650 859 739 754 857 650 743 671 860 743 843 646 858 736 734 854 828 647 860 739 824 740 943 744 651 1006 650 649 914 739 736 855 645 655 742 924 645 828 656 825 822 926 651 904 741 996 741 916 828 649 740 831 739 907 744 736 741 906 736 653 828 716 742 741 896 747 811 739 721 649 831 654 739 810 749 653 929 651 833 896 825 816 748 808 741 833 806 831 837 748 805 741 746 832 815 914 901 838 656 813 741 812 911 635 812 743 637 922 743 818 819 838 654 814 723 658 904 737 724 749 821 817 745 747 734 727 830 828 813 749 903 728 827 736 751 815 749 642 839 732 814 752 731 824 914 844 819 821 748 808 721 907 651 811 898 721 723 922 818 809 740 817 807 724 724 724 821 651 807 902 993 904 816 656 817 742 810 724 723 809 719 817 814 808 632 814 720 900 654 817 815 810 655 814 909 813 805 817 821 817 816 998 741 723 811 819 726 817 895 809 635 811 730 808 725 815 634 724 808 632 811 819 814 723 731 907 723 813 810 821 811 727 999 727 905 814 732 730 810 814 911 819 820 724 807 815 632 825 810 819 815 725 810 819 822 819 812 725 810 725 731 811 725 810 812 731 818 724 820 818 901 638 817 817 810 725 818 725 811 725 729 814 637 728 733 822 817 726 731 812 730 822 729 726 817 730 823 902 909 725 822 816 820 905 637 826 731 905 815 824 727 817 724 725 814 641 825 728 825 907 729 810 816 819 822 724 638 729 818 818 731 725 640 816 917 817 727 637 814 813 725 639 821 827 726 640 822 816 821 626 804 726 633 814 721 807 821 719 721 806 818 724 806 721 903 716 629 814 808 718 720 720 810 630 811 809 729 804 812 806 719 806 717 806 718 811 803 813 723 717 811 628 817 726 716 720 629 815 716 627 720 630 720 630 719 811 632 715 814 810 724 632 630 627 720 720 712 716 809 806 631 810 720 719 719 810 817 720 905 718 727 806 718 722 812 723 726 809 816 629 725 724 813 810 805 720 631 813 721 633 634 721 718 809 814 812 818 814 818 630 630 721 725 810 817 630 725 818 729 718 632 631 542 720 634 724 726 717 725 725 723 725 632 814 635 631 725 717 720 724 724 724 723 727 720 722 813 725 723 725 729 817 529 724 619 724 724 524 632 630 727 634 634 913 726 629 437 820 435 728 530 721 530 638 724 820 819 530 636 732 638 630 530 819 818 435 726 532 531 634 725 621 721 824 730 817 643 528 621 727 531 729 634 724 818 528 622 821 637 531 733 630 821 438 725 530 725 530 634 438 639 818 437 727 637 531 726 530 725 724 434 531 733 732 437 730 530 730 822 730 729 530 730 438 729 820 440 530 635 728 819 530 820 438 731 729 442 730 527 725 638 541 442 724 533 729 438 531 637 637 730 442 727 534 821 641 534 438 733 531 731 531 731 532 733 913 534 729 437 443 639 531 346 817 441 734 727 440 440 442 638 532 915 438 731 440 534 730 439 639 532 638 440 531 822 443 822 917 534 637 439 730 533 438 727 824 442 533 541 531 638 438 451 439 634 439 636 535 638 530 550 439 633 628 639 639 439 452 728 535 455 733 528 438 730 345 440 637 440 637 820 536 533 533 729 438 637 536 632 439 534 637 822 441 441 544 437 728 535 643 535 545 733 534 452 437 542 639 438 534 547 541 546 440 542 535 545 637 443 437 453 633 438 636 452 440 638 442 441 450 440 544 442 544 440 436 542 536 454 451 452 439 438 439 548 439 454 440 439 441 544 437 453 545 536 451 449 543 533 545 452 543 436 450 441 542 543 537 439 453 545 438 452 453 643 536 451 542 439 545 542 535 439 534 547 454 544 546 444 437 639 441 348 546 442 546 443 347 454 348 547 453 545 437 545 536 441 545 547 545 453 544 441 439 439 348 442 440 439 346 347 347 347 347 347 348 347 346 348 347 348 347 348 347 348 348 348 347 347 348 348 348 348 348 348 348 347 348 348 348 347 348 348 347 348 348 348 347 348 348 348 348 348 346 346 346 345 346 346 346 346 346 345 346 346 346 346 346 345 346 346 346 346 346 346 346 346 346 346 345 346 345 346 345 346 345 344 346 346 344 346 346 346 346 346 346 346 346 345 346 346 346 346 345 346 344 346 346 346 346 345 346 344 346 346 346 346 346 345 346 346 346 345 345 346 345 346 346 346 340 346 345 346 345 346 346 346 346 345 346 346 343 346 346 346 346 346 345 345 346 345 346 346 346 346 345 346 344 345 345 346 345 346 346 345 346 346 346 346 346 346 345 345 345 345 345 344 345 345 345 345 344 345 345 345 344 345 345 345 344 345 344 345 343 344 345 345 345 344 345 345 345 345 344 344 345 344 345 345 345 345 345 345 345 343 345 345 345 345 345 344 345 345 344 345 345 345 345 345 344 345 344 344 344 345 344 344 345 345 343 344 345 345 344 345 345 344 343 344 345 344 345 345 345 345 345 345 345 345 344 344 345 344 345 346 346 345 344 346 346 345 345 346 346 346 345 346 346 346 345 345 346 346 346 346 346 345 346 346 345 345 346 346 346 346 346 346 346 345 346 343 344 346 346 346 345 346 346 346 345 346 346 344 345 346 346 345 346 346 346 345 346 345 345 346 346 345 346 346 346 346 346 346 345 346 346 346 346 346 346 345 346 346 346 346 346 345 346 346 346 346 346 346 345 345 346 346 344 345 345 346 346 345 345 346 345 346 346 346 345 345 346 346 346 346 346 346 346 345 346 346 345 345 346 346 346 346 345 346 346 346 346 346 346 345 346 346 346 345 346 346 343 346 344 346 346 346 346 346 345 346 346 345 346 346 346 346 346 346 346 345 346 346 345 346 346 346 346 346 346 346 345 346 346 346 346 346 346 346 346 346 346 345 346 346 346 346 346 346 346 346 346 346 346 345 346 345 346 344 345 346 346 346 346 346 345 345 345 345 345 346 345 345 346 346 346 346 346 346 345 346 344 346 346 346 346 346 346 346 346 346 346 346 346 346 345 346 346 344 346 345 346 344 346 345 346 346 346 346 346 345 345 344 346 346 346 346 346 346 343 345 346 345 346 346 346 346 346 346 346 345 345 345 346 346 345 346 346 346 346 346 345 346 346 344 344 346 346 345 344 346 345 346 346 346 346 346 346 345 346 346 346 346 346 346 346 346 346 346 344 346 346 346 346 346 346 345 345 344 346 346 346 346 346 345 346 346 345 346 346 344 345 346 346 345 346 346 346 346 346 345 346 346 346 346 346 346 346 345 346 346 346 345 346 346 346 346 346 346 345 346 346 346 345 346 346 346 345 346 346 346 346 346 346 346 345 346 345 346 346 346 346 346 346 346 346 345 346 344 346 346 346 345 346 346 346 346 346 346 345 346 346 345 346 346 345 346 346 346 346 346 346 345 346 346 346 346 344 346 346 345 346 346 346 345 345 346 346 346 346 346 344 346 346 346 346 346 346 346 346 346 346 346 346 345 345 345 346 346 346 346 346 346 346 345 346 346 346 346 346 346 345 346 346 345 346 345 346 345 346 346 344 346 345 346 345 346 345 345 345 346 346 346 346 345 346 346 346 346 346 346 344 346 345 345 346 345 346 346 346 346 345 346 346 346 346 346 346 346 346 346 346 346 345 346 346 346 346 346 346 345 346 345 346 346 346 346 346 346 346 346 346 346 346 346 345 344 346 346 346 343 344 346 346 346 345 345 346 346 346 346 346 346 346 346 346 344 345 346 345 346 345 346 346 346 346 346 346 343 346 345 346 345 346 346 346 346 346 346 345 346 345 346 344 345 346 344 345 345 346 346 346 346 346 345 346 344 346 346 346 346 346 346 346 345 346 346 346 346 346 346 346 346 346 346 346 346 346 346 345 345 346 345 346 345 346 346 346 346 346 345 345 346 345 346 346 346 346 346 346 345 346 346 346 345 345 346 345 345 346 346 346 346 346 346 345 346 346 344 344 345 346 346 346 345 345 346 346 345 346 346 346 346 346 346 346 346 346 346 345 345 346 346 346 346 346 346 345 346 346 346 346 342 346 346 346 345 345 346 346 345 346 346 346 346 346 344 346 346 346 346 346 345 346 345 345 346 344 345 346 346 345 346 346 346 346 345 346 346 346 344 346 345 346 346 345 345 346 345 346 346 346 346 345 345 345 345 346 346 345 345 344 346 346 346 345 345 346 346 346 346 346 346 345 346 346 346 346 346 345 345 345 345 345 346 346 345 346 346 345 346 346 345 345 346 346 346 345 346 344 346 345 346 346 346 346 345 346 345 346 346 346 346 346 346 345 346 345 346 346 346 346 346 346 345 346 346 346 346 346 346 346 346 346 346 346 346 346 344 343 346 346 346 346 345 345 346 345 345 346 345 344 346 346 345 346 346 346 346 345 346 346 346 345 346 345 346 346 345 346 345 346 346 345 346 346 345 346 346 346 346 346 345 346 346 346 346 346 346 346 345 346 346 346 346 346 346 345 346 346 345 346 345 345 346 346 346 346 346 346 346 346 346 344 345 346 346 346 345 346 346 346 345 344 346 346 344 346 346 344 346 346 346 346 346 345 345 346 346 346 345 346 344 346 345 344 346 345 346 346 345 344 345 344 346 346 346 346 346 345 346 346 345 346 345 346 346 345 346 345 346 346 345 346 346 346 346 346 346 346 346 345 346 346 346 345 346 346 346 346 346 346 346 346 346 346 346 346 346 346 346 345 346 346 345 346 346 346 346 346 346 346 346 346 346 345 345 346 346 344 346 346 346 345 346 345 346 346 346 346 346 346 346 346 346 346 346 346 346 346 346 346 346 345 345 345 345 345 345 345 345 346 346 346 346 346 346 346 345 346 346 346 346 346 346 346 346 346 346 346 346 346 346 346 346 346 345 346 346 346 346 346 345 345 346 344 345 345 345 346 346 345 345 346 345 346 346 345 345 346 346 343 346 346 346 346 346 345 346 346 345 346

Tree=0
num_leaves=5
num_cat=0
split_feature=19 10 9 9
split_gain=18428.2 911.815 83.3392 22.2048
threshold=1.0000000180025095e-35 -0.47099788576230334 -0.18610087149063351 0.15784445011317064
decision_type=2 2 2 2
left_child=1 -1 -3 -2
right_child=3 2 -4 -5
leaf_value=-0.046753246753246755 -0.059835962145110409 0.018441558441558439 0.059646017699115046 -0.032181818181818179
leaf_weight=72 2372.5 52.75 2452.75 50
leaf_count=288 9490 211 9811 200
internal_value=0 0.0557832 0.0588289 -0.059345
internal_weight=5000 2577.5 2505.5 2422.5
internal_count=20000 10310 10022 9690
is_linear=0
shrinkage=0.03


Tree=1
num_leaves=5
num_cat=0
split_feature=19 10 9 9
split_gain=17357 860.442 78.2829 20.6016
threshold=1.0000000180025095e-35 -0.47099788576230334 -0.18610087149063351 0.15784445011317064
decision_type=2 2 2 2
left_child=1 -1 -3 -2
right_child=3 2 -4 -5
leaf_value=-0.045465190274962083 -0.058097052922457981 0.017937618617452925 0.057912178375955123 -0.031311577048037248
leaf_weight=71.960668087005615 2370.3776884078979 52.745516449213028 2450.5697896033525 49.987056851387024
leaf_count=288 9490 211 9811 200
internal_value=0 0.0541586 0.0571193 -0.0576219
internal_weight=4995.64 2575.28 2503.32 2420.36
internal_count=20000 10310 10022 9690
is_linear=0
shrinkage=0.03


Tree=2
num_leaves=4
num_cat=0
split_feature=35 31 35
split_gain=15141.5 2463.09 7.04704
threshold=-0.30726846542178071 -1.4365528525094298 -0.45837572596987292
decision_type=2 2 2
left_child=2 -2 -1
right_child=1 -3 -4
leaf_value=0.056603419451761408 -0.056531577081829411 0.055111448317536844 0.037217087723812881
leaf_weight=2246.6084241569042 2484.343805745244 187.36329405009747 64.778860211372375
leaf_count=9017 9971 752 260
internal_value=0 -0.0486027 0.0561546
internal_weight=4983.09 2671.71 2311.39
internal_count=20000 10723 9277
is_linear=0
shrinkage=0.03


Tree=3
num_leaves=6
num_cat=0
split_feature=19 9 33 34 9
split_gain=15481.3 481.715 80.1503 148.589 18.4125
threshold=1.0000000180025095e-35 -0.29651041161101432 -0.58041692597598638 0.067060322475458248 0.15784445011317064
decision_type=2 2 2 2 2
left_child=1 -1 -3 -4 -2
right_child=4 2 3 -5 -6
leaf_value=-0.026991723351677925 -0.055052162523021524 0.054766611869150494 -0.011398158880771827 0.051876158136720127 -0.029605261058827669
leaf_weight=65.520227521657944 2354.5945156216621 2358.8312725573778 49.720663860440254 84.630743563175201 49.856161713600159
leaf_count=263 9490 9506 200 341 200
internal_value=0 0.0513131 0.0534328 0.0286756 -0.0545995
internal_weight=4963.15 2558.7 2493.18 134.351 2404.45
internal_count=20000 10310 10047 541 9690
is_linear=0
shrinkage=0.03


Tree=4
num_leaves=5
num_cat=0
split_feature=19 10 9 10
split_gain=14649 745.424 58.1565 20.1472
threshold=1.0000000180025095e-35 -0.45390735696945977 -0.18610087149063351 0.1954360395034099
decision_type=2 2 2 2
left_child=1 -1 -3 -2
right_child=3 2 -4 -5
leaf_value=-0.040794384405454763 -0.053737266780234133 0.018144340692814644 0.053578226434879396 -0.028530168309853009
leaf_weight=75.030133381485939 2339.1890929043293 51.618272811174393 2418.7856927216053 52.193130671977997
leaf_count=302 9479 207 9801 211
internal_value=0 0.0500404 0.0528881 -0.0532603
internal_weight=4936.82 2545.43 2470.4 2391.38
internal_count=20000 10310 10008 9690
is_linear=0
shrinkage=0.03


Tree=5
num_leaves=5
num_cat=0
split_feature=19 10 10 4
split_gain=13879.6 709.703 19.1706 11.4053
threshold=1.0000000180025095e-35 -0.35075042452894289 0.1954360395034099 0.32512798162562695
decision_type=2 2 2 2
left_child=1 -1 -2 -3
right_child=2 3 -4 -5
leaf_value=-0.030906317313919487 -0.052489066857860839 0.0523658557162935 -0.027824473721692389 0.030043724858430671
leaf_weight=93.066188707947731 2323.3253108114004 2385.6249748319387 52.040477469563484 50.148072600364685
leaf_count=376 9479 9731 211 203
internal_value=0 0.0488638 -0.0520209 0.0519811
internal_weight=4904.21 2528.84 2375.37 2435.77
internal_count=20000 10310 9690 9934
is_linear=0
shrinkage=0.03


Tree=6
num_leaves=5
num_cat=0
split_feature=19 10 10 9
split_gain=13166.4 677.918 65.9962 18.7945
threshold=1.0000000180025095e-35 -0.48293553884228896 -0.21387653226326314 0.15784445011317064
decision_type=2 2 2 2
left_child=1 -1 -3 -2
right_child=3 2 -4 -5
leaf_value=-0.042021065636194246 -0.051322716731740298 0.01487822108775772 0.051172653905287989 -0.026437671799862599
leaf_weight=69.600991576910019 2307.3235969543457 53.404653877019882 2386.6427167207003 49.330811232328415
leaf_count=282 9490 217 9811 200
internal_value=0 0.0477684 0.0504226 -0.0508716
internal_weight=4866.3 2509.65 2440.05 2356.65
internal_count=20000 10310 10028 9690
is_linear=0
shrinkage=0.03


Tree=7
num_leaves=4
num_cat=0
split_feature=35 31 35
split_gain=11633.4 1901.04 5.34401
threshold=-0.30726846542178071 -1.4365528525094298 -0.45837572596987292
decision_type=2 2 2
left_child=2 -2 -1
right_child=1 -3 -4
leaf_value=0.050435998646535946 -0.050384760421183471 0.049212074337474224 0.032896147301479974
leaf_weight=2174.0613590478897 2404.6710875332355 181.57031065225601 63.01546922326088
leaf_count=9017 9971 752 260
internal_value=0 -0.0432994 0.0500298
internal_weight=4823.32 2586.24 2237.08
internal_count=20000 10723 9277
is_linear=0
shrinkage=0.03


Tree=8
num_leaves=5
num_cat=0
split_feature=19 10 10 10
split_gain=11891.4 613.947 57.9718 18.3683
threshold=1.0000000180025095e-35 -0.47099788576230334 -0.21387653226326314 0.1954360395034099
decision_type=2 2 2 2
left_child=1 -1 -3 -2
right_child=3 2 -4 -5
leaf_value=-0.039224185949820675 -0.049273704852447003 0.014329073772283358 0.049104537104994121 -0.02536449049606378
leaf_weight=70.2630495429039 2260.9352093935013 51.534269914031029 2341.7151279747486 51.185855224728584
leaf_count=288 9479 211 9811 211
internal_value=0 0.045814 0.0483997 -0.0488132
internal_weight=4775.63 2463.51 2393.25 2312.12
internal_count=20000 10310 10022 9690
is_linear=0
shrinkage=0.03


Tree=9
num_leaves=4
num_cat=0
split_feature=35 31 35
split_gain=10543.1 1723.61 5.10192
threshold=-0.30726846542178071 -1.4365528525094298 -0.45837572596987292
decision_type=2 2 2
left_child=2 -2 -1
right_child=1 -3 -4
leaf_value=0.048521128504711984 -0.04846897992174614 0.04731354927289038 0.031422726245298842
leaf_weight=2129.0920406281948 2355.145188331604 177.9142427444458 62.120876163244247
leaf_count=9017 9971 752 260
internal_value=0 -0.0416497 0.0481227
internal_weight=4724.27 2533.06 2191.21
internal_count=20000 10723 9277
is_linear=0
shrinkage=0.03


Tree=10
num_leaves=6
num_cat=0
split_feature=19 9 33 9 9
split_gain=10781.8 364.339 61.4836 91.9835 17.9424
threshold=1.0000000180025095e-35 -0.29651041161101432 -0.58041692597598638 0.24490014761201556 0.15784445011317064
decision_type=2 2 2 2 2
left_child=1 -1 -3 -4 -2
right_child=4 2 3 -5 -6
leaf_value=-0.024771774999633102 -0.047465704449052293 0.047249342049655946 -0.0081958130338165482 0.042656960446518684 -0.023438600392517987
leaf_weight=63.756047293543816 2211.592935025692 2217.7239000350237 47.725744381546974 79.965419217944145 48.199726313352585
leaf_count=263 9490 9506 200 341 200
internal_value=0 0.0441068 0.0460406 0.0238316 -0.0470193
internal_weight=4668.96 2409.17 2345.42 127.691 2259.79
internal_count=20000 10310 10047 541 9690
is_linear=0
shrinkage=0.03


Tree=11
num_leaves=5
num_cat=0
split_feature=19 10 9 10
split_gain=10276.5 547.16 23.3038 18.0117
threshold=1.0000000180025095e-35 -0.35075042452894289 -0.16881171470702652 0.1954360395034099
decision_type=2 2 2 2
left_child=1 -1 -3 -2
right_child=3 2 -4 -5
leaf_value=-0.027607709098514278 -0.046664729550497247 0.021490633128538796 0.046677421876449438 -0.023188652221458345
leaf_weight=90.497329115867615 2181.1900270581245 50.534522399306297 2239.2858998924494 50.11112667620182
leaf_count=376 9479 209 9725 211
internal_value=0 0.0433127 0.0461827 -0.0462039
internal_weight=4611.62 2380.32 2289.82 2231.3
internal_count=20000 10310 9934 9690
is_linear=0
shrinkage=0.03


Tree=12
num_leaves=5
num_cat=0
split_feature=19 10 9 9
split_gain=9803.51 525.667 57.4646 18.2736
threshold=1.0000000180025095e-35 -0.48293553884228896 -0.18610087149063351 0.15784445011317064
decision_type=2 2 2 2
left_child=1 -1 -3 -2
right_child=3 2 -4 -5
leaf_value=-0.037725367050729292 -0.045891195348005571 0.011604128382521318 0.045763276417277024 -0.021931110244185398
leaf_weight=67.24203172326088 2153.9118079543114 51.705427274107933 2230.6218401193619 47.576023265719414
leaf_count=282 9490 213 9815 200
internal_value=0 0.0425734 0.0450296 -0.0454379
internal_weight=4551.06 2349.57 2282.33 2201.49
internal_count=20000 10310 10028 9690
is_linear=0
shrinkage=0.03


Tree=13
num_leaves=5
num_cat=0
split_feature=19 10 35 4
split_gain=9359.21 504.643 18.5838 11.3901
threshold=1.0000000180025095e-35 -0.35075042452894289 -0.2491538445923149 0.32512798162562695
decision_type=2 2 2 2
left_child=1 -1 -2 -3
right_child=2 3 -4 -5
leaf_value=-0.02655739045942514 -0.020957462440841665 0.04507774412291686 -0.045171112010358991 0.023947595112558728
leaf_weight=89.528045013546944 46.313836008310318 2180.3790277540684 2124.1726716607809 47.504698440432549
leaf_count=376 200 9731 9490 203
internal_value=0 0.0418784 -0.0447176 0.0446953
internal_weight=4487.9 2317.41 2170.49 2227.88
internal_count=20000 10310 9690 9934
is_linear=0
shrinkage=0.03


Tree=14
num_leaves=6
num_cat=0
split_feature=19 9 33 9 9
split_gain=8940.94 319.678 56.4045 80.8997 18.6891
threshold=1.0000000180025095e-35 -0.29651041161101432 -0.58041692597598638 0.24490014761201556 0.15784445011317064
decision_type=2 2 2 2 2
left_child=1 -1 -3 -4 -2
right_child=4 2 3 -5 -6
leaf_value=-0.023746459877097469 -0.044501202078585059 0.044308738596129757 -0.0086798713616619144 0.039726130254789556 -0.020518896871147864
leaf_weight=62.699791610240936 2091.601884752512 2099.2653767168522 46.527866378426552 75.971738189458847 46.901696056127548
leaf_count=263 9490 9506 200 341 200
internal_value=0 0.0412189 0.0431149 0.0214859 -0.0440383
internal_weight=4422.97 2284.46 2221.76 122.5 2138.5
internal_count=20000 10310 10047 541 9690
is_linear=0
shrinkage=0.03


Tree=15
num_leaves=5
num_cat=0
split_feature=19 10 9 10
split_gain=8546.03 475.516 53.5998 20.348
threshold=1.0000000180025095e-35 -0.48293553884228896 -0.18610087149063351 0.20338991531838099
decision_type=2 2 2 2
left_child=1 -1 -3 -2
right_child=3 2 -4 -5
leaf_value=-0.036352718151283173 -0.043872315677671615 0.010625906967591057 0.043741098162491637 -0.019044030202061763
leaf_weight=66.111613899469376 2060.2591315507889 51.188524097204208 2133.8295691311359 45.360128208994865
leaf_count=282 9492 213 9815 198
internal_value=-1.20753e-08 0.0405857 0.043005 -0.0433981
internal_weight=4356.75 2251.13 2185.02 2105.62
internal_count=20000 10310 10028 9690
is_linear=0
shrinkage=0.03


Tree=16
num_leaves=4
num_cat=0
split_feature=33 31 33
split_gain=7654.06 1198.31 44.294
threshold=-0.66186959557017355 -1.5884357110852598 -0.69193703858675681
decision_type=2 2 2
left_child=2 -2 -1
right_child=1 -3 -4
leaf_value=0.043322813503622874 -0.043473435953837868 0.04172125165171843 0.010150299120646186
leaf_weight=1964.6092847883701 2125.225077137351 155.49367055296898 42.931958317756653
leaf_count=9172 9913 717 198
internal_value=-1.55295e-06 -0.0375734 0.0426553
internal_weight=4288.26 2280.72 2007.54
internal_count=20000 10630 9370
is_linear=0
shrinkage=0.03


Tree=17
num_leaves=6
num_cat=0
split_feature=19 9 33 34 9
split_gain=7828.77 286.825 36.6674 61.7232 20.4357
threshold=1.0000000180025095e-35 -0.23763260481367895 -0.5789028644387223 0.23738827785391267 0.16651940861265463
decision_type=2 2 2 2 2
left_child=1 -1 -3 -4 -2
right_child=4 2 3 -5 -6
leaf_value=-0.016539203172438822 -0.042708286480875171 0.042524757858302731 -0.0038631453184396181 0.039947805174906439 -0.017726776867140331
leaf_weight=76.155499175190926 1993.9105437994003 1992.6735014915466 45.2990732640028 66.523655101656914 43.942649066448212
leaf_count=326 9498 9471 201 312 192
internal_value=0 0.0394579 0.0415329 0.0225376 -0.042229
internal_weight=4218.5 2180.65 2104.5 111.823 2037.85
internal_count=20000 10310 9984 513 9690
is_linear=0
shrinkage=0.03


Tree=18
num_leaves=5
num_cat=0
split_feature=19 10 10 3
split_gain=7495.65 434.5 20.4698 14.2933
threshold=1.0000000180025095e-35 -0.35075042452894289 0.20338991531838099 -0.42273424209260224
decision_type=2 2 2 2
left_child=1 -1 -2 -3
right_child=2 3 -4 -5
leaf_value=-0.025399034737238452 -0.042174292437333179 0.020363633957979899 -0.01732468363306899 0.042131022860366886
leaf_weight=86.940979063510895 1959.0133431106806 47.029180958867073 44.107988566160202 2011.5729893893003
leaf_count=376 9492 209 198 9725
internal_value=0 0.0389132 -0.0416866 0.0416988
internal_weight=4148.66 2145.54 2003.12 2058.6
internal_count=20000 10310 9690 9934
is_linear=0
shrinkage=0.03


Tree=19
num_leaves=5
num_cat=0
split_feature=19 10 9 9
split_gain=7181.14 417.872 20.9584 20.0207
threshold=1.0000000180025095e-35 -0.35075042452894289 0.16651940861265463 -0.16881171470702652
decision_type=2 2 2 2
left_child=1 -1 -2 -3
right_child=2 3 -4 -5
leaf_value=-0.024786169947736948 -0.041665711947287472 0.01814887458700502 -0.016509122976829688 0.041683382863682054
leaf_weight=86.54759418964386 1924.7852096706629 48.667225167155266 43.233167350292206 1974.1345530599356
leaf_count=376 9498 209 192 9725
internal_value=-6.20063e-08 0.0384052 -0.0411715 0.0411781
internal_weight=4077.37 2109.35 1968.02 2022.8
internal_count=20000 10310 9690 9934
is_linear=0
shrinkage=0.03


Tree=20
num_leaves=4
num_cat=0
split_feature=35 31 35
split_gain=6525.84 1086.59 7.56711
threshold=-0.30726846542178071 -1.4365528525094298 -0.41908954948940741
decision_type=2 2 2
left_child=2 -2 -1
right_child=1 -3 -4
leaf_value=0.041498983008611413 -0.041472539707332237 0.040540831008670772 0.02158293384587209
leaf_weight=1815.4286581724882 1996.6245803833008 152.50213886797428 40.771727070212364
leaf_count=9082 9971 752 195
internal_value=-8.38132e-07 -0.0355583 0.0411368
internal_weight=4005.33 2149.13 1856.2
internal_count=20000 10723 9277
is_linear=0
shrinkage=0.03


Tree=21
num_leaves=5
num_cat=0
split_feature=19 33 31 3
split_gain=6602.52 219.853 371.206 18.4404
threshold=1.0000000180025095e-35 -0.62095566859312334 -1.6227323030543819 0.40354104096057047
decision_type=2 2 2 2
left_child=1 -1 -3 -2
right_child=3 2 -4 -5
leaf_value=0.040630486208306532 -0.040696043900751253 -0.044192243921158031 0.039527273010884628 -0.016251949926242328
leaf_weight=1846.2110195606947 1855.1700038015842 74.024753093719482 114.95323103666306 41.436563909053802
leaf_count=9412 9494 326 572 196
internal_value=0 0.0374792 0.00628496 -0.0402219
internal_weight=3931.8 2035.19 188.978 1896.61
internal_count=20000 10310 898 9690
is_linear=0
shrinkage=0.03


Tree=22
num_leaves=5
num_cat=0
split_feature=19 10 10 9
split_gain=6335.2 373.395 21.458 19.737
threshold=1.0000000180025095e-35 -0.35075042452894289 0.20338991531838099 -0.16881171470702652
decision_type=2 2 2 2
left_child=1 -1 -2 -3
right_child=2 3 -4 -5
leaf_value=-0.02343942588468519 -0.040296458090966686 0.016883470466187461 -0.014949060472464238 0.040304549277130029
leaf_weight=84.194556429982185 1818.6497690826654 47.546600371599197 42.236359998583794 1865.7924746572971
leaf_count=376 9492 209 198 9725
internal_value=0 0.037052 -0.0397788 0.0397837
internal_weight=3858.42 1997.53 1860.89 1913.34
internal_count=20000 10310 9690 9934
is_linear=0
shrinkage=0.03


Tree=23
num_leaves=5
num_cat=0
split_feature=19 10 9 10
split_gain=6080.28 361.561 53.4722 24.0513
threshold=1.0000000180025095e-35 -0.48293553884228896 -0.23763260481367895 0.21158878198844278
decision_type=2 2 2 2
left_child=1 -1 -3 -2
right_child=3 2 -4 -5
leaf_value=-0.032573301069586079 -0.039884848219756561 0.0032357224751389433 0.039712077315678232 -0.012688627697886805
leaf_weight=61.700412020087242 1786.136258944869 39.661551058292389 1859.0954603552818 38.944474026560783
leaf_count=282 9507 169 9859 183
internal_value=0 0.0366322 0.0389764 -0.0393572
internal_weight=3785.54 1960.46 1898.76 1825.08
internal_count=20000 10310 10028 9690
is_linear=0
shrinkage=0.03


Tree=24
num_leaves=7
num_cat=0
split_feature=19 9 35 9 33 34
split_gain=5837.92 238.087 172.59 22.6856 10.1009 31.6969
threshold=1.0000000180025095e-35 -0.12795240363494953 -0.2491538445923149 0.17535404179962769 -0.62095566859312334 0.067060322475458248
decision_type=2 2 2 2 2 2
left_child=1 2 -1 -2 -3 -6
right_child=3 4 -4 -5 5 -7
leaf_value=0.036425617085337307 -0.039481809991319873 0.039518879004127087 -0.038280525840393924 -0.012973132249188991 0.004216827824780678 0.037450950058232652
leaf_weight=42.601863026618958 1750.0449379384518 1695.924026325345 61.835565105080605 39.225440472364426 42.070703312754631 80.698308870196342
leaf_count=201 9507 9194 280 183 206 429
internal_value=-1.09853e-06 0.036233 -0.00726053 -0.0389552 0.0387601 0.0269077
internal_weight=3712.4 1923.13 104.437 1789.27 1818.69 122.769
internal_count=20000 10310 481 9690 9829 635
is_linear=0
shrinkage=0.03


Tree=25
num_leaves=5
num_cat=0
split_feature=19 10 10 10
split_gain=5607.9 340.49 24.5305 13.0036
threshold=1.0000000180025095e-35 -0.35075042452894289 0.21158878198844278 -0.16627523061846991
decision_type=2 2 2 2
left_child=1 -1 -2 -3
right_child=2 3 -4 -5
leaf_value=-0.02252861885304977 -0.039118645749809132 0.016415700873954223 -0.011663392734999441 0.038997452954570702
leaf_weight=82.202563479542732 1715.2693249881268 38.056052163243294 38.250749334692955 1765.8520199209452
leaf_count=376 9507 195 183 9739
internal_value=0 0.0358525 -0.0385717 0.0385843
internal_weight=3639.63 1886.11 1753.52 1803.91
internal_count=20000 10310 9690 9934
is_linear=0
shrinkage=0.03


Tree=26
num_leaves=5
num_cat=0
split_feature=19 10 9 10
split_gain=5387.88 328.628 51.9783 24.3231
threshold=1.0000000180025095e-35 -0.48293553884228896 -0.23763260481367895 0.21158878198844278
decision_type=2 2 2 2
left_child=1 -1 -3 -2
right_child=3 2 -4 -5
leaf_value=-0.031342980691036082 -0.038759334755975497 0.0024406839145651401 0.038580775061395234 -0.011397759374123424
leaf_weight=59.974103942513466 1679.8178356736898 39.088600218296051 1750.3229036033154 38.086984768509865
leaf_count=282 9507 169 9859 183
internal_value=-1.87897e-07 0.0354796 0.037817 -0.038205
internal_weight=3567.29 1849.39 1789.41 1717.9
internal_count=20000 10310 10028 9690
is_linear=0
shrinkage=0.03


Tree=27
num_leaves=4
num_cat=0
split_feature=35 31 35
split_gain=4969.05 833.456 6.46614
threshold=-0.30726846542178071 -1.4365528525094298 -0.41908954948940741
decision_type=2 2 2
left_child=2 -2 -1
right_child=1 -3 -4
leaf_value=0.038804454986119778 -0.038758372156914037 0.037751747868968205 0.019233125799010296
leaf_weight=1582.0353024303913 1742.3696601241827 133.97942946851254 36.483160614967346
leaf_count=9082 9971 752 195
internal_value=-1.88476e-06 -0.0331935 0.0384424
internal_weight=3494.87 1876.35 1618.52
internal_count=20000 10723 9277
is_linear=0
shrinkage=0.03


Tree=28
num_leaves=5
num_cat=0
split_feature=19 10 35 10
split_gain=4980 309.543 127.019 25.8117
threshold=1.0000000180025095e-35 -0.21387653226326314 -0.20359921344133475 0.22073506195803475
decision_type=2 2 2 2
left_child=1 2 -1 -2
right_child=3 -3 -4 -5
leaf_value=0.024395650261759147 -0.03809389619284273 0.0379327450517222 -0.040253738235037501 -0.0094943172412693937
leaf_weight=40.828936591744423 1611.0852164626122 1671.0576537996531 63.099044606089592 35.726539641618729
leaf_count=200 9516 9811 299 174
internal_value=0 0.034806 -0.0146263 -0.0375222
internal_weight=3421.8 1774.99 103.928 1646.81
internal_count=20000 10310 499 9690
is_linear=0
shrinkage=0.03


Tree=29
num_leaves=6
num_cat=0
split_feature=35 10 38 24 35
split_gain=4604.8 581.76 45.7586 24.6748 6.48137
threshold=-0.30726846542178071 0.24888997717559033 0.08638405720981375 -0.3656572700302001 -0.41908954948940741
decision_type=2 2 2 2 2
left_child=4 3 -3 -2 -1
right_child=1 2 -4 -5 -6
leaf_value=0.038165794661278604 -0.0099234426061090113 -0.0019000022446819479 0.036283294708491134 -0.038072625163597842 0.018542183845395153
leaf_weight=1515.9075301587582 35.703864544630051 36.041421949863434 99.612719491124153 1627.1954965889454 35.559259667992592
leaf_count=9082 211 197 583 9732 195
internal_value=0 -0.0326346 0.0262183 -0.0375178 0.0377963
internal_weight=3350.02 1798.55 135.654 1662.9 1551.47
internal_count=20000 10723 780 9943 9277
is_linear=0
shrinkage=0.03


Tree=30
num_leaves=4
num_cat=0
split_feature=35 31 35
split_gain=4429.66 751.057 6.65977
threshold=-0.30726846542178071 -1.4365528525094298 -0.41908954948940741
decision_type=2 2 2
left_child=2 -2 -1
right_child=1 -3 -4
leaf_value=0.037857799041627616 -0.037812169394070928 0.036828137074770471 0.018159429524957086
leaf_weight=1482.9324272722006 1634.5555090010166 126.71286089718342 35.328415513038635
leaf_count=9082 9971 752 195
internal_value=0 -0.0323362 0.0374802
internal_weight=3279.53 1761.27 1518.26
internal_count=20000 10723 9277
is_linear=0
shrinkage=0.03


Tree=31
num_leaves=6
num_cat=0
split_feature=35 10 36 24 35
split_gain=4263.83 540.461 41.8538 23.8093 6.84171
threshold=-0.30726846542178071 0.24888997717559033 -1.0552224762145084 -0.3656572700302001 -0.41908954948940741
decision_type=2 2 2 2 2
left_child=4 3 -3 -2 -1
right_child=1 2 -4 -5 -6
leaf_value=0.037563204732286554 -0.009501144143676768 -0.0020110997073641947 0.03527960054215417 -0.037467032298997019 0.017783910717424824
leaf_weight=1450.2589408606291 34.893845215439796 34.185075521469116 96.773431092500687 1556.9540482908487 35.101220861077309
leaf_count=9082 211 192 588 9732 195
internal_value=0 -0.0320748 0.0256087 -0.0369045 0.0371772
internal_weight=3208.17 1722.81 130.959 1591.85 1485.36
internal_count=20000 10723 780 9943 9277
is_linear=0
shrinkage=0.03


Tree=32
num_leaves=4
num_cat=0
split_feature=35 31 35
split_gain=4103.86 703.633 7.02661
threshold=-0.30726846542178071 -1.4365528525094298 -0.41908954948940741
decision_type=2 2 2
left_child=2 -2 -1
right_child=1 -3 -4
leaf_value=0.037281235683083357 -0.037237747010803325 0.036293288230664557 0.017415460733636229
leaf_weight=1417.9176771342754 1564.0060496777296 122.25097692012787 34.877727955579758
leaf_count=9082 9971 752 195
internal_value=0 -0.0317976 0.0368863
internal_weight=3139.05 1686.26 1452.8
internal_count=20000 10723 9277
is_linear=0
shrinkage=0.03


Tree=33
num_leaves=5
num_cat=0
split_feature=19 10 35 10
split_gain=4122.54 262.682 103.743 28.5309
threshold=1.0000000180025095e-35 -0.21387653226326314 -0.20359921344133475 0.23880858512737571
decision_type=2 2 2 2
left_child=1 2 -1 -2
right_child=3 -3 -4 -5
leaf_value=0.022568449226289023 -0.036685084997591696 0.036494720008191983 -0.037737350676791175 -0.0050272588458146091
leaf_weight=38.165049985051155 1445.033458262682 1497.3717556148767 58.528120651841164 30.073666468262672
leaf_count=200 9541 9811 299 149
internal_value=0 0.0333979 -0.0137002 -0.0360791
internal_weight=3069.17 1594.06 96.6932 1475.11
internal_count=20000 10310 499 9690
is_linear=0
shrinkage=0.03


Tree=34
num_leaves=5
num_cat=0
split_feature=19 33 31 4
split_gain=3970.46 158.459 253.951 24.9945
threshold=1.0000000180025095e-35 -0.63379458602822381 -1.6227323030543819 -0.60913458892802341
decision_type=2 2 2 2
left_child=1 -1 -3 -2
right_child=3 2 -4 -5
leaf_value=0.036378497681946606 -0.0060783997222677152 -0.039035809100220302 0.035164348713499993 -0.036394946256739363
leaf_weight=1397.689078643918 29.583329275250435 65.455454111099243 95.872185230255127 1412.3422602266073
leaf_count=9370 166 334 606 9524
internal_value=0 0.0331355 0.00461029 -0.0358168
internal_weight=3000.94 1559.02 161.328 1441.93
internal_count=20000 10310 940 9690
is_linear=0
shrinkage=0.03


Tree=35
num_leaves=4
num_cat=0
split_feature=35 31 35
split_gain=3679.19 632.03 6.92894
threshold=-0.30726846542178071 -1.4365528525094298 -0.41908954948940741
decision_type=2 2 2
left_child=2 -2 -1
right_child=1 -3 -4
leaf_value=0.036536712119747038 -0.036480592856305331 0.035440697317114932 0.016544133488797037
leaf_weight=1324.0616292357445 1461.3466417491436 114.55450165271759 33.348933666944504
leaf_count=9082 9971 752 195
internal_value=0 -0.031138 0.0361301
internal_weight=2933.31 1575.9 1357.41
internal_count=20000 10723 9277
is_linear=0
shrinkage=0.03


Tree=36
num_leaves=6
num_cat=0
split_feature=33 10 11 33 9
split_gain=3518.37 424.76 41.3423 26.1477 22.1422
threshold=-0.66186959557017355 0.23880858512737571 -0.90988068080312867 -0.70420527347889939 0.20146765584566548
decision_type=2 2 2 2 2
left_child=3 4 -3 -1 -2
right_child=1 2 -4 -5 -6
leaf_value=0.036188926542694344 -0.036176040513619487 -0.0048415314799665782 0.033775797932981903 0.0092417802411569154 -0.0075841870016465996
leaf_weight=1298.3302066773176 1381.1577761769295 31.286583691835403 84.186349987983704 40.47022333741188 30.59864541888237
leaf_count=9106 9698 187 560 264 185
internal_value=0 -0.0310717 0.023297 0.0354341 -0.0356065
internal_weight=2866.03 1527.23 115.473 1338.8 1411.76
internal_count=20000 10630 747 9370 9883
is_linear=0
shrinkage=0.03


Tree=37
num_leaves=7
num_cat=0
split_feature=19 9 33 9 33 35
split_gain=3558.88 167.369 104.287 29.5499 6.45642 3.90497
threshold=1.0000000180025095e-35 -0.12795240363494953 -0.64525500700660521 0.19328491455796395 -0.5789028644387223 0.10906157792441636
decision_type=2 2 2 2 2 2
left_child=1 2 -1 -2 -3 -6
right_child=3 4 -4 -5 5 -7
leaf_value=0.029638745673766398 -0.035770792617331695 0.035640838646099113 -0.033422554619579069 -0.0033564272410738887 0.012222704568976893 0.030722335351183894
leaf_weight=35.342818796634674 1316.2472721785307 1296.1635672450066 51.625251322984695 29.006296873092651 42.388458833098412 30.829106003046036
leaf_count=205 9535 9355 276 155 266 208
internal_value=0 0.0324479 -0.00725089 -0.0351091 0.0350081 0.0218617
internal_weight=2801.6 1456.35 86.9681 1345.25 1369.38 73.2176
internal_count=20000 10310 481 9690 9829 474
is_linear=0
shrinkage=0.03


Tree=38
num_leaves=5
num_cat=0
split_feature=19 10 35 10
split_gain=3430.34 228.085 84.8632 30.3582
threshold=1.0000000180025095e-35 -0.21387653226326314 -0.19879050194724388 0.25769620810827792
decision_type=2 2 2 2
left_child=1 2 -1 -2
right_child=3 -3 -4 -5
leaf_value=0.020225238311697837 -0.03554729541015799 0.035326261796646781 -0.036021391708876395 -0.0020325032602220607
leaf_weight=36.084666386246681 1286.5696556866169 1334.1450144797564 53.666392773389816 27.367436856031418
leaf_count=202 9550 9811 297 140
internal_value=0 0.03221 -0.0132167 -0.0348823
internal_weight=2737.83 1423.9 89.7511 1313.94
internal_count=20000 10310 499 9690
is_linear=0
shrinkage=0.03


Tree=39
num_leaves=6
num_cat=0
split_feature=35 10 23 29 35
split_gain=3188.6 406.421 38.1814 18.1202 6.93521
threshold=-0.30726846542178071 0.30395803231339796 -0.45269886172290691 -0.3501206909655829 -0.41908954948940741
decision_type=2 2 2 2 2
left_child=4 2 -2 -3 -1
right_child=1 3 -4 -5 -6
leaf_value=0.03567402389369724 0 0.033276324801441735 -0.03554458321617926 0.0037893011137986425 0.015435875881423346
leaf_weight=1205.2022670060396 28.516360208392143 74.261517032980919 1305.1850662082434 29.583938181400299 31.55616682767868
leaf_count=9082 198 531 9801 193 195
internal_value=0 -0.0303313 -0.0347971 0.0257115 0.035246
internal_weight=2674.31 1437.55 1333.7 103.845 1236.76
internal_count=20000 10723 9999 724 9277
is_linear=0
shrinkage=0.03


Tree=40
num_leaves=6
num_cat=0
split_feature=19 10 33 10 17
split_gain=3193.5 214.344 77.7408 29.0584 0.185096
threshold=1.0000000180025095e-35 -0.21387653226326314 -0.6068098729602972 0.25769620810827792 0.62282874617737016
decision_type=2 2 2 2 2
left_child=1 2 -1 -2 -3
right_child=3 4 -4 -5 -6
leaf_value=0.019530078304885588 -0.035150046118030638 0.035159701660878499 -0.035043290233823972 -0.0022160208866512919 0.018707101594274776
leaf_weight=35.018562167882919 1225.7389880865812 1245.8559540510178 51.976283699274063 27.290549948811531 26.526456385850906
leaf_count=202 9550 9648 297 140 163
internal_value=0 0.031798 -0.0128819 -0.0344683 0.0349148
internal_weight=2612.41 1359.38 86.9948 1253.03 1272.38
internal_count=20000 10310 499 9690 9811
is_linear=0
shrinkage=0.03


Tree=41
num_leaves=6
num_cat=0
split_feature=19 10 35 9 9
split_gain=3080.18 207.837 75.9553 33.0607 1.48694
threshold=1.0000000180025095e-35 -0.21387653226326314 -0.19879050194724388 0.20146765584566548 -0.2150002119424175
decision_type=2 2 2 2 2
left_child=1 2 -1 -2 -3
right_child=3 4 -4 -5 -6
leaf_value=0.019273756371600264 -0.034985694023747342 0.017049361424897061 -0.03491247822559071 0 0.034981271817529136
leaf_weight=34.938701972365379 1197.3856347948313 24.993356704711914 50.886567562818527 25.813925713300705 1216.9437368139625
leaf_count=202 9548 134 297 142 9677
internal_value=0 0.0315924 -0.0126768 -0.0342644 0.0347143
internal_weight=2550.96 1327.76 85.8253 1223.2 1241.94
internal_count=20000 10310 499 9690 9811
is_linear=0
shrinkage=0.03


Tree=42
num_leaves=6
num_cat=0
split_feature=19 10 35 10 17
split_gain=2971.36 201.573 73.0933 30.3818 1.14341
threshold=1.0000000180025095e-35 -0.21387653226326314 -0.19879050194724388 0.27563765007086721 0.63038050863909934
decision_type=2 2 2 2 2
left_child=1 2 -1 -2 -3
right_child=3 4 -4 -5 -6
leaf_value=0.018880681778237079 -0.034764206073228721 0.034783029427972179 -0.034551713712878955 -0.00010926477571699893 0.01706359421562114
leaf_weight=34.703793585300446 1168.876059666276 1187.5270968228579 49.941870525479317 25.022534981369972 24.4557119384408
leaf_count=202 9561 9659 297 129 152
internal_value=0 0.0313942 -0.0124791 -0.0340664 0.0345217
internal_weight=2490.53 1296.63 84.6457 1193.9 1211.98
internal_count=20000 10310 499 9690 9811
is_linear=0
shrinkage=0.03


Tree=43
num_leaves=6
num_cat=0
split_feature=19 10 3 10 3
split_gain=2866.84 195.541 68.1552 30.0485 0.517248
threshold=1.0000000180025095e-35 -0.21387653226326314 0.024970541346087116 0.27563765007086721 -0.45557183129733014
decision_type=2 2 2 2 2
left_child=1 2 -1 -2 -3
right_child=3 4 -4 -5 -6
leaf_value=-0.033596470433746792 -0.034586583601400149 0.017501541920051381 0.018367508881673291 -0.00010653666995926135 0.03458766028687775
leaf_weight=49.537033721804619 1140.0931494683027 24.452555999159813 33.940559759736061 25.021593391895294 1158.1454117074609
leaf_count=294 9561 156 205 129 9655
internal_value=0 0.0312011 -0.0122857 -0.0338754 0.0343348
internal_weight=2431.19 1266.08 83.4776 1165.11 1182.6
internal_count=20000 10310 499 9690 9811
is_linear=0
shrinkage=0.03


Tree=44
num_leaves=5
num_cat=0
split_feature=19 35 31 32
split_gain=2766.28 124.693 206.263 31.204
threshold=1.0000000180025095e-35 -0.2801843164699841 -1.6227323030543819 -0.43220844099365169
decision_type=2 2 2 2
left_child=1 -1 -3 -2
right_child=3 2 -4 -5
leaf_value=0.034557934355202213 0 -0.036139855641640128 0.03300800343526239 -0.034401124467128251
leaf_weight=1085.0854807943106 22.970773957669735 60.062090933322906 91.049044623970985 1113.892612285912
leaf_count=9237 152 351 722 9538
internal_value=0 0.0310105 0.00505443 -0.0336903
internal_weight=2373.06 1236.2 151.111 1136.86
internal_count=20000 10310 1073 9690
is_linear=0
shrinkage=0.03


Tree=45
num_leaves=4
num_cat=0
split_feature=33 31 33
split_gain=2573.24 478.941 1.45157
threshold=-0.68171487324329938 -1.5884357110852598 -0.72477990377448254
decision_type=2 2 2
left_child=2 -2 -1
right_child=1 -3 -4
leaf_value=0.034630123763153935 -0.034522654273784176 0.032934102883377947 0.018677399590734549
leaf_weight=1030.209604986012 1153.8638748824596 98.80358250439167 32.43113761395216
leaf_count=8974 9974 788 264
internal_value=0 -0.0290684 0.0342611
internal_weight=2315.31 1252.67 1062.64
internal_count=20000 10762 9238
is_linear=0
shrinkage=0.03


Tree=46
num_leaves=6
num_cat=0
split_feature=19 10 35 9 9
split_gain=2578.53 178.427 63.5815 35.8472 3.08319
threshold=1.0000000180025095e-35 -0.21387653226326314 -0.19879050194724388 0.21056177761069741 -0.22992908752948713
decision_type=2 2 2 2 2
left_child=1 2 -1 -2 -3
right_child=3 4 -4 -5 -6
leaf_value=0.017912023708811405 -0.03414838508290275 0.014313198684110602 -0.03328204112105531 0.0019574330256214973 0.034134270074323105
leaf_weight=32.957331135869026 1058.5436025038362 22.374375015497208 46.362980097532272 23.192177295684814 1075.1386751011014
leaf_count=202 9557 126 297 133 9685
internal_value=0 0.0306828 -0.0118545 -0.0333412 0.0338241
internal_weight=2258.57 1176.83 79.3203 1081.74 1097.51
internal_count=20000 10310 499 9690 9811
is_linear=0
shrinkage=0.03


Tree=47
num_leaves=7
num_cat=0
split_feature=19 9 35 9 35 35
split_gain=2489.13 130.603 77.6137 35.4489 3.92972 0.645668
threshold=1.0000000180025095e-35 -0.11924313956630524 -0.24128081233981694 0.21056177761069741 -0.30726846542178071 0.043088312287090133
decision_type=2 2 2 2 2 2
left_child=1 2 -1 -2 -3 -6
right_child=3 4 -4 -5 5 -7
leaf_value=0.026441475710198385 -0.033994497319691779 0.034080438158989479 -0.030809716510946512 0.0019079659598966411 0.016287940263440385 0.029199911990624758
leaf_weight=31.949685625731945 1031.8611656874418 972.01611670851707 45.050626650452614 23.209031194448471 56.536613397300243 42.916081316769123
leaf_count=222 9557 8991 282 133 448 367
internal_value=0 0.030511 -0.00652487 -0.0331712 0.0332184 0.023278
internal_weight=2203.54 1148.47 77.0003 1055.07 1071.47 99.4527
internal_count=20000 10310 504 9690 9806 815
is_linear=0
shrinkage=0.03


Tree=48
num_leaves=6
num_cat=0
split_feature=19 10 33 9 9
split_gain=2402.87 170.971 64.1701 37.1869 3.31479
threshold=1.0000000180025095e-35 -0.20626074577355555 -0.61397580941123298 0.21910213954273849 -0.22992908752948713
decision_type=2 2 2 2 2
left_child=1 2 -1 -2 -3
right_child=3 4 -4 -5 -6
leaf_value=0.018878717514468651 -0.033848808249448352 0.013748963787280655 -0.032961576915392928 0.0036473056675154938 0.033863469791811401
leaf_weight=31.984454713761806 1006.983688428998 21.840401515364647 46.221873536705971 21.957183852791786 1021.3259441256523
leaf_count=205 9566 125 302 124 9678
internal_value=3.58645e-06 0.0303309 -0.0115392 -0.0330059 0.0335386
internal_weight=2150.31 1121.37 78.2063 1028.94 1043.17
internal_count=20000 10310 507 9690 9803
is_linear=0
shrinkage=0.03


Tree=49
num_leaves=7
num_cat=0
split_feature=19 9 35 9 35 29
split_gain=2320.15 124.062 72.609 36.7335 4.22113 20.6498
threshold=1.0000000180025095e-35 -0.11924313956630524 -0.24128081233981694 0.21910213954273849 -0.30726846542178071 -0.25512792722287164
decision_type=2 2 2 2 2 2
left_child=1 2 -1 -2 -3 -6
right_child=3 4 -4 -5 5 -7
leaf_value=0.025859527796512762 -0.033705252414385857 0.033795233304208867 -0.030236353907826433 0.0035543928824361411 0.030370320692346037 -0.00016458567349095986
leaf_weight=31.017726451158524 981.34298687428236 923.42847456037998 43.728484302759171 21.985480055212975 71.657389603555202 24.245671480894089
leaf_count=222 9566 8991 282 124 640 175
internal_value=4.16682e-06 0.0301687 -0.00642 -0.0328455 0.0328993 0.0227277
internal_weight=2097.41 1094.08 74.7462 1003.33 1019.33 95.9031
internal_count=20000 10310 504 9690 9806 815
is_linear=0
shrinkage=0.03


Tree=50
num_leaves=6
num_cat=0
split_feature=19 3 34 20 34
split_gain=2240.33 96.5852 32.2028 15.9886 29.4649
threshold=1.0000000180025095e-35 -0.41517518502572881 -0.67538244930679869 0.82029391777098215 -0.76275119221000975
decision_type=2 2 2 2 2
left_child=1 -1 -2 -3 -5
right_child=2 3 -4 4 -6
leaf_value=-0.0075910486313267751 0.0029673426839324241 0.033115794346317368 -0.033475774381249046 0.029181007428322723 -0.010929678730516952
leaf_weight=55.223292179405689 19.986901521682739 952.50626660138369 958.26225563138723 38.093739293515682 21.927183486521244
leaf_count=393 138 9376 9552 383 158
internal_value=6.25582e-06 0.030002 -0.0326894 0.032109 0.0143525
internal_weight=2046 1067.75 978.249 1012.53 60.0209
internal_count=20000 10310 9690 9917 541
is_linear=0
shrinkage=0.03


Tree=51
num_leaves=6
num_cat=0
split_feature=19 10 33 10 17
split_gain=2161.89 163.713 56.2905 37.5095 2.97804
threshold=1.0000000180025095e-35 -0.20626074577355555 -0.61066929994713914 0.31260968713543641 0.66068535825545183
decision_type=2 2 2 2 2
left_child=1 2 -1 -2 -3
right_child=3 4 -4 -5 -6
leaf_value=0.016953235197419033 -0.033407579970188651 0.033437086458314891 -0.032337478898700124 0.0056722376206815471 0.013048708384390645
leaf_weight=31.129284903407097 933.85695867985487 947.88813631981611 44.26605661213398 19.924234062433243 19.96250981092453
leaf_count=207 9582 9667 300 108 136
internal_value=6.66173e-06 0.0297992 -0.0118245 -0.0325346 0.0331166
internal_weight=1997.03 1043.25 75.3953 953.781 967.851
internal_count=20000 10310 507 9690 9803
is_linear=0
shrinkage=0.03


Tree=52
num_leaves=6
num_cat=0
split_feature=19 10 35 9 9
split_gain=2088.06 159.064 54.0372 40.4729 4.55062
threshold=1.0000000180025095e-35 -0.20626074577355555 -0.19879050194724388 0.24490014761201556 -0.24573221408305437
decision_type=2 2 2 2 2
left_child=1 2 -1 -2 -3
right_child=3 4 -4 -5 -6
leaf_value=0.016219608977314819 -0.033316310826178294 0.011501055266515481 -0.032247273093575266 0.0072459162420901932 0.0333374362160445
leaf_weight=31.424304232001305 909.94933072477579 19.697633281350136 42.900838248431683 19.78838711977005 923.59993473440409
leaf_count=209 9578 114 298 112 9689
internal_value=7.26545e-06 0.0296466 -0.0116468 -0.0323868 0.0329761
internal_weight=1947.36 1017.62 74.3251 929.738 943.298
internal_count=20000 10310 507 9690 9803
is_linear=0
shrinkage=0.03


Tree=53
num_leaves=6
num_cat=0
split_feature=19 10 33 9 9
split_gain=2016.95 154.595 54.327 42.5477 4.67485
threshold=1.0000000180025095e-35 -0.20626074577355555 -0.61397580941123298 0.25347197909318187 -0.24573221408305437
decision_type=2 2 2 2 2
left_child=1 2 -1 -2 -3
right_child=3 4 -4 -5 -6
leaf_value=0.01712765802023675 -0.03319425338433285 0.011271035563692498 -0.03189679571685905 0.0093111121993258959 0.033212607640842044
leaf_weight=30.247756756842136 887.60905783623457 19.600166141986847 43.021946005523205 18.598585903644562 899.63978035748005
leaf_count=205 9587 114 302 103 9689
internal_value=7.83656e-06 0.0294981 -0.0114736 -0.0322427 0.0328407
internal_weight=1898.72 992.51 73.2697 906.208 919.24
internal_count=20000 10310 507 9690 9803
is_linear=0
shrinkage=0.03


Tree=54
num_leaves=7
num_cat=0
split_feature=35 29 22 15 35 39
split_gain=1930.86 235.54 33.5049 7.74626 5.96529 1.68626
threshold=-0.30726846542178071 -0.31733736782041749 -1.0000000180025095e-35 0.14009983862242562 -0.41908954948940741 1.0417833050444736
decision_type=2 2 2 2 2 2
left_child=4 3 -3 -2 -1 -4
right_child=1 2 5 -5 -6 -7
leaf_value=0.033504876991260008 0.0048128426402439381 0.0047961716242110927 -0.03338943364314291 0.030051628982561647 0.011913865080790381 -0.014224602349530156
leaf_weight=830.85343118011951 20.388421326875687 18.89098697155714 889.4729794934392 48.194739021360874 23.296152494847775 20.000194109976292
leaf_count=9082 193 177 9648 491 195 214
internal_value=8.66508e-06 -0.0282711 -0.0322564 0.0237932 0.0330237 -0.0330809
internal_weight=1851.1 996.947 928.364 68.5832 854.15 909.473
internal_count=20000 10723 10039 684 9277 9862
is_linear=0
shrinkage=0.03


Tree=55
num_leaves=4
num_cat=0
split_feature=33 31 33
split_gain=1850.38 355.362 1.46917
threshold=-0.68171487324329938 -1.5884357110852598 -0.72477990377448254
decision_type=2 2 2
left_child=2 -2 -1
right_child=1 -3 -4
leaf_value=0.033361227516286868 -0.033237173549925045 0.031352669908527288 0.016345574391931447
leaf_weight=800.69167710840702 898.84907406568527 79.395306758582592 26.162090726196766
leaf_count=8974 9974 788 264
internal_value=1.26265e-05 -0.0278317 0.0329604
internal_weight=1805.1 978.244 826.854
internal_count=20000 10762 9238
is_linear=0
shrinkage=0.03


Tree=56
num_leaves=4
num_cat=0
split_feature=33 31 33
split_gain=1788.44 343.976 1.64487
threshold=-0.68171487324329938 -1.5884357110852598 -0.72477990377448254
decision_type=2 2 2
left_child=2 -2 -1
right_child=1 -3 -4
leaf_value=0.033240928759370125 -0.033109381336739768 0.031153206059768533 0.016053200792466932
leaf_weight=779.81508157402277 875.61901787668467 77.566238790750504 25.933972835540771
leaf_count=8974 9974 788 264
internal_value=1.70209e-05 -0.0277134 0.0328271
internal_weight=1758.93 953.185 805.749
internal_count=20000 10762 9238
is_linear=0
shrinkage=0.03


Tree=57
num_leaves=4
num_cat=0
split_feature=35 31 35
split_gain=1743.51 322.303 6.33962
threshold=-0.30726846542178071 -1.4365528525094298 -0.41908954948940741
decision_type=2 2 2
left_child=2 -2 -1
right_child=1 -3 -4
leaf_value=0.033152699355144158 -0.033053097179344855 0.031469992859142024 0.011018051646243717
leaf_weight=767.97876996546984 852.02213402092457 71.467640236020088 22.35290964692831
leaf_count=9082 9971 752 195
internal_value=2.14733e-05 -0.0278849 0.0326376
internal_weight=1713.82 923.49 790.332
internal_count=20000 10723 9277
is_linear=0
shrinkage=0.03


Tree=58
num_leaves=7
num_cat=0
split_feature=19 9 35 9 35 29
split_gain=1703.81 101.549 52.1698 42.2899 3.76624 17.3223
threshold=1.0000000180025095e-35 -0.11924313956630524 -0.23155228173995931 0.27048749164827296 -0.30726846542178071 -0.23769705531661425
decision_type=2 2 2 2 2 2
left_child=1 2 -1 -2 -3 -6
right_child=3 4 -4 -5 5 -7
leaf_value=0.022366075608601689 -0.032643855866138646 0.032733638925783723 -0.028245731102776183 0.011520117687892076 0.028790079609183231 -0.0013149557070953419
leaf_weight=27.038967467844486 778.96915283054113 730.05887413024902 37.458448052406311 16.676241010427475 58.908792681992054 20.418036833405495
leaf_count=225 9596 8991 279 94 648 167
internal_value=2.56313e-05 0.0288832 -0.00651368 -0.0316146 0.0317634 0.021067
internal_weight=1669.53 873.883 64.4974 795.645 809.386 79.3268
internal_count=20000 10310 504 9690 9806 815
is_linear=0
shrinkage=0.03


Tree=59
num_leaves=6
num_cat=0
split_feature=19 10 35 9 9
split_gain=1646.49 132.018 43.7519 43.4868 5.28202
threshold=1.0000000180025095e-35 -0.20626074577355555 -0.20758961235312087 0.27832882175142643 -0.26732579423746594
decision_type=2 2 2 2 2
left_child=1 2 -1 -2 -3
right_child=3 4 -4 -5 -6
leaf_value=0.015804118373840572 -0.032541870017919659 0.0086155161489405614 -0.030364377140454351 0.012940019503070627 0.032546114573472749
leaf_weight=27.039121299982071 759.13041912019253 16.176803797483444 38.479148335754871 15.952807277441023 770.60699828714132
leaf_count=203 9602 100 304 88 9703
internal_value=2.84694e-05 0.0287432 -0.0111158 -0.0314904 0.0321495
internal_weight=1627.39 852.302 65.5183 775.083 786.784
internal_count=20000 10310 507 9690 9803
is_linear=0
shrinkage=0.03


Tree=60
num_leaves=5
num_cat=0
split_feature=19 35 31 35
split_gain=1591.35 91.4143 136.737 42.4645
threshold=1.0000000180025095e-35 -0.30726846542178071 -1.6227323030543819 -0.30726846542178071
decision_type=2 2 2 2
left_child=1 -1 -3 -2
right_child=3 2 -4 -5
leaf_value=0.032582795848437249 0.013477986553728588 -0.032922173067367069 0.030492373735977636 -0.032409709938139325
leaf_weight=715.88803168386221 15.111473873257635 48.322353847324848 66.620572559535503 739.87324795126915
leaf_count=9203 74 355 752 9616
internal_value=2.94675e-05 0.0286146 0.00332153 -0.0313691
internal_weight=1585.82 830.831 114.943 754.985
internal_count=20000 10310 1107 9690
is_linear=0
shrinkage=0.03


Tree=61
num_leaves=6
num_cat=0
split_feature=19 10 9 35 9
split_gain=1538.68 124.638 44.0532 40.6075 5.72115
threshold=1.0000000180025095e-35 -0.20626074577355555 0.28492751956412821 -0.20758961235312087 -0.27466420434197208
decision_type=2 2 2 2 2
left_child=1 3 -2 -1 -3
right_child=2 4 -4 -5 -6
leaf_value=0.015284965597129005 -0.032348217744501001 0.0076934895826632835 0.014070851510902054 -0.029838386639571016 0.032350243128154932
leaf_weight=26.309081114828587 720.00532335788012 15.484130963683127 15.341644227504728 36.877084888517857 730.60396810621023
leaf_count=203 9606 97 84 304 9706
internal_value=3.04393e-05 0.0285083 -0.0312508 -0.0108671 0.0319331
internal_weight=1544.62 809.274 735.347 63.1862 746.088
internal_count=20000 10310 9690 507 9803
is_linear=0
shrinkage=0.03


Tree=62
num_leaves=6
num_cat=0
split_feature=19 10 10 33 17
split_gain=1487.33 121.262 41.9416 40.3006 4.28505
threshold=1.0000000180025095e-35 -0.20626074577355555 0.34292865238169618 -0.61756794322927844 0.66990706965433422
decision_type=2 2 2 2 2
left_child=1 3 -2 -1 -3
right_child=2 4 -4 -5 -6
leaf_value=0.015552328976189245 -0.03222644654720222 0.032234784256828672 0.0133490333521025 -0.029694387615216936 0.0095967782470244636
leaf_weight=25.842789947986603 701.02206439524889 709.86163616925478 15.155992045998572 36.422241196036339 16.676352627575397
leaf_count=202 9603 9671 87 305 132
internal_value=3.15127e-05 0.0283837 -0.0311345 -0.0107088 0.0318253
internal_weight=1504.98 788.803 716.178 62.265 726.538
internal_count=20000 10310 9690 507 9803
is_linear=0
shrinkage=0.03


Tree=63
num_leaves=6
num_cat=0
split_feature=19 10 9 33 9
split_gain=1437.75 117.978 44.541 38.8989 6.00994
threshold=1.0000000180025095e-35 -0.20626074577355555 0.29095932796117469 -0.61756794322927844 -0.27466420434197208
decision_type=2 2 2 2 2
left_child=1 3 -2 -1 -3
right_child=2 4 -4 -5 -6
leaf_value=0.015253548364900183 -0.032163705386732792 0.0071988999475318853 0.015177063258743604 -0.029439702983661182 0.032162088229052373
leaf_weight=25.65926605463028 682.75021290779114 15.301013082265852 14.744101881980894 35.68957157433033 692.19456787407398
leaf_count=202 9610 97 80 305 9706
internal_value=3.27689e-05 0.0282604 -0.0310194 -0.0105537 0.0317186
internal_weight=1466.34 768.844 697.494 61.3488 707.496
internal_count=20000 10310 9690 507 9803
is_linear=0
shrinkage=0.03


Tree=64
num_leaves=6
num_cat=0
split_feature=19 9 9 32 33
split_gain=1389.92 89.3954 45.1548 44.9245 3.61372
threshold=1.0000000180025095e-35 -0.11924313956630524 0.29867722421109127 -0.39476899541908783 -0.62095566859312334
decision_type=2 2 2 2 2
left_child=1 3 -2 -1 -3
right_child=2 4 -4 -5 -6
leaf_value=0.021814134590658101 -0.032074937806283871 0.032031845735983812 0.016135932009099258 -0.027246535424111585 0.018564415029229744
leaf_weight=23.971896193921566 664.95249608904123 635.98376896977425 14.270925752818583 34.559042774140835 54.814941398799419
leaf_count=225 9614 9175 76 279 631
internal_value=3.4001e-05 0.0281395 -0.0309076 -0.00654563 0.0311474
internal_weight=1428.55 749.33 679.223 58.5309 690.799
internal_count=20000 10310 9690 504 9806
is_linear=0
shrinkage=0.03


Tree=65
num_leaves=3
num_cat=0
split_feature=35 31
split_gain=1350.35 270.848
threshold=-0.3368425290838194 -1.4365528525094298
decision_type=2 2
left_child=-1 -2
right_child=1 -3
leaf_value=0.032201442257644236 -0.032351515114512744 0.030562550069110551
leaf_weight=634.70481398701668 694.49139226227999 63.1353804692626
leaf_count=9212 9993 795
internal_value=3.73585e-05 -0.0269034
internal_weight=1392.33 757.627
internal_count=20000 10788
is_linear=0
shrinkage=0.03


Tree=66
num_leaves=6
num_cat=0
split_feature=19 10 10 3 9
split_gain=1299.41 110.614 45.2785 35.0168 6.87193
threshold=1.0000000180025095e-35 -0.20626074577355555 0.37258976445541808 0.10103266197308662 -0.28158735363826631
decision_type=2 2 2 2 2
left_child=1 3 -2 -1 -3
right_child=2 4 -4 -5 -6
leaf_value=-0.027987292183676665 -0.031881126075397719 0.0053520626952014341 0.018143157208269853 0.015637363491580382 0.031911474794268216
leaf_weight=35.476165473461151 630.80420129746199 13.910707123577593 12.912963055074213 22.897618927061558 639.45630441606045
leaf_count=308 9619 89 71 199 9714
internal_value=4.04519e-05 0.0279044 -0.0306993 -0.0105181 0.0314365
internal_weight=1355.46 711.741 643.717 58.3738 653.367
internal_count=20000 10310 9690 507 9803
is_linear=0
shrinkage=0.03


Tree=67
num_leaves=4
num_cat=0
split_feature=33 31 33
split_gain=1256.66 248.497 1.85829
threshold=-0.68171487324329938 -1.5884357110852598 -0.72477990377448254
decision_type=2 2 2
left_child=2 -2 -1
right_child=1 -3 -4
leaf_value=0.032257724981182442 -0.032111245023600299 0.029646590236582008 0.013447538786248369
leaf_weight=583.86941452696919 656.30983781069517 59.960636608302593 20.276139318943024
leaf_count=8974 9974 788 264
internal_value=4.21518e-05 -0.0267301 0.0317912
internal_weight=1320.42 716.27 604.146
internal_count=20000 10762 9238
is_linear=0
shrinkage=0.03


Tree=68
num_leaves=3
num_cat=0
split_feature=35 31
split_gain=1226.28 247.098
threshold=-0.3368425290838194 -1.4365528525094298
decision_type=2 2
left_child=-1 -2
right_child=1 -3
leaf_value=0.031937229647818685 -0.032095996139235972 0.030126372748746175
leaf_weight=586.03826341032982 640.9466553106904 58.651057466864586
leaf_count=9212 9993 795
internal_value=4.75726e-05 -0.0266602
internal_weight=1285.64 699.598
internal_count=20000 10788
is_linear=0
shrinkage=0.03


Tree=69
num_leaves=5
num_cat=0
split_feature=35 10 9 23
split_gain=1186.4 173.066 22.6718 13.1845
threshold=-0.3368425290838194 0.23880858512737571 1.0000000180025095e-35 -0.46092124030003462
decision_type=2 2 2 2
left_child=-1 3 -3 -2
right_child=1 2 -4 -5
leaf_value=0.031840233777636333 0 -0.0090711388732561994 0.029030546820604873 -0.032013735221887357
leaf_weight=570.43966508284211 12.102942846715449 15.041670203208922 47.579699970781803 606.24158465489745
leaf_count=9212 157 153 680 9798
internal_value=5.08528e-05 -0.0265731 0.0194408 -0.0313997
internal_weight=1251.41 680.966 62.6214 618.345
internal_count=20000 10788 833 9955
is_linear=0
shrinkage=0.03


Tree=70
num_leaves=6
num_cat=0
split_feature=35 34 16 23 35
split_gain=1147.5 154.008 55.9022 2.30381 0.0797479
threshold=-0.3368425290838194 -0.23899909339888875 1.4081373241497588 -0.43834323026869604 -0.45837572596987292
decision_type=2 2 2 2 2
left_child=4 2 3 -2 -1
right_child=1 -3 -4 -5 -6
leaf_value=0.032089912101000623 -0.0088925749422980697 0.02854130470881969 0.018765369875318669 -0.031980485549104105 0.013302440277123332
leaf_weight=539.80369283258915 12.214596200734375 38.667116492986679 16.600493300706148 595.96981018781662 15.434618506580589
leaf_count=9017 174 529 251 9834 195
internal_value=5.21392e-05 -0.0264652 -0.0301167 -0.031642 0.0317446
internal_weight=1218.69 663.452 624.785 608.184 555.238
internal_count=20000 10788 10259 10008 9212
is_linear=0
shrinkage=0.03


Tree=71
num_leaves=5
num_cat=0
split_feature=33 34 10 33
split_gain=1101.71 186.847 22.2545 2.14681
threshold=-0.68171487324329938 -0.23899909339888875 0.35693273334307668 -0.72477990377448254
decision_type=2 2 2 2
left_child=3 2 -2 -1
right_child=1 -3 -4 -5
leaf_value=0.031921832406398905 -0.031771454705146321 0.029025227708375477 0.0047393573156003285 0.01242736437933907
leaf_weight=523.79924934357405 584.89266793057323 46.366702944040298 12.715172715485094 18.897301755845547
leaf_count=8974 9938 659 165 264
internal_value=5.90449e-05 -0.0263598 -0.030912 0.0314174
internal_weight=1186.67 643.975 597.608 542.697
internal_count=20000 10762 10103 9238
is_linear=0
shrinkage=0.03


Tree=72
num_leaves=4
num_cat=0
split_feature=35 31 35
split_gain=1074.23 222.391 0.332092
threshold=-0.3368425290838194 -1.4365528525094298 -0.45837572596987292
decision_type=2 2 2
left_child=2 -2 -1
right_child=1 -3 -4
leaf_value=0.031937097613321953 -0.031768676066703756 0.029645274565081172 0.012741267117480401
leaf_weight=511.05540253967047 575.4183213673532 54.00412305817008 15.04637126252055
leaf_count=9017 9993 795 195
internal_value=6.61768e-05 -0.02626 0.0315697
internal_weight=1155.52 629.422 526.102
internal_count=20000 10788 9212
is_linear=0
shrinkage=0.03


Tree=73
num_leaves=6
num_cat=0
split_feature=35 10 9 23 35
split_gain=1039.65 155.017 20.7185 13.0097 0.436147
threshold=-0.3368425290838194 0.23880858512737571 -0.020821540808479772 -0.5375283446712017 -0.45837572596987292
decision_type=2 2 2 2 2
left_child=4 3 -3 -2 -1
right_child=1 2 -4 -5 -6
leaf_value=0.031862689968665876 0 -0.0091123419163168223 0.028515134843020557 -0.031700015120517233 0.012524802840722545
leaf_weight=497.10366421565413 10.765951938927172 13.836971186101435 43.871672842651606 544.08491655439138 14.935334611684082
leaf_count=9017 146 149 684 9809 195
internal_value=7.22939e-05 -0.0261779 0.0190075 -0.0310589 0.0314832
internal_weight=1124.6 612.56 57.7086 554.851 512.039
internal_count=20000 10788 833 9955 9212
is_linear=0
shrinkage=0.03


Tree=74
num_leaves=4
num_cat=0
split_feature=35 31 35
split_gain=1005.88 210.664 0.539243
threshold=-0.3368425290838194 -1.4365528525094298 -0.45837572596987292
decision_type=2 2 2
left_child=2 -2 -1
right_child=1 -3 -4
leaf_value=0.031789959365393146 -0.031612613296049322 0.029406109704939114 0.012311041517531278
leaf_weight=483.51032714918256 545.00170646235347 51.711571421474218 14.827291049063204
leaf_count=9017 9993 795 195
internal_value=7.68087e-05 -0.0260744 0.031398
internal_weight=1095.05 596.713 498.338
internal_count=20000 10788 9212
is_linear=0
shrinkage=0.03


Tree=75
num_leaves=6
num_cat=0
split_feature=19 10 33 33 9
split_gain=969.747 85.5258 42.961 28.0291 7.81854
threshold=1.0000000180025095e-35 -0.20626074577355555 -0.71489403329591183 -0.62759868576351574 -0.30133831396162647
decision_type=2 2 2 2 2
left_child=1 3 -2 -1 -3
right_child=2 4 -4 -5 -6
leaf_value=0.014988631041198845 0.021423969741308894 0.0016960118784144496 -0.031244514957561201 -0.027146835041917783 0.03127330781549293
leaf_weight=19.373680718243122 10.351542860269545 10.958453834056852 494.33705262467265 28.702017739415169 501.95611806213856
leaf_count=195 47 77 9643 312 9726
internal_value=8.31551e-05 0.0271413 -0.0299058 -0.00978932 0.0307218
internal_weight=1065.68 560.99 504.689 48.0757 512.915
internal_count=20000 10310 9690 507 9803
is_linear=0
shrinkage=0.03


Tree=76
num_leaves=4
num_cat=0
split_feature=35 31 35
split_gain=944.098 198.448 1.52874
threshold=-0.3368425290838194 -1.4365528525094298 -0.41908954948940741
decision_type=2 2 2
left_child=2 -2 -1
right_child=1 -3 -4
leaf_value=0.031602565532789374 -0.031475665590190618 0.029153843705833748 0.0084059181169351491
leaf_weight=461.82183004170656 516.14681603386998 49.175635173916817 10.475014433264731
leaf_count=9082 9993 795 130
internal_value=8.5203e-05 -0.0259397 0.0312444
internal_weight=1037.62 565.322 472.297
internal_count=20000 10788 9212
is_linear=0
shrinkage=0.03


Tree=77
num_leaves=7
num_cat=0
split_feature=9 34 10 24 24 10
split_gain=841.864 116.337 84.7366 11.188 3.55947 3.14228
threshold=0.012826290956498098 -0.75466102246595868 -0.37602158227442689 -0.40929090769683046 0.017435114326648706 -0.20626074577355555
decision_type=2 2 2 2 2 2
left_child=1 -1 4 -3 -2 -4
right_child=2 3 5 -5 -6 -7
leaf_value=0.026099544630483824 -0.001538582706956075 0 0.0069952290241623843 -0.031320595826338352 -0.023706609910939556 0.03129656056101169
leaf_weight=30.560698382556438 14.321891773492096 9.8741373829543573 11.4229797758162 467.64551386609674 18.694472499191761 457.19571922719479
leaf_count=497 173 146 168 9435 294 9287
internal_value=9.12836e-05 -0.0269664 0.0275515 -0.03066 -0.0163467 0.0308476
internal_weight=1009.72 508.08 501.635 477.52 33.0164 468.619
internal_count=20000 10078 9922 9581 467 9455
is_linear=0
shrinkage=0.03


Tree=78
num_leaves=6
num_cat=0
split_feature=19 10 10 33 9
split_gain=880.442 78.1085 40.6012 27.5747 7.56715
threshold=1.0000000180025095e-35 -0.20626074577355555 0.47860943697886255 -0.63931274691834628 -0.30133831396162647
decision_type=2 2 2 2 2
left_child=1 3 -2 -1 -3
right_child=2 4 -4 -5 -6
leaf_value=0.016132718106241464 -0.031010930736414095 0.0015015945436996118 0.022182263621279546 -0.026669385631123185 0.031081668590867244
leaf_weight=17.9789749532938 456.0996209345758 10.618428021669386 9.2574333325028402 27.577393054962158 462.08917847648263
leaf_count=189 9642 77 48 318 9726
internal_value=9.1432e-05 0.0268951 -0.0296644 -0.00925909 0.0305027
internal_weight=983.621 518.264 465.357 45.5564 472.708
internal_count=20000 10310 9690 507 9803
is_linear=0
shrinkage=0.03


Tree=79
num_leaves=6
num_cat=0
split_feature=33 10 29 22 33
split_gain=852.862 127.849 13.5378 12.8094 2.37545
threshold=-0.68171487324329938 0.23880858512737571 -0.21584962073065203 -1.0000000180025095e-35 -0.72477990377448254
decision_type=2 2 2 2 2
left_child=4 3 -3 -2 -1
right_child=1 2 -4 -5 -6
leaf_value=0.031364207381688096 0.00019252458943052142 0.026736667845553886 -0.005194401835245336 -0.031300649604250351 0.010581166370307286
leaf_weight=421.59355306997895 9.9190825298428518 36.855897106230259 12.720240425318478 460.53645021468401 16.020753271877766
leaf_count=8974 153 645 174 9790 264
internal_value=9.40251e-05 -0.025735 0.0182688 -0.0305785 0.0307993
internal_weight=957.646 520.032 49.5761 470.456 437.614
internal_count=20000 10762 819 9943 9238
is_linear=0
shrinkage=0.03


Tree=80
num_leaves=4
num_cat=0
split_feature=35 31 35
split_gain=832.747 177.601 1.69378
threshold=-0.3368425290838194 -1.4365528525094298 -0.41908954948940741
decision_type=2 2 2
left_child=2 -2 -1
right_child=1 -3 -4
leaf_value=0.03135406029187808 -0.031222086137129568 0.028662399858859731 0.0075666649903483943
leaf_weight=414.42322820425034 463.51831233128905 44.848375543951988 9.8186994157731515
leaf_count=9082 9993 795 130
internal_value=9.96197e-05 -0.0256529 0.030968
internal_weight=932.609 508.367 424.242
internal_count=20000 10788 9212
is_linear=0
shrinkage=0.03


Tree=81
num_leaves=4
num_cat=0
split_feature=35 31 35
split_gain=806.125 172.35 1.74653
threshold=-0.3368425290838194 -1.4365528525094298 -0.41908954948940741
decision_type=2 2 2
left_child=2 -2 -1
right_child=1 -3 -4
leaf_value=0.031287705201803601 -0.031148410573274592 0.028520990126631202 0.0074352124543487141
leaf_weight=403.02572971209884 450.87886613234878 43.759871885180473 9.781489681452511
leaf_count=9082 9993 795 130
internal_value=0.000106165 -0.0255769 0.0308901
internal_weight=907.446 494.639 412.807
internal_count=20000 10788 9212
is_linear=0
shrinkage=0.03


Tree=82
num_leaves=4
num_cat=0
split_feature=35 31 35
split_gain=780.37 167.267 1.79836
threshold=-0.3368425290838194 -1.4365528525094298 -0.41908954948940741
decision_type=2 2 2
left_child=2 -2 -1
right_child=1 -3 -4
leaf_value=0.0312223646537498 -0.031075496516454092 0.028379831497720626 0.0073058306089409074
leaf_weight=391.93098797276616 438.57616702467203 42.699119169265032 9.7451750040054304
leaf_count=9082 9993 795 130
internal_value=0.000112836 -0.0255013 0.0308128
internal_weight=882.951 481.275 401.676
internal_count=20000 10788 9212
is_linear=0
shrinkage=0.03


Tree=83
num_leaves=6
num_cat=0
split_feature=35 10 9 22 35
split_gain=755.449 116.123 15.8688 10.6747 1.84927
threshold=-0.3368425290838194 0.23880858512737571 -0.050128110067049571 -1.0000000180025095e-35 -0.41908954948940741
decision_type=2 2 2 2 2
left_child=4 3 -3 -2 -1
right_child=1 2 -4 -5 -6
leaf_value=0.031157976779247532 0 -0.0088606105036139853 0.027177446184078052 -0.031057297418526489 0.0071784957716053803
leaf_weight=381.13202454522252 9.0062103904783708 10.882063217461107 34.929791651666164 413.44997000321746 9.7097310535609704
leaf_count=9082 146 140 693 9809 130
internal_value=0.00011964 -0.025426 0.0179971 -0.0303605 0.0307362
internal_weight=859.11 468.268 45.8119 422.456 390.842
internal_count=20000 10788 833 9955 9212
is_linear=0
shrinkage=0.03


Tree=84
num_leaves=5
num_cat=0
split_feature=34 31 31 29
split_gain=648.895 175.389 44.2494 6.78501
threshold=-0.67538244930679869 -1.5884357110852598 -1.8407385613733915 0.3782893774976695
decision_type=2 2 2 2
left_child=3 2 -2 -1
right_child=1 -3 -4 -5
leaf_value=0.030708288414176468 0.020661595713602737 0.02820482285227377 -0.030895917655933296 0
leaf_weight=354.92632683739066 11.546027190983294 49.413827419281006 411.98783306404948 8.4883309304714185
leaf_count=8691 268 980 9910 151
internal_value=0.000124347 -0.0229034 -0.0291957 0.0300782
internal_weight=836.362 472.948 423.534 363.415
internal_count=20000 11158 10178 8842
is_linear=0
shrinkage=0.03


Tree=85
num_leaves=6
num_cat=0
split_feature=19 10 33 33 9
split_gain=705.084 63.8401 39.4064 21.0041 7.00098
threshold=1.0000000180025095e-35 -0.20626074577355555 -0.7420695123431964 -0.63931274691834628 -0.30133831396162647
decision_type=2 2 2 2 2
left_child=1 3 -2 -1 -3
right_child=2 4 -4 -5 -6
leaf_value=0.014585213442896859 0.023944841272416899 0.0007671080580178303 -0.030686766423019374 -0.025080864401726646 0.030693102892312786
leaf_weight=15.565275512635706 8.1481148749589902 9.5297636464238149 376.12650544196367 23.359060179442167 381.44567890837789
leaf_count=189 39 77 9651 318 9726
internal_value=0.000134686 0.0264223 -0.0291586 -0.00868131 0.0300583
internal_weight=814.174 429.9 384.275 38.9243 390.975
internal_count=20000 10310 9690 507 9803
is_linear=0
shrinkage=0.03


Tree=86
num_leaves=4
num_cat=0
split_feature=35 31 35
split_gain=687.668 149.658 1.9547
threshold=-0.3368425290838194 -1.4365528525094298 -0.41908954948940741
decision_type=2 2 2
left_child=2 -2 -1
right_child=1 -3 -4
leaf_value=0.030988104651297137 -0.03083276642044034 0.027894450071283779 0.0065955573083432209
leaf_weight=351.22020289674401 393.17896515503526 38.888428598642349 9.2735788412392122
leaf_count=9082 9993 795 130
internal_value=0.00013794 -0.0252197 0.0305415
internal_weight=792.561 432.067 360.494
internal_count=20000 10788 9212
is_linear=0
shrinkage=0.03


Tree=87
num_leaves=6
num_cat=0
split_feature=35 10 9 22 35
split_gain=665.749 103.61 13.8671 9.99372 1.99891
threshold=-0.3368425290838194 0.23880858512737571 -0.050128110067049571 -1.0000000180025095e-35 -0.41908954948940741
decision_type=2 2 2 2 2
left_child=4 3 -3 -2 -1
right_child=1 2 -4 -5 -6
leaf_value=0.030926916561232674 0 -0.0081415920698402998 0.026620530636121287 -0.030831542240977707 0.0064807896865444158
leaf_weight=341.51402100548148 8.3873022310435754 10.075890794396399 31.666010372340679 370.24394618347287 9.2436715029180032
leaf_count=9082 146 140 693 9809 130
internal_value=0.00014526 -0.0251454 0.0176143 -0.0301057 0.0304671
internal_weight=771.131 420.373 41.7419 378.631 350.758
internal_count=20000 10788 833 9955 9212
is_linear=0
shrinkage=0.03


Tree=88
num_leaves=4
num_cat=0
split_feature=35 31 35
split_gain=644.332 142.101 2.04219
threshold=-0.3368425290838194 -1.4365528525094298 -0.41908954948940741
decision_type=2 2 2
left_child=2 -2 -1
right_child=1 -3 -4
leaf_value=0.030866398862591134 -0.030705508641216302 0.027661693085052647 0.0063678706833445705
leaf_weight=332.07041157782078 372.1440498046577 37.27525906637311 9.2144677564501745
leaf_count=9082 9993 795 130
internal_value=0.000150417 -0.0250495 0.0303931
internal_weight=750.704 409.419 341.285
internal_count=20000 10788 9212
is_linear=0
shrinkage=0.03


Tree=89
num_leaves=4
num_cat=0
split_feature=35 31 35
split_gain=623.804 137.979 2.08456
threshold=-0.3368425290838194 -1.4365528525094298 -0.41908954948940741
decision_type=2 2 2
left_child=2 -2 -1
right_child=1 -3 -4
leaf_value=0.0308064980119542 -0.030636846386500088 0.02751992209297667 0.0062567771127580041
leaf_weight=322.88301425427198 361.95379286259413 36.382532231509686 9.1859492212533933
leaf_count=9082 9993 795 130
internal_value=0.000158039 -0.0249753 0.0303193
internal_weight=730.405 398.336 332.069
internal_count=20000 10788 9212
is_linear=0
shrinkage=0.03


Tree=90
num_leaves=6
num_cat=0
split_feature=19 9 9 23 0
split_gain=602.103 45.801 30.8337 15.8744 1.60099
threshold=1.0000000180025095e-35 -0.11924313956630524 0.39896368891295009 -0.134256275609659 1.0000000180025095e-35
decision_type=2 2 2 2 2
left_child=1 3 -2 -1 -3
right_child=2 4 -4 -5 -6
leaf_value=0.01465374670084223 -0.030353697702946252 0.029906842813860062 0.018542796680787465 -0.021366928391606057 0.0080511557444107405
leaf_weight=14.322798382490872 326.67240365222096 330.37042951583862 8.1033731773495656 19.864757429808378 11.325104113668202
leaf_count=231 9641 9530 49 273 276
internal_value=0.000165811 0.0261056 -0.0288264 -0.00556636 0.0293956
internal_weight=710.659 375.883 334.776 34.1876 341.696
internal_count=20000 10310 9690 504 9806
is_linear=0
shrinkage=0.03


Tree=91
num_leaves=4
num_cat=0
split_feature=35 31 35
split_gain=586.819 130.204 2.08824
threshold=-0.3368425290838194 -1.4365528525094298 -0.41908954948940741
decision_type=2 2 2
left_child=2 -2 -1
right_child=1 -3 -4
leaf_value=0.030705449315635146 -0.030525971167879903 0.02724018351660069 0.0059979305191158521
leaf_weight=305.87541357055306 342.91513470932841 34.644724801182747 8.9519143700599653
leaf_count=9082 9993 795 130
internal_value=0.000170256 -0.0248602 0.0302015
internal_weight=692.387 377.56 314.827
internal_count=20000 10788 9212
is_linear=0
shrinkage=0.03


Tree=92
num_leaves=6
num_cat=0
split_feature=35 10 29 23 10
split_gain=568.131 90.3237 9.79474 9.1754 2.57123
threshold=-0.3368425290838194 0.23880858512737571 -0.18990577965789038 -0.5375283446712017 -0.41713484992693028
decision_type=2 2 2 2 2
left_child=4 3 -3 -2 -1
right_child=1 2 -4 -5 -6
leaf_value=0.0027300812675830543 0 0.025046678001043578 -0.0055503817842259768 -0.03055856351980565 0.030565697787939307
leaf_weight=6.4592787474393836 7.6549999751150599 28.294319607317448 8.935087997466324 322.45902580209076 299.86846870183945
leaf_count=57 146 675 158 9809 9155
internal_value=0.000178327 -0.0247857 0.0172052 -0.0297969 0.0301284
internal_weight=673.671 367.343 37.2294 330.114 306.328
internal_count=20000 10788 833 9955 9212
is_linear=0
shrinkage=0.03


Tree=93
num_leaves=5
num_cat=0
split_feature=35 31 35 9
split_gain=549.814 123.824 2.31275 0.156005
threshold=-0.3368425290838194 -1.4365528525094298 -0.41908954948940741 0.24490014761201556
decision_type=2 2 2 2
left_child=2 3 -1 -2
right_child=1 -3 -4 -5
leaf_value=0.030593599319319625 -0.030706079309160292 0.027004860331577358 0.0054788757617151036 -0.0069839511982140853
leaf_weight=289.2668775357306 317.62682250700891 33.263205777853727 8.7684185206890088 6.9548532813787451
leaf_count=9082 9900 795 130 93
internal_value=0.000183564 -0.0246849 0.0300563 -0.0304025
internal_weight=655.88 357.845 298.035 324.582
internal_count=20000 10788 9212 9993
is_linear=0
shrinkage=0.03


Tree=94
num_leaves=4
num_cat=0
split_feature=35 31 35
split_gain=532.412 120.321 2.34649
threshold=-0.3368425290838194 -1.5884357110852598 -0.41908954948940741
decision_type=2 2 2
left_child=2 -2 -1
right_child=1 -3 -4
leaf_value=0.030536010929295195 -0.030395215458711249 0.026411682710451276 0.0053832250567231593
leaf_weight=281.248490056023 315.0902078282088 33.078824263066053 8.7456804066896421
leaf_count=9082 9983 805 130
internal_value=0.000188752 -0.0246156 0.0299832
internal_weight=638.163 348.169 289.994
internal_count=20000 10788 9212
is_linear=0
shrinkage=0.03


Tree=95
num_leaves=5
num_cat=0
split_feature=33 34 9 9
split_gain=510.572 98.7698 12.5139 3.44008
threshold=-0.68171487324329938 -0.23899909339888875 0.34571888030051273 -0.31599072494453156
decision_type=2 2 2 2
left_child=3 2 -2 -1
right_child=1 -3 -4 -5
leaf_value=0.0011311393747232565 -0.030295598757569212 0.026041876719531766 0.0049479846788608025 0.030198066335658937
leaf_weight=6.2949142828583708 303.94233343750238 27.43886292539537 6.5042134113609782 276.7562927082181
leaf_count=78 9966 659 137 9160
internal_value=0.000197096 -0.0244919 -0.0293954 0.0296866
internal_weight=620.937 337.885 310.447 283.051
internal_count=20000 10762 10103 9238
is_linear=0
shrinkage=0.03


Tree=96
num_leaves=6
num_cat=0
split_feature=35 10 22 29 10
split_gain=499.261 81.3833 8.61093 8.5684 3.549
threshold=-0.3368425290838194 0.23880858512737571 -1.0000000180025095e-35 -0.18990577965789038 -0.4355607019106294
decision_type=2 2 2 2 2
left_child=4 2 -2 -3 -1
right_child=1 3 -4 -5 -6
leaf_value=0.00029243454232943001 0 0.024486554521205024 -0.030342382246789097 -0.0049641838024229697 0.030344449340220854
leaf_weight=5.7288559079170218 7.1445938050746909 25.937111560255289 288.4315356630832 8.2729298584163171 268.93222467973828
leaf_count=50 146 675 9809 158 9162
internal_value=0.000206998 -0.0244613 -0.0295465 0.0168746 0.0298413
internal_weight=604.447 329.786 295.576 34.21 274.661
internal_count=20000 10788 9955 833 9212
is_linear=0
shrinkage=0.03


Tree=97
num_leaves=6
num_cat=0
split_feature=19 10 33 33 9
split_gain=484.503 46.128 30.1425 12.801 5.99997
threshold=1.0000000180025095e-35 -0.20626074577355555 -0.74818641968043365 -0.63379458602822381 -0.34553267583161174
decision_type=2 2 2 2 2
left_child=1 3 -2 -1 -3
right_child=2 4 -4 -5 -6
leaf_value=0.01159566876222304 0.020775943794499551 0 -0.030116807412407447 -0.022470260065328616 0.030039542745618736
leaf_weight=12.307987451553347 6.8465194255113593 6.0144996121525756 269.45085055194795 17.518562193959951 276.3690691050142
leaf_count=192 38 56 9652 315 9747
internal_value=0.000212248 0.0256783 -0.0284022 -0.0079049 0.0294058
internal_weight=588.507 312.21 276.297 29.8265 282.384
internal_count=20000 10310 9690 507 9803
is_linear=0
shrinkage=0.03


Tree=98
num_leaves=6
num_cat=0
split_feature=35 10 9 9 10
split_gain=469.049 76.9095 10.4161 9.10334 3.40047
threshold=-0.3368425290838194 0.23880858512737571 -0.090054019493349222 0.33855038762130923 -0.4355607019106294
decision_type=2 2 2 2 2
left_child=4 3 -3 -2 -1
right_child=1 2 -4 -5 -6
leaf_value=0.00036044129320812025 -0.0302067623109913 -0.0076537337866563054 0.025190823176495639 0.0021685114912089408 0.03023970651122445
leaf_weight=5.6613624468445769 274.33839431218803 7.8228233829140654 24.990193955600262 5.6055616177618495 254.50482922792435
leaf_count=50 9864 132 701 91 9162
internal_value=0.0002139 -0.0243191 0.0165905 -0.0294265 0.0297217
internal_weight=572.923 312.757 32.813 279.944 260.166
internal_count=20000 10788 833 9955 9212
is_linear=0
shrinkage=0.03


Tree=99
num_leaves=7
num_cat=0
split_feature=19 9 35 35 20 35
split_gain=454.826 36.1852 28.7963 12.3168 0.972255 2.00446
threshold=1.0000000180025095e-35 -0.11924313956630524 -0.45837572596987292 -0.24128081233981694 0.9319627192982457 -0.63238169500314323
decision_type=2 2 2 2 2 2
left_child=1 3 -2 -1 -3 -6
right_child=2 4 -4 -5 5 -7
leaf_value=0.014347511616924201 0.020202354385013555 0.029636547708350489 -0.030019008719913826 -0.019710791654234269 0.017136838670948541 0
leaf_weight=11.438161537051203 6.6708417087793341 253.19467028789222 254.89140792377293 16.981047786772251 8.4609927237033826 6.1175248716026536
leaf_count=222 38 9335 9652 282 332 139
internal_value=0.000219993 0.0255309 -0.0282707 -0.00500961 0.0289146 0.010477
internal_weight=557.755 296.192 261.562 28.4192 267.773 14.5785
internal_count=20000 10310 9690 504 9806 471
is_linear=0
shrinkage=0.03


Tree=100
num_leaves=4
num_cat=0
split_feature=35 31 10
split_gain=440.764 103.703 3.46708
threshold=-0.3368425290838194 -1.5884357110852598 -0.44158437105500298
decision_type=2 2 2
left_child=2 -2 -1
right_child=1 -3 -4
leaf_value=0 -0.030099017058026627 0.025750688600181364 0.030137490806082912
leaf_weight=5.4238017573952666 267.54312442988157 29.197638606652617 241.16298008151352
leaf_count=48 9983 805 9164
internal_value=0.000227659 -0.0241687 0.0296021
internal_weight=543.328 296.741 246.587
internal_count=20000 10788 9212
is_linear=0
shrinkage=0.03


Tree=101
num_leaves=6
num_cat=0
split_feature=19 10 33 33 9
split_gain=426.674 41.9295 27.5085 11.2132 6.22885
threshold=1.0000000180025095e-35 -0.20626074577355555 -0.74818641968043365 -0.63379458602822381 -0.35349636359645065
decision_type=2 2 2 2 2
left_child=1 3 -2 -1 -3
right_child=2 4 -4 -5 -6
leaf_value=0.010913057606788006 0.019644312017436872 0 -0.029919210956559385 -0.021743739760272648 0.029851997656853625
leaf_weight=11.585386026650669 6.4962492734193793 5.2435834668576708 240.98765857517719 16.197066009044647 248.15514248609543
leaf_count=192 38 50 9652 315 9753
internal_value=0.000235661 0.0253674 -0.0281361 -0.00762317 0.0291781
internal_weight=528.665 281.181 247.484 27.7825 253.399
internal_count=20000 10310 9690 507 9803
is_linear=0
shrinkage=0.03


Tree=102
num_leaves=4
num_cat=0
split_feature=35 31 3
split_gain=414.472 106.015 0.479532
threshold=-0.37261162811881904 -1.5884357110852598 0.50521249769358545
decision_type=2 2 2
left_child=-1 2 -2
right_child=1 -3 -4
leaf_value=0.029955326390716741 -0.030347388980064519 0.025866333709573797 -0.0042821331564582852
leaf_weight=229.47089269384742 249.94417844712734 30.158002683892846 5.1314950827509156
leaf_count=9147 9892 857 104
internal_value=0.000236262 -0.0236736 -0.0300308
internal_weight=514.705 285.234 255.076
internal_count=20000 10853 9996
is_linear=0
shrinkage=0.03


Tree=103
num_leaves=4
num_cat=0
split_feature=35 31 3
split_gain=401.364 103.023 0.496141
threshold=-0.37261162811881904 -1.5884357110852598 0.50521249769358545
decision_type=2 2 2
left_child=-1 2 -2
right_child=1 -3 -4
leaf_value=0.029890028278098054 -0.030296602357272582 0.025704149874398979 -0.004221885365348922
leaf_weight=223.17895107157528 242.96597040630877 29.479664174839854 5.1201071124523869
leaf_count=9147 9892 857 104
internal_value=0.000239831 -0.0236015 -0.029971
internal_weight=500.745 277.566 248.086
internal_count=20000 10853 9996
is_linear=0
shrinkage=0.03


Tree=104
num_leaves=4
num_cat=0
split_feature=35 31 3
split_gain=388.666 100.122 0.512378
threshold=-0.37261162811881904 -1.5884357110852598 0.50521249769358545
decision_type=2 2 2
left_child=-1 2 -2
right_child=1 -3 -4
leaf_value=0.029824314976606738 -0.030245961167071046 0.025540979030800777 -0.0041624756808462983
leaf_weight=217.06391952559352 236.18232968077064 28.819896057248116 5.1089229788631192
leaf_count=9147 9892 857 104
internal_value=0.000243466 -0.0235289 -0.0299112
internal_weight=487.175 270.111 241.291
internal_count=20000 10853 9996
is_linear=0
shrinkage=0.03


Tree=105
num_leaves=5
num_cat=0
split_feature=35 31 3 10
split_gain=376.365 97.3085 0.528242 0.161589
threshold=-0.37261162811881904 -1.5884357110852598 0.50521249769358545 -0.41713484992693028
decision_type=2 2 2 2
left_child=3 2 -2 -1
right_child=1 -3 -4 -5
leaf_value=0.0041694017438806408 -0.030195426138456445 0.025376804086448455 -0.0041038928692652826 0.030083650066851278
leaf_weight=4.6768607459962359 229.58816431090236 28.17822489887476 5.0979386027902356 206.44424217566848
leaf_count=50 9892 857 104 9097
internal_value=0.000247164 -0.0234558 -0.0298513 0.0297581
internal_weight=473.985 262.864 234.686 211.121
internal_count=20000 10853 9996 9147
is_linear=0
shrinkage=0.03


Tree=106
num_leaves=5
num_cat=0
split_feature=33 31 10 9
split_gain=361.388 86.5098 5.03087 1.44434
threshold=-0.68171487324329938 -1.5884357110852598 -0.45893926139538571 0.27048749164827296
decision_type=2 2 2 2
left_child=2 3 -1 -2
right_child=1 -3 -4 -5
leaf_value=0 -0.030115744218776656 0.024750298134806871 0.02969065502437622 -0.0018653757741400436
leaf_weight=4.9695902019739142 221.27820006385446 25.193084457889199 205.10131889022887 4.6201186925172797
leaf_count=48 9894 788 9190 80
internal_value=0.00025436 -0.0237618 0.0289847 -0.0297208
internal_weight=461.162 251.091 210.071 225.898
internal_count=20000 10762 9238 9974
is_linear=0
shrinkage=0.03


Tree=107
num_leaves=6
num_cat=0
split_feature=19 10 33 33 9
split_gain=353.876 35.2002 23.5713 9.25686 5.99088
threshold=1.0000000180025095e-35 -0.20626074577355555 -0.74818641968043365 -0.63931274691834628 -0.3665902450237391
decision_type=2 2 2 2 2
left_child=1 3 -2 -1 -3
right_child=2 4 -4 -5 -6
leaf_value=0.010508927598607219 0.017821943222288552 0 -0.029644021028398596 -0.020531320128344601 0.029575631179257791
leaf_weight=10.136053048074247 5.9066603630781165 4.3731188774108878 203.70904787816107 14.203152319416402 210.49674852192402
leaf_count=189 38 45 9652 318 9758
internal_value=0.000258372 0.0250189 -0.0277827 -0.00699414 0.0288582
internal_weight=448.825 239.209 209.616 24.3392 214.87
internal_count=20000 10310 9690 507 9803
is_linear=0
shrinkage=0.03


Tree=108
num_leaves=5
num_cat=0
split_feature=35 31 9 35
split_gain=343.287 89.3669 0.725369 0.270557
threshold=-0.37261162811881904 -1.5884357110852598 0.27832882175142643 -0.45837572596987292
decision_type=2 2 2 2
left_child=3 2 -2 -1
right_child=1 -3 -4 -5
leaf_value=0.029979132629907462 -0.030040986100125028 0.024921203183387409 -0.0025982998032269208 0.0043154688714248596
leaf_weight=189.57872024737298 211.93743957579136 26.254181135445833 4.2852841913700095 4.9675550870597354
leaf_count=9017 9930 857 66 130
internal_value=0.000258057 -0.023284 -0.0297037 0.0295987
internal_weight=437.023 242.477 216.223 194.546
internal_count=20000 10853 9996 9147
is_linear=0
shrinkage=0.03


Tree=109
num_leaves=5
num_cat=0
split_feature=33 31 10 3
split_gain=328.943 79.6185 4.89515 0.868652
threshold=-0.68171487324329938 -1.5884357110852598 -0.45893926139538571 0.5109860840742888
decision_type=2 2 2 2
left_child=2 3 -1 -2
right_child=1 -3 -4 -5
leaf_value=0 -0.0299264825775622 0.024284056070520185 0.029531074297371 -0.002206154912901351
leaf_weight=4.8389411568641654 203.7820135448128 23.537585541605949 188.86388250812888 4.2168320547789326
leaf_count=48 9872 788 9190 102
internal_value=0.00026628 -0.0235712 0.0287867 -0.0295703
internal_weight=425.239 231.536 193.703 207.999
internal_count=20000 10762 9238 9974
is_linear=0
shrinkage=0.03


Tree=110
num_leaves=6
num_cat=0
split_feature=35 10 9 9 10
split_gain=322.369 61.0406 11.6349 4.55768 0.66238
threshold=-0.37261162811881904 0.1668625445528438 -0.20381862220042857 0.3317233407310578 -0.44158437105500298
decision_type=2 2 2 2 2
left_child=4 3 -3 -2 -1
right_child=1 2 -4 -5 -6
leaf_value=0.0023033811997459036 -0.029782253097806993 -0.010904912350568664 0.024020446364929882 0 0.029851048628353628
leaf_weight=4.0510322935879222 195.47072648257017 7.6326128710061338 22.648145411163568 4.0004020649939767 180.11325920186937
leaf_count=41 9778 200 799 76 9106
internal_value=0.000270327 -0.0231454 0.014069 -0.0291474 0.0294806
internal_weight=413.916 229.752 30.2808 199.471 184.164
internal_count=20000 10853 999 9854 9147
is_linear=0
shrinkage=0.03


Tree=111
num_leaves=6
num_cat=0
split_feature=19 10 33 35 17
split_gain=312.628 31.3104 21.3008 17.0383 1.82884
threshold=1.0000000180025095e-35 -0.11852536245235144 -0.74818641968043365 -0.3368425290838194 0.76194819819819859
decision_type=2 2 2 2 2
left_child=1 3 -2 -1 -3
right_child=2 4 -4 -5 -6
leaf_value=0.019496946055114091 0.016703689794714826 0.029513259260129442 -0.029455398652604318 -0.021625478793060534 0.00092308677653081929
leaf_weight=10.530783157795669 5.5355697870254508 183.77689965628088 182.3040998596698 16.244705602526665 4.566350493580102
leaf_count=332 38 9548 9652 347 83
internal_value=0.000275749 0.0247758 -0.0275417 -0.00398496 0.0290171
internal_weight=402.958 215.119 187.84 26.7755 188.343
internal_count=20000 10310 9690 679 9631
is_linear=0
shrinkage=0.03


Tree=112
num_leaves=6
num_cat=0
split_feature=19 9 33 24 0
split_gain=302.542 26.3103 20.9319 7.48003 1.29139
threshold=1.0000000180025095e-35 -0.11924313956630524 -0.74818641968043365 -0.090315619733532346 1.0000000180025095e-35
decision_type=2 2 2 2 2
left_child=1 3 -2 -1 -3
right_child=2 4 -4 -5 -6
leaf_value=0.011434163168885547 0.016531760482279317 0.028829598865603268 -0.029395917474016493 -0.017597604885617759 0.0041233643108634834
leaf_weight=8.8991445414721984 5.4782142788171759 181.32592139206827 177.27877105586231 12.689578553661702 6.6561603378504506
leaf_count=231 38 9530 9652 273 276
internal_value=0.000282806 0.0246883 -0.0274559 -0.00460229 0.0282397
internal_weight=392.328 209.571 182.757 21.5887 187.982
internal_count=20000 10310 9690 504 9806
is_linear=0
shrinkage=0.03


Tree=113
num_leaves=5
num_cat=0
split_feature=35 31 10 3
split_gain=294.573 78.2572 0.635013 0.546965
threshold=-0.37261162811881904 -1.5884357110852598 -0.44158437105500298 0.50521249769358545
decision_type=2 2 2 2
left_child=2 3 -1 -2
right_child=1 -3 -4 -5
leaf_value=0.0021012693297436449 -0.029848690766838448 0.024244403079775819 0.029717859853641157 -0.0032975155537594146
leaf_weight=3.9112305901944628 184.2997698970139 23.498083179816604 166.08404223248363 4.5996517371386281
leaf_count=41 9892 857 9106 104
internal_value=0.000288829 -0.0229583 0.0293321 -0.0294586
internal_weight=382.393 212.398 169.995 188.899
internal_count=20000 10853 9147 9996
is_linear=0
shrinkage=0.03


Tree=114
num_leaves=6
num_cat=0
split_feature=19 10 33 33 3
split_gain=283.717 29.68 19.9963 18.0567 0.7562
threshold=1.0000000180025095e-35 -0.075208998352910811 -0.74818641968043365 -0.70420527347889939 -0.57436643899525974
decision_type=2 2 2 2 2
left_child=1 3 -2 -1 -3
right_child=2 4 -4 -5 -6
leaf_value=0.020175435215008811 0.016058859196662088 0.0012163238616245816 -0.029289100231030138 -0.021288936478034107 0.029461963956776523
leaf_weight=11.665037643164398 5.3202901631593695 3.5376627370715132 167.64942100085318 16.429563524201512 167.51174675859511
leaf_count=430 38 76 9652 359 9445
internal_value=0.000296773 0.0245069 -0.0273137 -0.00271912 0.0290993
internal_weight=372.114 199.144 172.97 28.0946 171.049
internal_count=20000 10310 9690 789 9521
is_linear=0
shrinkage=0.03


Tree=115
num_leaves=5
num_cat=0
split_feature=35 31 10 9
split_gain=276.994 74.0347 0.887657 0.860313
threshold=-0.37261162811881904 -1.5884357110852598 -0.45390735696945977 0.28492751956412821
decision_type=2 2 2 2
left_child=2 3 -1 -2
right_child=1 -3 -4 -5
leaf_value=0.0010783778231678047 -0.029729001445917863 0.023949995982945744 0.02962824313686814 -0.0014736731399398407
leaf_weight=3.5788995921611777 175.10021669603884 22.438126647844911 157.43513254635036 3.7718650959432116
leaf_count=36 9934 857 9111 62
internal_value=0.000304732 -0.0228296 0.029226 -0.0293526
internal_weight=362.324 201.31 161.014 178.872
internal_count=20000 10853 9147 9996
is_linear=0
shrinkage=0.03


Tree=116
num_leaves=5
num_cat=0
split_feature=35 31 9 10
split_gain=268.272 72.0107 1.05488 0.996301
threshold=-0.37261162811881904 -1.5884357110852598 0.29095932796117469 -0.45893926139538571
decision_type=2 2 2 2
left_child=3 2 -2 -1
right_child=1 -3 -4 -5
leaf_value=0.00068365059162369519 -0.029677536160263963 0.023777633242651031 -0.00078149443477391303 0.0295789348065029
leaf_weight=3.4720985963940612 170.42799246124923 21.966156365349889 3.5759406089782706 153.15423460397869
leaf_count=34 9939 857 57 9113
internal_value=0.000313327 -0.0227486 -0.0292897 0.029165
internal_weight=352.596 195.97 174.004 156.626
internal_count=20000 10853 9996 9147
is_linear=0
shrinkage=0.03


Tree=117
num_leaves=6
num_cat=0
split_feature=19 10 10 31 17
split_gain=258.395 27.2511 17.1377 14.2998 0.999184
threshold=1.0000000180025095e-35 -0.075208998352910811 0.47860943697886255 -1.8407385613733915 0.76194819819819859
decision_type=2 2 2 2 2
left_child=1 3 -2 -1 -3
right_child=2 4 -4 -5 -6
leaf_value=0.019107824254920441 -0.029085769185215399 0.029398636781187638 0.013134449401384503 -0.018833139984256553 0.0013602829051428461
leaf_weight=10.215979077853264 153.85496321786195 153.56798323616385 5.4049285091459742 16.167204720899463 3.926603512838482
leaf_count=392 9642 9440 48 397 81
internal_value=0.000322197 0.0243328 -0.0271141 -0.00248224 0.0289476
internal_weight=343.138 183.878 159.26 26.3832 157.495
internal_count=20000 10310 9690 789 9521
is_linear=0
shrinkage=0.03


Tree=118
num_leaves=7
num_cat=0
split_feature=19 10 33 33 17 10
split_gain=250.024 26.6051 18.4113 15.8537 0.997939 0.281982
threshold=1.0000000180025095e-35 -0.075208998352910811 -0.74818641968043365 -0.70420527347889939 0.76194819819819859 0.32770632170526154
decision_type=2 2 2 2 2 2
left_child=1 3 -2 -1 -3 -4
right_child=2 4 5 -5 -6 -7
leaf_value=0.019512203774700664 0.01524874231070817 0.029348007167353862 -0.029395648155932264 -0.02043035541928654 0.0013426660511895541 -0.0012814081754215327
leaf_weight=10.79534675460309 5.042321264743804 149.29110251553357 146.93758091144264 15.206768542528151 3.9244165811687699 3.0382837764918795
leaf_count=430 38 9440 9587 359 81 65
internal_value=0.000330208 0.0242403 -0.0270186 -0.00240724 0.0288854 -0.0290794
internal_weight=334.236 179.218 155.018 26.0021 153.216 149.976
internal_count=20000 10310 9690 789 9521 9652
is_linear=0
shrinkage=0.03


Tree=119
num_leaves=6
num_cat=0
split_feature=35 10 9 9 10
split_gain=245.156 47.8098 8.48345 4.36244 0.931371
threshold=-0.37261162811881904 0.1668625445528438 -0.20381862220042857 0.35275785805265353 -0.45893926139538571
decision_type=2 2 2 2 2
left_child=4 3 -3 -2 -1
right_child=1 2 -4 -5 -6
leaf_value=0.00058518707267399413 -0.029368475288377664 -0.0091139905539290127 0.022679592043047474 0 0.029444739905699086
leaf_weight=3.3655476048588744 153.18915750086308 6.2874211454764035 18.31365393102169 3.1691532339900723 141.17682182136923
leaf_count=34 9787 200 799 67 9113
internal_value=0.00033533 -0.0225759 0.0133735 -0.0286572 0.0290154
internal_weight=325.502 180.959 24.6011 156.358 144.542
internal_count=20000 10853 999 9854 9147
is_linear=0
shrinkage=0.03


Tree=120
num_leaves=7
num_cat=0
split_feature=19 10 33 33 3 29
split_gain=234.977 25.1472 17.5966 14.7929 0.99327 0.357461
threshold=1.0000000180025095e-35 -0.075208998352910811 -0.74818641968043365 -0.70420527347889939 -0.58261090914305758 -0.25512792722287164
decision_type=2 2 2 2 2 2
left_child=1 3 -2 -1 -3 -4
right_child=2 4 5 -5 -6 -7
leaf_value=0.019169480841132999 0.014803274242623156 0 -0.0010290753528689176 -0.019945250620042609 0.029177360237355759 -0.029311896261696432
leaf_weight=10.37624835688621 4.8945198431611052 3.0550687909126273 2.9920992329716674 14.638880183920262 142.03982399404049 138.97163093741983
leaf_count=430 38 69 137 359 9452 9515
internal_value=0.000342539 0.0241112 -0.0268792 -0.00223046 0.0287756 -0.0289752
internal_weight=316.968 170.11 146.858 25.0151 145.095 141.964
internal_count=20000 10310 9690 789 9521 9652
is_linear=0
shrinkage=0.03


Tree=121
num_leaves=6
num_cat=0
split_feature=35 10 19 9 10
split_gain=230.544 45.0899 8.03106 4.47224 0.89556
threshold=-0.37261162811881904 0.1668625445528438 1.0000000180025095e-35 0.36706410038935799 -0.45893926139538571
decision_type=2 2 2 2 2
left_child=4 3 -3 -2 -1
right_child=1 2 -4 -5 -6
leaf_value=0.00053486374402358147 -0.029263728012617434 0.022224333175232893 -0.0091788342598982855 0 0.029347775173429597
leaf_weight=3.3127247095108023 145.19986408576369 17.688958249986175 5.9018000550568095 2.9713395666331044 133.64526371471584
leaf_count=34 9790 799 200 64 9113
internal_value=0.000347081 -0.0224284 0.0130875 -0.0285215 0.0289056
internal_weight=308.72 171.762 23.5908 148.171 136.958
internal_count=20000 10853 999 9854 9147
is_linear=0
shrinkage=0.03


Tree=122
num_leaves=5
num_cat=0
split_feature=35 31 9 10
split_gain=223.213 61.707 1.27819 0.890218
threshold=-0.37261162811881904 -1.5884357110852598 0.30832868841157651 -0.45893926139538571
decision_type=2 2 2 2
left_child=3 2 -2 -1
right_child=1 -3 -4 -5
leaf_value=0.00052851334091237937 -0.029403508195164983 0.022988746113959044 0 0.029294625400412982
leaf_weight=3.3120409250259391 145.10375877190381 19.300159848295152 2.9857368990778914 129.93617050163448
leaf_count=34 9946 857 50 9113
internal_value=0.000354899 -0.0223263 -0.028986 0.0288416
internal_weight=300.638 167.39 148.089 133.248
internal_count=20000 10853 9996 9147
is_linear=0
shrinkage=0.03


Tree=123
num_leaves=6
num_cat=0
split_feature=35 10 9 9 35
split_gain=216.156 42.8381 7.56338 4.36638 0.891556
threshold=-0.37261162811881904 0.1668625445528438 -0.20381862220042857 0.377987036037091 -0.45837572596987292
decision_type=2 2 2 2 2
left_child=4 3 -3 -2 -1
right_child=1 2 -4 -5 -6
leaf_value=0.029278599334741941 -0.029138968571549247 -0.0085943041195593595 0.02206341400148221 0 0.0010783462179361888
leaf_weight=125.99378842301667 137.44986703526229 5.8962428644299534 16.805580438114703 2.8323262818157664 3.6502960082143536
leaf_count=9017 9793 200 799 61 130
internal_value=0.000365753 -0.0222389 0.0129038 -0.0283809 0.0287769
internal_weight=292.628 162.984 22.7018 140.282 129.644
internal_count=20000 10853 999 9854 9147
is_linear=0
shrinkage=0.03


Tree=124
num_leaves=6
num_cat=0
split_feature=35 10 19 34 10
split_gain=209.256 41.6447 7.42128 4.29225 0.954307
threshold=-0.37261162811881904 0.1668625445528438 1.0000000180025095e-35 -0.31563123820717781 -0.45893926139538571
decision_type=2 2 2 2 2
left_child=4 3 -3 -2 -1
