tree
version=v4
num_class=1
num_tree_per_iteration=1
label_index=0
max_feature_idx=55
objective=binary sigmoid:1
feature_names=bet_ratio_max bet_ratio_mean bet_ratio_std call_ratio_max call_ratio_mean call_ratio_std check_ratio_max check_ratio_mean check_ratio_std end_flop_mean end_flop_std end_preflop_mean end_preflop_std end_river_mean end_river_std end_turn_mean end_turn_std fold_ratio_mean fold_ratio_std max_norm_bb_max max_norm_bb_mean max_norm_bb_std mean_norm_bb_max mean_norm_bb_mean mean_norm_bb_std mean_pot_after_max mean_pot_after_mean mean_pot_after_std n_players_std n_streets_mean n_streets_std p2_max p2_mean p2_std p4_max p4_mean p4_std p5_max p5_mean p5_std p6p_mean raise_ratio_max raise_ratio_mean raise_ratio_std stack_mean_max stack_mean_mean stack_mean_std stack_std_max stack_std_mean stack_std_std std_norm_bb_max std_norm_bb_mean std_norm_bb_std std_pot_after_max std_pot_after_mean std_pot_after_std
feature_infos=[-1.5714285714285705:1.5714285714285714] [-0.86477538624624128:0.65890909220944116] [-1.7023052261965002:1.4444129931816687] [-1.6363636363636358:1.818181818181817] [-1.4530646969608143:1.795129744490759] [-1.4669616528103187:1.8539334235022142] [-2:2.0000000000000013] [-1.5475638960180429:2.0039697771493263] [-1.3619404782067557:1.4587714098475699] [-1.382874454245745:1.9075318217284474] [-1.939809933750746:1.4226899008036225] [-1.4446718114211234:1.2144247705571531] [-2.1870611800046333:0.4927899965363105] [-1.4838245866283253:1.8663529816067526] [-1.9441832827103693:1.3990384787680383] [-1.4737098971089115:2.0361781076066792] [-2.1309476221360057:1.5483274910776652] [-1.0735955077174917:1.1440117407713195] [-0.863852186988741:1.0899939331842856] [-2.033976747449648:-1.9883494234245584] [-2.2048806135521106:-1.7241439186858447] [-1.7729131798067952:-1.5169123857419584] [-1.7103284246760113:-1.5194071076116098] [-1.8942825938908079:-0.42017571886510274] [-1.6643161035267675:-0.68610500768403171] [-1.4198023699349154:0.78013858947133086] [-1.2165058754259841:1.8977058725427614] [-1.3209923556955459:2.1475557916329544] [-2.5064112846162496:3.030376242629389] [-1.2962922478719741:1.6319971975635097] [-1.9796416350960924:1.3857672555183422] none none none [-1:0] [-0.54605263157894735:3.5527691022427872] [-0.74739780229567077:1.1115553654363701] none [-1.7043425451792342:7.0095694000822659] [-3.1903202421649199:1.8428118259105] [-7.243196935601933:1.8925926825467085] [-1.0000000000000007:2] [-1.6697165777216387:1.5384008912044596] [-0.99879583831634644:1.3328764116249052] [-1.4322098176836258:-0.99566726864519872] [-1.7007422523909124:-0.95030231809241994] [-2.2726025262554517:0.50509235469548563] [-0.82566999713090217:-0.29906662290470526] [-1.7775779666483866:-0.12766182800382081] [-0.78286931164279172:0.33413667056897467] [-1.8134932153837053:-1.6925755832688061] [-1.9135315966456345:-0.79612059616404929] [-1.6151508644221606:-0.98090911585538176] [-1.4599430781086919:0.52372432799115964] [-1.0036317863294619:2.0963215972244607] [-1.2361712571360919:2.1352576916545041]
tree_sizes=330 357 357 356 358 357 357 358 357 358 357 357 356 357 358 357 359 359 356 357 359 359 357 355 359 358 358 358 359 358 358 357 358 358 358 356 358 357 357 357 357 356 358 357 357 463 358 357 354 357 358 358 353 359 358 359 359 358 357 359 355 358 359 356 359 356 357 358 358 356 358 357 356 358 356 359 358 355 359 358 357 359 357 359 359 358 359 357 356 358 357 359 358 358 358 357 357 357 359 356 357 358 357 360 358 355 360 359 359 358 359 358 358 360 360 360 358 358 359 360 358 360 358 359 359 359 360 360 358 356 359 358 359 360 360 359 358 356 359 358 359 357 358 359 358 358 360 358 359 358 359 359 360 360 358 359 360 356 358 358 360 357 359 360 358 359 360 360 358 358 360 360 359 360 361 358 362 360 361 360 359 360 357 362 361 362 360 361 360 361 359 360 362 360 362 361 361 361 359 360 359 361 361 362 360 362 362 361 361 362 359 360 359 361 361 361 362 361 362 361 359 361 359 360 359 361 362 362 359 360 362 362 360 360 361 362 359 361 361 360 357 360 361 360 359 359 361 360 362 360 359 361 358 361 361 360 360 362 362 360 361 362 362 361 360 360 361 361 361 360 358 362 361 362 362 362 359 362 362 362 362 361 362 361 361 362 362 360 361 362 361 359 359 361 359 361 359 360 360 359 359 362 361 359 361 360 361 360 358 360 361 361 362 360 361 360 360 358 361 358 360 361 362 361 358 358 361 362 360 360 361 359 360 360 362 361 361 359 361 362 358 361 360 361 361 360 361 361 361 362 361 361 361 361 361 361 362 361 360 359 360 359 362 357 360 360 361 360 362 359 361 360 362 361 359 361 360 361 355 360 362 358 360 358 361 361 359 360 361 361 362 361 361 361 362 362 360 359 358 360 362 361 361 361 360 361 362 361 360 360 362 360 362 361 361 361 359 361 362 360 360 357 362 361 362 361 361 362 361 361 362 362 361 362 361 360 359 360 361 359 359 358 359 360 359 360 361 359 361 362 361 361 362 359 361 360 361 362 360 362 358 360 360 362 360 357 361 362 360 362 360 359 360 362 360 361 362 359 360 362 361 362 361 361 361 359 359 360 360 362 361 362 360 362 361 362 361 361 361 361 360 362 359 361 359 361 362 361 358 360 362 360 361 361 359 361 360 361 361 359 362 361 361 362 360 360 361 360 360 361 362 361 360 362 362 361 360 360 361 361 361 362 358 361 360 362 360 360 362 360 362 360 359 359 361 359 359 362 361 358 360 361 362 362 361 360 362 362 360 360 362 359 362 360 361 359 360 361 362 362 362 360 361 359 359 360 359 362 359 362 360 362 362 361 362 360 360 362 362 360 360 362 359 361 359 362 361 361 361 360 360 361 362 357 361 359 360 361 361 361 360 362 362 356 362 362 361 359 362 360 360 359 358 359 358 360 362 360 362 362 361 360 361 361 358 360 358 361 361 356 361 362 361 362 361 361 362 362 360 359 361 361 359 362 360 361 360 362 359 360 361 359 361 361 361 360 361 361 358 362 360 361 362 361 361 361 359 361 362 361 360 360 361 359 360 362 362 361 360 361 362 361 360 360 361 361 362 361 361 359 361 360 362 360 360 360 360 361 360 361 360 362 361 362 361 362 357 360 361 361 361 360 360 361 361 361 362 360 362 360 361 360 361 361 357 361 360 361 361 361 361 361 360 358 358 362 361 361 360 362 359 361 360 361 361 362 361 362 362 358 360 361 360 359 360 362 360 360 360 361 362 359 361 361 362 360 362 361 361 361 358 359 362 361 361 361 362 361 361 361 361 360 361 359 361 361 361 360 360 361 358 360 361 361 361 362 361 358 361 360 361 359 361 361 362 361 362 361 362 360 361 360 361 360 361 360 362 362 360 361 361 362 362 360 360 362 362 362 360 360 362 362 361 360 361 361 362 361 360 358 360 360 362 362 358 359 362 362 360 360 361 359 361 362 361 361 358 361 360 362 360 360 360 360 362 358 360 362 361 359 360 361 359 361 360 361 362 362 359 362 359 362 360 359 360 359 360 359 358 360 360 362 360 360 361 361 362 361 361 362 362 360 361 359 360 360 361 361 361 362 361 361 360 360 361 362 362 358 361 362 361 362 360 362 360 359 360 361 362 363 361 362 362 357 362 362 361 364 360 362 361 361 361 361 363 361 363 362 361 362 363 364 362 362 363 362 362 363 363 359 362 362 362 361 362 361 363 362 362 362 363 361 363 364 364 364 364 362 364 361 362 363 362 364 362 365 364 363 363 365 365 364 365 363 364 363 365 362 364 365 365 365 365 363 365 363 364 363 363 365 365 365 363 363 364 362 363 362 364 364 365 365 365 361 365 364 362 363 363 363 363 362 365 360 364 364 363 363 361 362 364 365 365 364 363 363 363 363 364 360 365 365 363 365 364 365 365 362 365 362 365 363 363 361 360 364 363 365 364 363 364 363 363 363 365 363 362 363 362 361 362 363 363 363 361 365 363 363 363 363 360 364 362 365 363 363 363 362 361 361 363 363 362 364 365 363 363 362 362 363 364 362 364 363 364 362 364 364 363 363 364 363 364 363 365 364 365 365 363 364 365 365 365 363 364 365 365 365 365 365 366 363 366 364 363 366 365 366 366 366 364 366 364 366 366 366 365 364 365 365 366 366 366 366 366 366 366 364 364 366 366 366 366 366 366 366 365 365 366 366 365 364 366 365 366 365 366 366 366 364 365 366 365 364 366 363 365 365 366 366 364 366 366 366 366 366 365 365 365 364 365 365 366 364 366 364 366 366 365 366 364 366 366 363 365 366 366 364 365 366 366 366 366 366 366 366 366 364 366 366 366 365 366 366 366 366 366 366 366 365 366 364 366 366 364 365 365 366 365 366 365 366 366 366 364 366 366 366 366 365 366 365 365 366 365 366 364 365 362 366 366 366 366 365 365 364 364

Tree=0
num_leaves=2
num_cat=0
split_feature=47
split_gain=7341.92
threshold=-0.4978532582557928
decision_type=2
left_child=-1
right_child=-2
leaf_value=0.018846619820692998 -0.018910770726963285
leaf_weight=1001.75 998.25
leaf_count=4007 3993
internal_value=0
internal_weight=2000
internal_count=8000
is_linear=0
shrinkage=0.01


Tree=1
num_leaves=2
num_cat=0
split_feature=1
split_gain=7548.25
threshold=1.0000000180025095e-35
decision_type=2
left_child=-1
right_child=-2
leaf_value=0.019142916768267952 -0.019142946419473891
leaf_weight=999.91118282079697 999.9106003344059
leaf_count=4000 4000
internal_value=0
internal_weight=1999.82
internal_count=8000
is_linear=0
shrinkage=0.01


Tree=2
num_leaves=2
num_cat=0
split_feature=18
split_gain=7022.77
threshold=0.031628108101452702
decision_type=2
left_child=-1
right_child=-2
leaf_value=-0.018324116961278777 0.018610952632007859
leaf_weight=1007.6394580602646 991.64611637592316
leaf_count=4032 3968
internal_value=0
internal_weight=1999.29
internal_count=8000
is_linear=0
shrinkage=0.01


Tree=3
num_leaves=2
num_cat=0
split_feature=1
split_gain=7271.6
threshold=1.0000000180025095e-35
decision_type=2
left_child=-1
right_child=-2
leaf_value=0.018795208974298771 -0.018795116137821952
leaf_weight=999.2189476788044 999.22044351696968
leaf_count=4000 4000
internal_value=0
internal_weight=1998.44
internal_count=8000
is_linear=0
shrinkage=0.01


Tree=4
num_leaves=2
num_cat=0
split_feature=1
split_gain=7135.36
threshold=1.0000000180025095e-35
decision_type=2
left_child=-1
right_child=-2
leaf_value=0.018623820667288543 -0.018623730163349544
leaf_weight=998.60925847291946 998.61063203215599
leaf_count=4000 4000
internal_value=0
internal_weight=1997.22
internal_count=8000
is_linear=0
shrinkage=0.01


Tree=5
num_leaves=2
num_cat=0
split_feature=49
split_gain=6907.21
threshold=-0.19223321122977019
decision_type=2
left_child=-1
right_child=-2
leaf_value=0.018415348091442289 -0.018246124425310425
leaf_weight=993.09003806114197 1002.5750032663345
leaf_count=3981 4019
internal_value=0
internal_weight=1995.67
internal_count=8000
is_linear=0
shrinkage=0.01


Tree=6
num_leaves=2
num_cat=0
split_feature=49
split_gain=6779.94
threshold=-0.19223321122977019
decision_type=2
left_child=-1
right_child=-2
leaf_value=0.018253318512095357 -0.018085234139131722
leaf_weight=992.15718419849873 1001.6505994796753
leaf_count=3981 4019
internal_value=0
internal_weight=1993.81
internal_count=8000
is_linear=0
shrinkage=0.01


Tree=7
num_leaves=2
num_cat=0
split_feature=1
split_gain=6751.79
threshold=1.0000000180025095e-35
decision_type=2
left_child=-1
right_child=-2
leaf_value=0.018141059356837252 -0.018140739764784124
leaf_weight=995.81534466147423 995.82407289743423
leaf_count=4000 4000
internal_value=0
internal_weight=1991.64
internal_count=8000
is_linear=0
shrinkage=0.01


Tree=8
num_leaves=2
num_cat=0
split_feature=1
split_gain=6629.47
threshold=1.0000000180025095e-35
decision_type=2
left_child=-1
right_child=-2
leaf_value=0.01798691814140747 -0.017986604107236112
leaf_weight=994.56882999837399 994.57739998400211
leaf_count=4000 4000
internal_value=0
internal_weight=1989.15
internal_count=8000
is_linear=0
shrinkage=0.01


Tree=9
num_leaves=2
num_cat=0
split_feature=1
split_gain=6510.34
threshold=1.0000000180025095e-35
decision_type=2
left_child=-1
right_child=-2
leaf_value=0.017836718424730589 -0.017836409302238378
leaf_weight=993.17403051257133 993.18239009380341
leaf_count=4000 4000
internal_value=0
internal_weight=1986.36
internal_count=8000
is_linear=0
shrinkage=0.01


Tree=10
num_leaves=2
num_cat=0
split_feature=1
split_gain=6394.28
threshold=1.0000000180025095e-35
decision_type=2
left_child=-1
right_child=-2
leaf_value=0.017690315006344354 -0.017690011527411956
leaf_weight=991.635417714715 991.64363019168377
leaf_count=4000 4000
internal_value=0
internal_weight=1983.28
internal_count=8000
is_linear=0
shrinkage=0.01


Tree=11
num_leaves=2
num_cat=0
split_feature=1
split_gain=6281.17
threshold=1.0000000180025095e-35
decision_type=2
left_child=-1
right_child=-2
leaf_value=0.01754756796639341 -0.017547269399887815
leaf_weight=989.95757241547108 989.9655883461237
leaf_count=4000 4000
internal_value=0
internal_weight=1979.92
internal_count=8000
is_linear=0
shrinkage=0.01


Tree=12
num_leaves=2
num_cat=0
split_feature=47
split_gain=5884.21
threshold=-0.4978532582557928
decision_type=2
left_child=-1
right_child=-2
leaf_value=0.016970315145541478 -0.017027728848037004
leaf_weight=989.87287998199463 986.42463965713978
leaf_count=4007 3993
internal_value=0
internal_weight=1976.3
internal_count=8000
is_linear=0
shrinkage=0.01


Tree=13
num_leaves=2
num_cat=0
split_feature=1
split_gain=6068.36
threshold=1.0000000180025095e-35
decision_type=2
left_child=-1
right_child=-2
leaf_value=0.017278914089362881 -0.017278634707949988
leaf_weight=986.28092934191227 986.289122402668
leaf_count=4000 4000
internal_value=0
internal_weight=1972.57
internal_count=8000
is_linear=0
shrinkage=0.01


Tree=14
num_leaves=2
num_cat=0
split_feature=1
split_gain=5963.38
threshold=1.0000000180025095e-35
decision_type=2
left_child=-1
right_child=-2
leaf_value=0.017146220934191131 -0.017145947592901827
leaf_weight=984.21698318421841 984.2249601483345
leaf_count=4000 4000
internal_value=0
internal_weight=1968.44
internal_count=8000
is_linear=0
shrinkage=0.01


Tree=15
num_leaves=2
num_cat=0
split_feature=47
split_gain=5583.42
threshold=-0.4978532582557928
decision_type=2
left_child=-1
right_child=-2
leaf_value=0.016580634495504194 -0.016636963362024599
leaf_weight=983.75473396480083 980.31403911113739
leaf_count=4007 3993
internal_value=0
internal_weight=1964.07
internal_count=8000
is_linear=0
shrinkage=0.01


Tree=16
num_leaves=2
num_cat=0
split_feature=1
split_gain=5765.73
threshold=1.0000000180025095e-35
decision_type=2
left_child=-1
right_child=-2
leaf_value=0.016896356908634728 -0.016896117124461152
leaf_weight=979.81729294359684 979.82458038628101
leaf_count=4000 4000
internal_value=0
internal_weight=1959.64
internal_count=8000
is_linear=0
shrinkage=0.01


Tree=17
num_leaves=2
num_cat=0
split_feature=1
split_gain=5668.07
threshold=1.0000000180025095e-35
decision_type=2
left_child=-1
right_child=-2
leaf_value=0.016772714553871693 -0.016772477909726646
leaf_weight=977.40300925076008 977.41013790667057
leaf_count=4000 4000
internal_value=0
internal_weight=1954.81
internal_count=8000
is_linear=0
shrinkage=0.01


Tree=18
num_leaves=2
num_cat=0
split_feature=17
split_gain=4310.3
threshold=0.036965503497553336
decision_type=2
left_child=-1
right_child=-2
leaf_value=-0.014307627153420006 0.014989756499140819
leaf_weight=998.2738520950079 951.48865123093128
leaf_count=4096 3904
internal_value=0
internal_weight=1949.76
internal_count=8000
is_linear=0
shrinkage=0.01


Tree=19
num_leaves=2
num_cat=0
split_feature=47
split_gain=5234.81
threshold=-0.4978532582557928
decision_type=2
left_child=-1
right_child=-2
leaf_value=0.016127989191527071 -0.016182968565132311
leaf_weight=974.55941812694073 971.12591557204723
leaf_count=4007 3993
internal_value=0
internal_weight=1945.69
internal_count=8000
is_linear=0
shrinkage=0.01


Tree=20
num_leaves=2
num_cat=0
split_feature=1
split_gain=5413.58
threshold=1.0000000180025095e-35
decision_type=2
left_child=-1
right_child=-2
leaf_value=0.016450580679966142 -0.016450187074849999
leaf_weight=970.23397900164127 970.23886351287365
leaf_count=4000 4000
internal_value=0
internal_weight=1940.47
internal_count=8000
is_linear=0
shrinkage=0.01


Tree=21
num_leaves=2
num_cat=0
split_feature=1
split_gain=5324.17
threshold=1.0000000180025095e-35
decision_type=2
left_child=-1
right_child=-2
leaf_value=0.016337115006694096 -0.016336729493137202
leaf_weight=967.42516300082207 967.42973616719246
leaf_count=4000 4000
internal_value=0
internal_weight=1934.85
internal_count=8000
is_linear=0
shrinkage=0.01


Tree=22
num_leaves=2
num_cat=0
split_feature=49
split_gain=5159.75
threshold=-0.19223321122977019
decision_type=2
left_child=-1
right_child=-2
leaf_value=0.01618208717948881 -0.016030628469777576
leaf_weight=959.85438659787178 969.18749885261059
leaf_count=3981 4019
internal_value=0
internal_weight=1929.04
internal_count=8000
is_linear=0
shrinkage=0.01


Tree=23
num_leaves=2
num_cat=0
split_feature=1
split_gain=5152.67
threshold=1.0000000180025095e-35
decision_type=2
left_child=-1
right_child=-2
leaf_value=0.01611944978498803 -0.016118880785690525
leaf_weight=961.54874779284 961.56179703772068
leaf_count=4000 4000
internal_value=0
internal_weight=1923.11
internal_count=8000
is_linear=0
shrinkage=0.01


Tree=24
num_leaves=2
num_cat=0
split_feature=1
split_gain=5069.17
threshold=1.0000000180025095e-35
decision_type=2
left_child=-1
right_child=-2
leaf_value=0.016013282825410379 -0.016012723065194297
leaf_weight=958.45882660150528 958.47152878344059
leaf_count=4000 4000
internal_value=0
internal_weight=1916.93
internal_count=8000
is_linear=0
shrinkage=0.01


Tree=25
num_leaves=2
num_cat=0
split_feature=49
split_gain=4912.67
threshold=-0.19223321122977019
decision_type=2
left_child=-1
right_child=-2
leaf_value=0.015864325841308927 -0.015714602015349161
leaf_weight=950.62699481844902 959.94802348315716
leaf_count=3981 4019
internal_value=0
internal_weight=1910.58
internal_count=8000
is_linear=0
shrinkage=0.01


Tree=26
num_leaves=2
num_cat=0
split_feature=1
split_gain=4908.9
threshold=1.0000000180025095e-35
decision_type=2
left_child=-1
right_child=-2
leaf_value=0.015809485135937919 -0.015808715152971203
leaf_weight=952.05185008049011 952.07480131089687
leaf_count=4000 4000
internal_value=0
internal_weight=1904.13
internal_count=8000
is_linear=0
shrinkage=0.01


Tree=27
num_leaves=2
num_cat=0
split_feature=17
split_gain=3718.48
threshold=0.036965503497553336
decision_type=2
left_child=-1
right_child=-2
leaf_value=-0.013463926585601754 0.014109258550041526
leaf_weight=971.61328285932541 925.82892952859402
leaf_count=4096 3904
internal_value=0
internal_weight=1897.44
internal_count=8000
is_linear=0
shrinkage=0.01


Tree=28
num_leaves=2
num_cat=0
split_feature=1
split_gain=4771.89
threshold=1.0000000180025095e-35
decision_type=2
left_child=-1
right_child=-2
leaf_value=0.015635304572867513 -0.015634253921286714
leaf_weight=946.04676820337772 946.07420493662357
leaf_count=4000 4000
internal_value=0
internal_weight=1892.12
internal_count=8000
is_linear=0
shrinkage=0.01


Tree=29
num_leaves=2
num_cat=0
split_feature=47
split_gain=4463.13
threshold=-0.51101376064335491
decision_type=2
left_child=-1
right_child=-2
leaf_value=0.015237747549976611 -0.015057821787938611
leaf_weight=936.82515954971313 948.33846548199654
leaf_count=3976 4024
internal_value=0
internal_weight=1885.16
internal_count=8000
is_linear=0
shrinkage=0.01


Tree=30
num_leaves=2
num_cat=0
split_feature=1
split_gain=4626.84
threshold=1.0000000180025095e-35
decision_type=2
left_child=-1
right_child=-2
leaf_value=0.01545049125415273 -0.015449295196774706
leaf_weight=939.16178435087204 939.19502428174019
leaf_count=4000 4000
internal_value=0
internal_weight=1878.36
internal_count=8000
is_linear=0
shrinkage=0.01


Tree=31
num_leaves=2
num_cat=0
split_feature=47
split_gain=4324.37
threshold=-0.4978532582557928
decision_type=2
left_child=-1
right_child=-2
leaf_value=0.014939252821576592 -0.014989405624388861
leaf_weight=937.19908784329891 933.92031013965607
leaf_count=4007 3993
internal_value=0
internal_weight=1871.12
internal_count=8000
is_linear=0
shrinkage=0.01


Tree=32
num_leaves=2
num_cat=0
split_feature=1
split_gain=4487.8
threshold=1.0000000180025095e-35
decision_type=2
left_child=-1
right_child=-2
leaf_value=0.015273027319296049 -0.015271877121224986
leaf_weight=932.00724948942661 932.03942166268826
leaf_count=4000 4000
internal_value=0
internal_weight=1864.05
internal_count=8000
is_linear=0
shrinkage=0.01


Tree=33
num_leaves=2
num_cat=0
split_feature=49
split_gain=4349.31
threshold=-0.19223321122977019
decision_type=2
left_child=-1
right_child=-2
leaf_value=0.015137466913200373 -0.014991545218915029
leaf_weight=923.65431967377663 932.89613668620586
leaf_count=3981 4019
internal_value=0
internal_weight=1856.55
internal_count=8000
is_linear=0
shrinkage=0.01


Tree=34
num_leaves=2
num_cat=0
split_feature=47
split_gain=4127.07
threshold=-0.51101376064335491
decision_type=2
left_child=-1
right_child=-2
leaf_value=0.014792188896437724 -0.014615000424168134
leaf_weight=918.78061792254448 930.23874598741531
leaf_count=3976 4024
internal_value=0
internal_weight=1849.02
internal_count=8000
is_linear=0
shrinkage=0.01


Tree=35
num_leaves=2
num_cat=0
split_feature=49
split_gain=4219.7
threshold=-0.19223321122977019
decision_type=2
left_child=-1
right_child=-2
leaf_value=0.014969660213525708 -0.014823477005273207
leaf_weight=916.15905669331551 925.44205041229725
leaf_count=3981 4019
internal_value=0
internal_weight=1841.6
internal_count=8000
is_linear=0
shrinkage=0.01


Tree=36
num_leaves=2
num_cat=0
split_feature=49
split_gain=4155.49
threshold=-0.19223321122977019
decision_type=2
left_child=-1
right_child=-2
leaf_value=0.014886325847828938 -0.014739742714189839
leaf_weight=912.26232181489468 921.58213646709919
leaf_count=3981 4019
internal_value=0
internal_weight=1833.84
internal_count=8000
is_linear=0
shrinkage=0.01


Tree=37
num_leaves=2
num_cat=0
split_feature=1
split_gain=4162.33
threshold=1.0000000180025095e-35
decision_type=2
left_child=-1
right_child=-2
leaf_value=0.01485703039833542 -0.014854826982854155
leaf_weight=912.9465149641037 913.03321287035942
leaf_count=4000 4000
internal_value=0
internal_weight=1825.98
internal_count=8000
is_linear=0
shrinkage=0.01


Tree=38
num_leaves=2
num_cat=0
split_feature=1
split_gain=4099.82
threshold=1.0000000180025095e-35
decision_type=2
left_child=-1
right_child=-2
leaf_value=0.0147766531992538 -0.014774472159728805
leaf_weight=908.91670298576355 909.00233736634254
leaf_count=4000 4000
internal_value=0
internal_weight=1817.92
internal_count=8000
is_linear=0
shrinkage=0.01


Tree=39
num_leaves=2
num_cat=0
split_feature=49
split_gain=3970.69
threshold=-0.19223321122977019
decision_type=2
left_child=-1
right_child=-2
leaf_value=0.014645889788204268 -0.014499884508069601
leaf_weight=900.2220162153244 909.53528155386448
leaf_count=3981 4019
internal_value=0
internal_weight=1809.76
internal_count=8000
is_linear=0
shrinkage=0.01


Tree=40
num_leaves=2
num_cat=0
split_feature=49
split_gain=3911.44
threshold=-0.19223321122977019
decision_type=2
left_child=-1
right_child=-2
leaf_value=0.014568693205963577 -0.014422167360201089
leaf_weight=896.12172296643257 905.47413712739944
leaf_count=3981 4019
internal_value=0
internal_weight=1801.6
internal_count=8000
is_linear=0
shrinkage=0.01


Tree=41
num_leaves=2
num_cat=0
split_feature=49
split_gain=3853.35
threshold=-0.19223321122977019
decision_type=2
left_child=-1
right_child=-2
leaf_value=0.0144929248952989 -0.014345851576253872
leaf_weight=891.97615319490433 901.36831617355347
leaf_count=3981 4019
internal_value=0
internal_weight=1793.34
internal_count=8000
is_linear=0
shrinkage=0.01


Tree=42
num_leaves=2
num_cat=0
split_feature=49
split_gain=3796.39
threshold=-0.19223321122977019
decision_type=2
left_child=-1
right_child=-2
leaf_value=0.014418545410151544 -0.014270896070295625
leaf_weight=887.78745520114899 897.21991103887558
leaf_count=3981 4019
internal_value=0
internal_weight=1785.01
internal_count=8000
is_linear=0
shrinkage=0.01


Tree=43
num_leaves=2
num_cat=0
split_feature=1
split_gain=3809.2
threshold=1.0000000180025095e-35
decision_type=2
left_child=-1
right_child=-2
leaf_value=0.014403428072684766 -0.014399787733640645
leaf_weight=888.21098010241985 888.3776780217886
leaf_count=4000 4000
internal_value=0
internal_weight=1776.59
internal_count=8000
is_linear=0
shrinkage=0.01


Tree=44
num_leaves=2
num_cat=0
split_feature=47
split_gain=3551.42
threshold=-0.4978532582557928
decision_type=2
left_child=-1
right_child=-2
leaf_value=0.013916936095760033 -0.013959954319807042
leaf_weight=885.44046676158905 882.55256022512913
leaf_count=4007 3993
internal_value=0
internal_weight=1767.99
internal_count=8000
is_linear=0
shrinkage=0.01


Tree=45
num_leaves=3
num_cat=0
split_feature=48 12
split_gain=2794 22.4175
threshold=-0.85894372514470441 0.32600413797528932
decision_type=2 2
left_child=-1 -2
right_child=1 -3
leaf_value=0.013321820604057713 -0.0080229602238993305 -0.013791439698251298
leaf_weight=814.10729229450226 442.26804673671722 503.3126246035099
leaf_count=3704 2005 2291
internal_value=0 -0.0115256
internal_weight=1759.69 945.581
internal_count=8000 4296
is_linear=0
shrinkage=0.01


Tree=46
num_leaves=2
num_cat=0
split_feature=49
split_gain=3593.63
threshold=-0.19223321122977019
decision_type=2
left_child=-1
right_child=-2
leaf_value=0.014152367780701853 -0.014006244756665334
leaf_weight=871.67364102602005 881.26663982868195
leaf_count=3981 4019
internal_value=0
internal_weight=1752.94
internal_count=8000
is_linear=0
shrinkage=0.01


Tree=47
num_leaves=2
num_cat=0
split_feature=49
split_gain=3541.62
threshold=-0.19223321122977019
decision_type=2
left_child=-1
right_child=-2
leaf_value=0.014084089616465831 -0.013937231729987652
leaf_weight=867.30781169235706 876.9443252235651
leaf_count=3981 4019
internal_value=0
internal_weight=1744.25
internal_count=8000
is_linear=0
shrinkage=0.01


Tree=48
num_leaves=2
num_cat=0
split_feature=45
split_gain=3245.72
threshold=-1.2020895424488842
decision_type=2
left_child=-1
right_child=-2
leaf_value=0.0139305949928359 -0.012976555262762321
leaf_weight=835.82777525484562 899.67278030514717
leaf_count=3859 4141
internal_value=0
internal_weight=1735.5
internal_count=8000
is_linear=0
shrinkage=0.01


Tree=49
num_leaves=2
num_cat=0
split_feature=47
split_gain=3314.63
threshold=-0.4978532582557928
decision_type=2
left_child=-1
right_child=-2
leaf_value=0.013598298373169939 -0.013638223208632679
leaf_weight=864.87255445122719 862.40719984471798
leaf_count=4007 3993
internal_value=0
internal_weight=1727.28
internal_count=8000
is_linear=0
shrinkage=0.01


Tree=50
num_leaves=2
num_cat=0
split_feature=18
split_gain=3280.79
threshold=0.031628108101452702
decision_type=2
left_child=-1
right_child=-2
leaf_value=-0.013474137471735427 0.013689186490082507
leaf_weight=866.46448057889938 852.22830446064472
leaf_count=4032 3968
internal_value=0
internal_weight=1718.69
internal_count=8000
is_linear=0
shrinkage=0.01


Tree=51
num_leaves=2
num_cat=0
split_feature=49
split_gain=3351.49
threshold=-0.19223321122977019
decision_type=2
left_child=-1
right_child=-2
leaf_value=0.013834446549889551 -0.013685799707089113
leaf_weight=850.21402823925018 859.92076839506626
leaf_count=3981 4019
internal_value=0
internal_weight=1710.13
internal_count=8000
is_linear=0
shrinkage=0.01


Tree=52
num_leaves=2
num_cat=0
split_feature=18
split_gain=3188.56
threshold=0.031628108101452702
decision_type=2
left_child=-1
right_child=-2
leaf_value=-0.0133479951078054 0.013563652194123
leaf_weight=857.71479235589504 843.45801243185997
leaf_count=4032 3968
internal_value=0
internal_weight=1701.17
internal_count=8000
is_linear=0
shrinkage=0.01


Tree=53
num_leaves=2
num_cat=0
split_feature=1
split_gain=3326.04
threshold=1.0000000180025095e-35
decision_type=2
left_child=-1
right_child=-2
leaf_value=0.013778723337983263 -0.013773850903853215
leaf_weight=846.03972828388214 846.48314502835274
leaf_count=4000 4000
internal_value=0
internal_weight=1692.52
internal_count=8000
is_linear=0
shrinkage=0.01


Tree=54
num_leaves=2
num_cat=0
split_feature=49
split_gain=3213.99
threshold=-0.19223321122977019
decision_type=2
left_child=-1
right_child=-2
leaf_value=0.013652587820032636 -0.013503368526715276
leaf_weight=836.82399775087833 846.53759625554085
leaf_count=3981 4019
internal_value=0
internal_weight=1683.36
internal_count=8000
is_linear=0
shrinkage=0.01


Tree=55
num_leaves=2
num_cat=0
split_feature=1
split_gain=3234.55
threshold=1.0000000180025095e-35
decision_type=2
left_child=-1
right_child=-2
leaf_value=0.013659493082126037 -0.013654105911379302
leaf_weight=836.89975070953369 837.36995972692966
leaf_count=4000 4000
internal_value=0
internal_weight=1674.27
internal_count=8000
is_linear=0
shrinkage=0.01


Tree=56
num_leaves=2
num_cat=0
split_feature=1
split_gain=3189.57
threshold=1.0000000180025095e-35
decision_type=2
left_child=-1
right_child=-2
leaf_value=0.013600474403352145 -0.013595108678949726
leaf_weight=832.27952751517296 832.74713173508644
leaf_count=4000 4000
internal_value=0
internal_weight=1665.03
internal_count=8000
is_linear=0
shrinkage=0.01


Tree=57
num_leaves=2
num_cat=0
split_feature=18
split_gain=2971.88
threshold=0.031628108101452702
decision_type=2
left_child=-1
right_child=-2
leaf_value=-0.013054628718875298 0.013268252512867798
leaf_weight=834.90048402547836 820.84623236954212
leaf_count=4032 3968
internal_value=0
internal_weight=1655.75
internal_count=8000
is_linear=0
shrinkage=0.01


Tree=58
num_leaves=2
num_cat=0
split_feature=49
split_gain=3040.96
threshold=-0.19223321122977019
decision_type=2
left_child=-1
right_child=-2
leaf_value=0.013422599349357463 -0.013272802535727869
leaf_weight=818.6070022881031 828.30653961002827
leaf_count=3981 4019
internal_value=0
internal_weight=1646.91
internal_count=8000
is_linear=0
shrinkage=0.01


Tree=59
num_leaves=2
num_cat=0
split_feature=1
split_gain=3062.55
threshold=1.0000000180025095e-35
decision_type=2
left_child=-1
right_child=-2
leaf_value=0.013434119351647983 -0.013428161917876456
leaf_weight=818.59780776500702 819.08999851346016
leaf_count=4000 4000
internal_value=0
internal_weight=1637.69
internal_count=8000
is_linear=0
shrinkage=0.01


Tree=60
num_leaves=2
num_cat=0
split_feature=47
split_gain=2844.2
threshold=-0.4978532582557928
decision_type=2
left_child=-1
right_child=-2
leaf_value=0.012961852803635786 -0.01299689740093192
leaf_weight=815.23870414495468 813.07780161499977
leaf_count=4007 3993
internal_value=0
internal_weight=1628.32
internal_count=8000
is_linear=0
shrinkage=0.01


Tree=61
num_leaves=2
num_cat=0
split_feature=18
split_gain=2814.07
threshold=0.031628108101452702
decision_type=2
left_child=-1
right_child=-2
leaf_value=-0.012838809027671738 0.013051822743544503
leaf_weight=816.63787254691124 802.70273017883301
leaf_count=4032 3968
internal_value=0
internal_weight=1619.34
internal_count=8000
is_linear=0
shrinkage=0.01


Tree=62
num_leaves=2
num_cat=0
split_feature=1
split_gain=2943.48
threshold=1.0000000180025095e-35
decision_type=2
left_child=-1
right_child=-2
leaf_value=0.013277608552656363 -0.013271454735392138
leaf_weight=804.95743484795094 805.45349341630936
leaf_count=4000 4000
internal_value=0
internal_weight=1610.41
internal_count=8000
is_linear=0
shrinkage=0.01


Tree=63
num_leaves=2
num_cat=0
split_feature=47
split_gain=2730.65
threshold=-0.4978532582557928
decision_type=2
left_child=-1
right_child=-2
leaf_value=0.012804542904865638 -0.012839237292854829
leaf_weight=801.5540377497673 799.41827122867107
leaf_count=4007 3993
internal_value=0
internal_weight=1600.97
internal_count=8000
is_linear=0
shrinkage=0.01


Tree=64
num_leaves=2
num_cat=0
split_feature=1
split_gain=2866.69
threshold=1.0000000180025095e-35
decision_type=2
left_child=-1
right_child=-2
leaf_value=0.013176352173484037 -0.013170108892261707
leaf_weight=795.72232082486153 796.22208128869534
leaf_count=4000 4000
internal_value=0
internal_weight=1591.94
internal_count=8000
is_linear=0
shrinkage=0.01


Tree=65
num_leaves=2
num_cat=0
split_feature=44
split_gain=2557.18
threshold=-1.1957949565687802
decision_type=2
left_child=-1
right_child=-2
leaf_value=0.012956047929283844 -0.012016932634674831
leaf_weight=760.29677693545818 822.1753014922142
leaf_count=3855 4145
internal_value=0
internal_weight=1582.47
internal_count=8000
is_linear=0
shrinkage=0.01


Tree=66
num_leaves=2
num_cat=0
split_feature=44
split_gain=2521.74
threshold=-1.2224120669755514
decision_type=2
left_child=-1
right_child=-2
leaf_value=0.013004746993117716 -0.011868777035675009
leaf_weight=749.54206211864948 824.24315792322159
leaf_count=3824 4176
internal_value=0
internal_weight=1573.79
internal_count=8000
is_linear=0
shrinkage=0.01


Tree=67
num_leaves=2
num_cat=0
split_feature=1
split_gain=2760.01
threshold=1.0000000180025095e-35
decision_type=2
left_child=-1
right_child=-2
leaf_value=0.013036608517028432 -0.013027641527072116
leaf_weight=782.24430578947067 782.85514484345913
leaf_count=4000 4000
internal_value=0
internal_weight=1565.1
internal_count=8000
is_linear=0
shrinkage=0.01


Tree=68
num_leaves=2
num_cat=0
split_feature=18
split_gain=2566.99
threshold=0.031628108101452702
decision_type=2
left_child=-1
right_child=-2
leaf_value=-0.012499364072139007 0.012711705320399128
leaf_weight=784.62706516683102 770.96695221960545
leaf_count=4032 3968
internal_value=0
internal_weight=1555.59
internal_count=8000
is_linear=0
shrinkage=0.01


Tree=69
num_leaves=2
num_cat=0
split_feature=18
split_gain=2532.06
threshold=0.031628108101452702
decision_type=2
left_child=-1
right_child=-2
leaf_value=-0.012447657048605216 0.012661483547317595
leaf_weight=780.1545452028513 766.4264720082283
leaf_count=4032 3968
internal_value=0
internal_weight=1546.58
internal_count=8000
is_linear=0
shrinkage=0.01


Tree=70
num_leaves=2
num_cat=0
split_feature=18
split_gain=2497.71
threshold=0.031628108101452702
decision_type=2
left_child=-1
right_child=-2
leaf_value=-0.012396585494439488 0.012611929015194263
leaf_weight=775.68100802600384 761.88421754539013
leaf_count=4032 3968
internal_value=0
internal_weight=1537.57
internal_count=8000
is_linear=0
shrinkage=0.01


Tree=71
num_leaves=2
num_cat=0
split_feature=47
split_gain=2459.86
threshold=-0.4978532582557928
decision_type=2
left_child=-1
right_child=-2
leaf_value=0.012430423495606354 -0.012457324913414969
leaf_weight=765.11561007797718 763.43287588655949
leaf_count=4007 3993
internal_value=0
internal_weight=1528.55
internal_count=8000
is_linear=0
shrinkage=0.01


Tree=72
num_leaves=2
num_cat=0
split_feature=49
split_gain=2532.9
threshold=-0.1291863916876598
decision_type=2
left_child=-1
right_child=-2
leaf_value=0.012631961467940562 -0.012695065122342942
leaf_weight=761.68700365722179 757.78585448861122
leaf_count=4012 3988
internal_value=0
internal_weight=1519.47
internal_count=8000
is_linear=0
shrinkage=0.01


Tree=73
num_leaves=2
num_cat=0
split_feature=1
split_gain=2556.81
threshold=1.0000000180025095e-35
decision_type=2
left_child=-1
right_child=-2
leaf_value=0.01276569805289225 -0.012756326469975293
leaf_weight=754.74678805470467 755.35867513716221
leaf_count=4000 4000
internal_value=0
internal_weight=1510.11
internal_count=8000
is_linear=0
shrinkage=0.01


Tree=74
num_leaves=2
num_cat=0
split_feature=49
split_gain=2466.55
threshold=-0.1291863916876598
decision_type=2
left_child=-1
right_child=-2
leaf_value=0.012540181105027073 -0.01260370767010403
leaf_weight=752.24533839523792 748.33778174221516
leaf_count=4012 3988
internal_value=0
internal_weight=1500.58
internal_count=8000
is_linear=0
shrinkage=0.01


Tree=75
num_leaves=2
num_cat=0
split_feature=1
split_gain=2491.12
threshold=1.0000000180025095e-35
decision_type=2
left_child=-1
right_child=-2
leaf_value=0.012677075057159617 -0.012667793014703728
leaf_weight=745.30862520635128 745.91319653391838
leaf_count=4000 4000
internal_value=0
internal_weight=1491.22
internal_count=8000
is_linear=0
shrinkage=0.01


Tree=76
num_leaves=2
num_cat=0
split_feature=49
split_gain=2402.47
threshold=-0.19223321122977019
decision_type=2
left_child=-1
right_child=-2
leaf_value=0.012561041232762591 -0.012405968169838133
leaf_weight=736.04765504598618 745.65980067849159
leaf_count=3981 4019
internal_value=0
internal_weight=1481.71
internal_count=8000
is_linear=0
shrinkage=0.01


Tree=77
num_leaves=2
num_cat=0
split_feature=1
split_gain=2427.5
threshold=1.0000000180025095e-35
decision_type=2
left_child=-1
right_child=-2
leaf_value=0.012591303170479408 -0.01258154030798842
leaf_weight=735.8549483269453 736.4807843118906
leaf_count=4000 4000
internal_value=0
internal_weight=1472.34
internal_count=8000
is_linear=0
shrinkage=0.01


Tree=78
num_leaves=2
num_cat=0
split_feature=1
split_gain=2396.07
threshold=1.0000000180025095e-35
decision_type=2
left_child=-1
right_child=-2
leaf_value=0.012548492472863737 -0.012538786863114002
leaf_weight=731.10791812837124 731.72814355790615
leaf_count=4000 4000
internal_value=0
internal_weight=1462.84
internal_count=8000
is_linear=0
shrinkage=0.01


Tree=79
num_leaves=2
num_cat=0
split_feature=1
split_gain=2365.15
threshold=1.0000000180025095e-35
decision_type=2
left_child=-1
right_child=-2
leaf_value=0.012506265919472017 -0.01249661908668356
leaf_weight=726.36576640605927 726.98032641410828
leaf_count=4000 4000
internal_value=0
internal_weight=1453.35
internal_count=8000
is_linear=0
shrinkage=0.01


Tree=80
num_leaves=2
num_cat=0
split_feature=49
split_gain=2280.41
threshold=-0.1291863916876598
decision_type=2
left_child=-1
right_child=-2
leaf_value=0.012283029214844782 -0.012345207245523959
leaf_weight=723.81667926907539 720.05053335428238
leaf_count=4012 3988
internal_value=0
internal_weight=1443.87
internal_count=8000
is_linear=0
shrinkage=0.01


Tree=81
num_leaves=2
num_cat=0
split_feature=1
split_gain=2305.44
threshold=1.0000000180025095e-35
decision_type=2
left_child=-1
right_child=-2
leaf_value=0.012424734450857993 -0.012415181672389234
leaf_weight=716.97819595038891 717.58480007946491
leaf_count=4000 4000
internal_value=0
internal_weight=1434.56
internal_count=8000
is_linear=0
shrinkage=0.01


Tree=82
num_leaves=2
num_cat=0
split_feature=18
split_gain=2137.26
threshold=0.031628108101452702
decision_type=2
left_child=-1
right_child=-2
leaf_value=-0.011891631712528541 0.012102021724689112
leaf_weight=719.08283747732639 706.0281535834074
leaf_count=4032 3968
internal_value=0
internal_weight=1425.11
internal_count=8000
is_linear=0
shrinkage=0.01


Tree=83
num_leaves=2
num_cat=0
split_feature=1
split_gain=2248.66
threshold=1.0000000180025095e-35
decision_type=2
left_child=-1
right_child=-2
leaf_value=0.012346955393134752 -0.012337345192457261
leaf_weight=707.79481171071529 708.39486163854599
leaf_count=4000 4000
internal_value=0
internal_weight=1416.19
internal_count=8000
is_linear=0
shrinkage=0.01


Tree=84
num_leaves=2
num_cat=0
split_feature=1
split_gain=2220.03
threshold=1.0000000180025095e-35
decision_type=2
left_child=-1
right_child=-2
leaf_value=0.012307422134778263 -0.012297871561854266
leaf_weight=703.08763699233532 703.68190410733223
leaf_count=4000 4000
internal_value=0
internal_weight=1406.77
internal_count=8000
is_linear=0
shrinkage=0.01


Tree=85
num_leaves=2
num_cat=0
split_feature=1
split_gain=2191.84
threshold=1.0000000180025095e-35
decision_type=2
left_child=-1
right_child=-2
leaf_value=0.012268402250855154 -0.01225891140067416
leaf_weight=698.38956110179424 698.97803021967411
leaf_count=4000 4000
internal_value=0
internal_weight=1397.37
internal_count=8000
is_linear=0
shrinkage=0.01


Tree=86
num_leaves=2
num_cat=0
split_feature=1
split_gain=2164.08
threshold=1.0000000180025095e-35
decision_type=2
left_child=-1
right_child=-2
leaf_value=0.012229884734171801 -0.012220453513483071
leaf_weight=693.70120160281658 694.28389130532742
leaf_count=4000 4000
internal_value=0
internal_weight=1387.99
internal_count=8000
is_linear=0
shrinkage=0.01


Tree=87
num_leaves=2
num_cat=0
split_feature=1
split_gain=2136.75
threshold=1.0000000180025095e-35
decision_type=2
left_child=-1
right_child=-2
leaf_value=0.01219185890667664 -0.012182488176388593
leaf_weight=689.02318920195103 689.6000429391861
leaf_count=4000 4000
internal_value=0
internal_weight=1378.62
internal_count=8000
is_linear=0
shrinkage=0.01


Tree=88
num_leaves=2
num_cat=0
split_feature=49
split_gain=2059.31
threshold=-0.1291863916876598
decision_type=2
left_child=-1
right_child=-2
leaf_value=0.011972749805292466 -0.012033989018133826
leaf_weight=686.4527912735939 682.83044630289078
leaf_count=4012 3988
internal_value=0
internal_weight=1369.28
internal_count=8000
is_linear=0
shrinkage=0.01


Tree=89
num_leaves=2
num_cat=0
split_feature=49
split_gain=2033.41
threshold=-0.19223321122977019
decision_type=2
left_child=-1
right_child=-2
leaf_value=0.012044663932795605 -0.011887798917750244
leaf_weight=675.39923016726971 684.73277640342712
leaf_count=3981 4019
internal_value=0
internal_weight=1360.13
internal_count=8000
is_linear=0
shrinkage=0.01


Tree=90
num_leaves=2
num_cat=0
split_feature=45
split_gain=1856.85
threshold=-1.2020895424488842
decision_type=2
left_child=-1
right_child=-2
leaf_value=0.011922437817300464 -0.011037979800164393
leaf_weight=648.30553093552589 702.67953160405159
leaf_count=3859 4141
internal_value=0
internal_weight=1350.99
internal_count=8000
is_linear=0
shrinkage=0.01


Tree=91
num_leaves=2
num_cat=0
split_feature=1
split_gain=2035.24
threshold=1.0000000180025095e-35
decision_type=2
left_child=-1
right_child=-2
leaf_value=0.012051838894460369 -0.012040815664286646
leaf_weight=670.93562236428261 671.57245396077633
leaf_count=4000 4000
internal_value=0
internal_weight=1342.51
internal_count=8000
is_linear=0
shrinkage=0.01


Tree=92
num_leaves=2
num_cat=0
split_feature=18
split_gain=1884.53
threshold=0.031628108101452702
decision_type=2
left_child=-1
right_child=-2
leaf_value=-0.011526388818913583 0.011734836991501572
leaf_weight=672.87228856980801 660.39222338795662
leaf_count=4032 3968
internal_value=0
internal_weight=1333.26
internal_count=8000
is_linear=0
shrinkage=0.01


Tree=93
num_leaves=2
num_cat=0
split_feature=18
split_gain=1860.38
threshold=0.031628108101452702
decision_type=2
left_child=-1
right_child=-2
leaf_value=-0.011486946938668611 0.011697241663433673
leaf_weight=668.55552811920643 656.00803971290588
leaf_count=4032 3968
internal_value=0
internal_weight=1324.56
internal_count=8000
is_linear=0
shrinkage=0.01


Tree=94
num_leaves=2
num_cat=0
split_feature=18
split_gain=1836.57
threshold=0.031628108101452702
decision_type=2
left_child=-1
right_child=-2
leaf_value=-0.011447860184210243 0.011660026926832007
leaf_weight=664.25382007658482 651.63841693103313
leaf_count=4032 3968
internal_value=0
internal_weight=1315.89
internal_count=8000
is_linear=0
shrinkage=0.01


Tree=95
num_leaves=2
num_cat=0
split_feature=44
split_gain=1739.93
threshold=-1.2224120669755514
decision_type=2
left_child=-1
right_child=-2
leaf_value=0.011836312729995718 -0.010751407866867626
leaf_weight=620.80274912714958 686.44879341125488
leaf_count=3824 4176
internal_value=0
internal_weight=1307.25
internal_count=8000
is_linear=0
shrinkage=0.01


Tree=96
num_leaves=2
num_cat=0
split_feature=18
split_gain=1792.99
threshold=0.031628108101452702
decision_type=2
left_child=-1
right_child=-2
leaf_value=-0.01137957194007579 0.011594418127018653
leaf_weight=655.80147424340248 643.14860185980797
leaf_count=4032 3968
internal_value=0
internal_weight=1298.95
internal_count=8000
is_linear=0
shrinkage=0.01


Tree=97
num_leaves=2
num_cat=0
split_feature=44
split_gain=1697.57
threshold=-1.2224120669755514
decision_type=2
left_child=-1
right_child=-2
leaf_value=0.011771817114897285 -0.010679000935430507
leaf_weight=612.35036063194275 678.01803995668888
leaf_count=3824 4176
internal_value=0
internal_weight=1290.37
internal_count=8000
is_linear=0
shrinkage=0.01


Tree=98
num_leaves=2
num_cat=0
split_feature=1
split_gain=1875.98
threshold=1.0000000180025095e-35
decision_type=2
left_child=-1
right_child=-2
leaf_value=0.011829902598232068 -0.011815518063271057
leaf_weight=640.70117741823196 641.42708544433117
leaf_count=4000 4000
internal_value=0
internal_weight=1282.13
internal_count=8000
is_linear=0
shrinkage=0.01


Tree=99
num_leaves=2
num_cat=0
split_feature=45
split_gain=1662.3
threshold=-1.2020895424488842
decision_type=2
left_child=-1
right_child=-2
leaf_value=0.011626138155458812 -0.010725439121876403
leaf_weight=609.72975553572178 663.35363532602787
leaf_count=3859 4141
internal_value=0
internal_weight=1273.08
internal_count=8000
is_linear=0
shrinkage=0.01


Tree=100
num_leaves=2
num_cat=0
split_feature=47
split_gain=1706.78
threshold=-0.4978532582557928
decision_type=2
left_child=-1
right_child=-2
leaf_value=0.011347262022627225 -0.01135309657334113
leaf_weight=632.66421790421009 632.20384815335274
leaf_count=4007 3993
internal_value=0
internal_weight=1264.87
internal_count=8000
is_linear=0
shrinkage=0.01


Tree=101
num_leaves=2
num_cat=0
split_feature=18
split_gain=1690.39
threshold=0.031628108101452702
decision_type=2
left_child=-1
right_child=-2
leaf_value=-0.011223652675270208 0.01144125939914706
leaf_weight=634.44374562799931 621.92382435500622
leaf_count=4032 3968
internal_value=0
internal_weight=1256.37
internal_count=8000
is_linear=0
shrinkage=0.01


Tree=102
num_leaves=2
num_cat=0
split_feature=18
split_gain=1669.07
threshold=0.031628108101452702
decision_type=2
left_child=-1
right_child=-2
leaf_value=-0.011187204001166271 0.011406765754573278
leaf_weight=630.26440781354904 617.678446829319
leaf_count=4032 3968
internal_value=0
internal_weight=1247.94
internal_count=8000
is_linear=0
shrinkage=0.01


Tree=103
num_leaves=2
num_cat=0
split_feature=1
split_gain=1770.67
threshold=1.0000000180025095e-35
decision_type=2
left_child=-1
right_child=-2
leaf_value=0.011680798468207656 -0.011664641709994315
leaf_weight=619.39016960561275 620.16414497792721
leaf_count=4000 4000
internal_value=0
internal_weight=1239.55
internal_count=8000
is_linear=0
shrinkage=0.01


Tree=104
num_leaves=2
num_cat=0
split_feature=49
split_gain=1703.78
threshold=-0.1291863916876598
decision_type=2
left_child=-1
right_child=-2
leaf_value=0.011463961779497298 -0.011514956766149742
leaf_weight=616.83255361020565 613.84174303710461
leaf_count=4012 3988
internal_value=0
internal_weight=1230.67
internal_count=8000
is_linear=0
shrinkage=0.01


Tree=105
num_leaves=2
num_cat=0
split_feature=49
split_gain=1682.87
threshold=-0.1291863916876598
decision_type=2
left_child=-1
right_child=-2
leaf_value=0.011431366608552367 -0.011483224670184118
leaf_weight=612.51267564296722 609.48734849691391
leaf_count=4012 3988
internal_value=0
internal_weight=1222
internal_count=8000
is_linear=0
shrinkage=0.01


Tree=106
num_leaves=2
num_cat=0
split_feature=1
split_gain=1708.05
threshold=1.0000000180025095e-35
decision_type=2
left_child=-1
right_child=-2
leaf_value=0.011589694653800943 -0.011573797619691189
leaf_weight=606.30451096594334 607.05855584144592
leaf_count=4000 4000
internal_value=0
internal_weight=1213.36
internal_count=8000
is_linear=0
shrinkage=0.01


Tree=107
num_leaves=2
num_cat=0
split_feature=1
split_gain=1687.39
threshold=1.0000000180025095e-35
decision_type=2
left_child=-1
right_child=-2
leaf_value=0.011559238544697554 -0.01154345067975805
leaf_weight=601.92396828532219 602.66878865659237
leaf_count=4000 4000
internal_value=0
internal_weight=1204.59
internal_count=8000
is_linear=0
shrinkage=0.01


Tree=108
num_leaves=2
num_cat=0
split_feature=18
split_gain=1551.05
threshold=0.031628108101452702
decision_type=2
left_child=-1
right_child=-2
leaf_value=-0.011004271943137318 0.011223337562791359
leaf_weight=604.05727136135101 591.80330757796764
leaf_count=4032 3968
internal_value=0
internal_weight=1195.86
internal_count=8000
is_linear=0
shrinkage=0.01


Tree=109
num_leaves=2
num_cat=0
split_feature=44
split_gain=1467.51
threshold=-1.2224120669755514
decision_type=2
left_child=-1
right_child=-2
leaf_value=0.011406932593168042 -0.010310995354668036
leaf_weight=562.43041448295116 625.26010870933533
leaf_count=3824 4176
internal_value=0
internal_weight=1187.69
internal_count=8000
is_linear=0
shrinkage=0.01


Tree=110
num_leaves=2
num_cat=0
split_feature=1
split_gain=1630.71
threshold=1.0000000180025095e-35
decision_type=2
left_child=-1
right_child=-2
leaf_value=0.011477067379808971 -0.011459665135332964
leaf_weight=589.5375043451786 590.32242737710476
leaf_count=4000 4000
internal_value=0
internal_weight=1179.86
internal_count=8000
is_linear=0
shrinkage=0.01


Tree=111
num_leaves=2
num_cat=0
split_feature=47
split_gain=1495.63
threshold=-0.4978532582557928
decision_type=2
left_child=-1
right_child=-2
leaf_value=0.011021371580513724 -0.011021658050627129
leaf_weight=585.70856757462025 585.53165328502655
leaf_count=4007 3993
internal_value=0
internal_weight=1171.24
internal_count=8000
is_linear=0
shrinkage=0.01


Tree=112
num_leaves=2
num_cat=0
split_feature=18
split_gain=1480.26
threshold=0.031628108101452702
decision_type=2
left_child=-1
right_child=-2
leaf_value=-0.010890810976495455 0.011112165162385834
leaf_weight=587.64375805854797 575.4982363730669
leaf_count=4032 3968
internal_value=0
internal_weight=1163.14
internal_count=8000
is_linear=0
shrinkage=0.01


Tree=113
num_leaves=2
num_cat=0
split_feature=1
split_gain=1575.52
threshold=1.0000000180025095e-35
decision_type=2
left_child=-1
right_child=-2
leaf_value=0.011395626838542212 -0.011378004912640172
leaf_weight=577.17135329544544 577.95249262452126
leaf_count=4000 4000
internal_value=0
internal_weight=1155.12
internal_count=8000
is_linear=0
shrinkage=0.01


Tree=114
num_leaves=2
num_cat=0
split_feature=1
split_gain=1556.71
threshold=1.0000000180025095e-35
decision_type=2
left_child=-1
right_child=-2
leaf_value=0.011367187971339492 -0.011349690559086072
leaf_weight=572.92551693320274 573.69656318426132
leaf_count=4000 4000
internal_value=0
internal_weight=1146.62
internal_count=8000
is_linear=0
shrinkage=0.01


Tree=115
num_leaves=2
num_cat=0
split_feature=1
split_gain=1538.16
threshold=1.0000000180025095e-35
decision_type=2
left_child=-1
right_child=-2
leaf_value=0.011339031644663378 -0.011321657535856719
leaf_weight=568.70036779344082 569.46141122281551
leaf_count=4000 4000
internal_value=0
internal_weight=1138.16
internal_count=8000
is_linear=0
shrinkage=0.01


Tree=116
num_leaves=2
num_cat=0
split_feature=49
split_gain=1477.82
threshold=-0.1291863916876598
decision_type=2
left_child=-1
right_child=-2
leaf_value=0.011120493056329521 -0.011169779206505756
leaf_weight=566.26655897498131 563.47682675719261
leaf_count=4012 3988
internal_value=0
internal_weight=1129.74
internal_count=8000
is_linear=0
shrinkage=0.01


Tree=117
num_leaves=2
num_cat=0
split_feature=45
split_gain=1338.68
threshold=-1.2020895424488842
decision_type=2
left_child=-1
right_child=-2
leaf_value=0.011104937596914667 -0.010202554085936864
leaf_weight=535.83126716315746 585.70695313811302
leaf_count=3859 4141
internal_value=0
internal_weight=1121.54
internal_count=8000
is_linear=0
shrinkage=0.01


Tree=118
num_leaves=2
num_cat=0
split_feature=18
split_gain=1378.84
threshold=0.031628108101452702
decision_type=2
left_child=-1
right_child=-2
leaf_value=-0.010726796315604754 0.010949161643681473
leaf_weight=562.91927121579647 551.06261719763279
leaf_count=4032 3968
internal_value=0
internal_weight=1113.98
internal_count=8000
is_linear=0
shrinkage=0.01


Tree=119
num_leaves=2
num_cat=0
split_feature=1
split_gain=1470.14
threshold=1.0000000180025095e-35
decision_type=2
left_child=-1
right_child=-2
leaf_value=0.011237073104053369 -0.011218373863256385
leaf_weight=552.70971281826496 553.49575988948345
leaf_count=4000 4000
internal_value=0
internal_weight=1106.21
internal_count=8000
is_linear=0
shrinkage=0.01


Tree=120
num_leaves=2
num_cat=0
split_feature=47
split_gain=1344.57
threshold=-0.4978532582557928
decision_type=2
left_child=-1
right_child=-2
leaf_value=0.010778138754124467 -0.010773300958764657
leaf_weight=548.94161088764668 549.01007474958897
leaf_count=4007 3993
internal_value=0
internal_weight=1097.95
internal_count=8000
is_linear=0
shrinkage=0.01


Tree=121
num_leaves=2
num_cat=0
split_feature=1
split_gain=1436.91
threshold=1.0000000180025095e-35
decision_type=2
left_child=-1
right_child=-2
leaf_value=0.011186372630608642 -0.011167592904486719
leaf_weight=544.71882836520672 545.50234466791153
leaf_count=4000 4000
internal_value=0
internal_weight=1090.22
internal_count=8000
is_linear=0
shrinkage=0.01


Tree=122
num_leaves=2
num_cat=0
split_feature=49
split_gain=1379.12
threshold=-0.1291863916876598
decision_type=2
left_child=-1
right_child=-2
leaf_value=0.010964992753513916 -0.011013047302787203
leaf_weight=542.36716188490391 539.68551029264927
leaf_count=4012 3988
internal_value=0
internal_weight=1082.05
internal_count=8000
is_linear=0
shrinkage=0.01


Tree=123
num_leaves=2
num_cat=0
split_feature=1
split_gain=1403.77
threshold=1.0000000180025095e-35
decision_type=2
left_child=-1
right_child=-2
leaf_value=0.011134856041797949 -0.011116309732347836
leaf_weight=536.66675360500813 537.43312568962574
leaf_count=4000 4000
internal_value=0
internal_weight=1074.1
internal_count=8000
is_linear=0
shrinkage=0.01


Tree=124
num_leaves=2
num_cat=0
split_feature=1
split_gain=1387.29
threshold=1.0000000180025095e-35
decision_type=2
left_child=-1
right_child=-2
leaf_value=0.011108905400104476 -0.011090490676380316
leaf_weight=532.63153207302094 533.3875782340765
leaf_count=4000 4000
internal_value=0
internal_weight=1066.02
internal_count=8000
is_linear=0
shrinkage=0.01


Tree=125
num_leaves=2
num_cat=0
split_feature=44
split_gain=1212.72
threshold=-1.2224120669755514
decision_type=2
left_child=-1
right_child=-2
leaf_value=0.010978981215890396 -0.0098799618772835579
leaf_weight=499.63331958651543 558.34974993765354
leaf_count=3824 4176
internal_value=0
internal_weight=1057.98
internal_count=8000
is_linear=0
shrinkage=0.01


Tree=126
num_leaves=2
num_cat=0
split_feature=1
split_gain=1356.84
threshold=1.0000000180025095e-35
decision_type=2
left_child=-1
right_child=-2
leaf_value=0.011062161430843801 -0.011042248084391663
leaf_weight=524.99989506602287 525.79155732691288
leaf_count=4000 4000
internal_value=0
internal_weight=1050.79
internal_count=8000
is_linear=0
shrinkage=0.01


Tree=127
num_leaves=2
num_cat=0
split_feature=1
split_gain=1340.99
threshold=1.0000000180025095e-35
decision_type=2
left_child=-1
right_child=-2
leaf_value=0.011036857172019283 -0.011017083266294086
leaf_weight=521.03022612631321 521.81110709905624
leaf_count=4000 4000
internal_value=0
internal_weight=1042.84
internal_count=8000
is_linear=0
shrinkage=0.01


Tree=128
num_leaves=2
num_cat=0
split_feature=47
split_gain=1223.02
threshold=-0.4978532582557928
decision_type=2
left_child=-1
right_child=-2
leaf_value=0.010573621814820258 -0.010563776620841405
leaf_weight=517.32093916833401 517.61557668447495
leaf_count=4007 3993
internal_value=0
internal_weight=1034.94
internal_count=8000
is_linear=0
shrinkage=0.01


Tree=129
num_leaves=2
num_cat=0
split_feature=47
split_gain=1208.23
threshold=-0.4978532582557928
decision_type=2
left_child=-1
right_child=-2
leaf_value=0.01054502331972919 -0.01053542938822136
leaf_weight=513.63653337955475 513.91749346256256
leaf_count=4007 3993
internal_value=0
internal_weight=1027.55
internal_count=8000
is_linear=0
shrinkage=0.01


Tree=130
num_leaves=2
num_cat=0
split_feature=44
split_gain=1143.14
threshold=-1.2224120669755514
decision_type=2
left_child=-1
right_child=-2
leaf_value=0.010856844152959911 -0.0097471087629035641
leaf_weight=481.12664534151554 539.09050253033638
leaf_count=3824 4176
internal_value=0
internal_weight=1020.22
internal_count=8000
is_linear=0
shrinkage=0.01


Tree=131
num_leaves=2
num_cat=0
split_feature=49
split_gain=1244.69
threshold=-0.1291863916876598
decision_type=2
left_child=-1
right_child=-2
leaf_value=0.010746950168014911 -0.010791414389106279
leaf_weight=507.84706129133701 505.39153803884983
leaf_count=4012 3988
internal_value=0
internal_weight=1013.24
internal_count=8000
is_linear=0
shrinkage=0.01


Tree=132
num_leaves=2
num_cat=0
split_feature=18
split_gain=1174.93
threshold=-0.024619247975885342
decision_type=2
left_child=-1
right_child=-2
leaf_value=-0.010564367759566541 0.01043621835263701
leaf_weight=499.46713772416115 506.21216583251953
leaf_count=3969 4031
internal_value=0
internal_weight=1005.68
internal_count=8000
is_linear=0
shrinkage=0.01


Tree=133
num_leaves=2
num_cat=0
split_feature=1
split_gain=1255.73
threshold=1.0000000180025095e-35
decision_type=2
left_child=-1
right_child=-2
leaf_value=0.010902589691145126 -0.010881093068489854
leaf_weight=498.84528549015522 499.66287460923195
leaf_count=4000 4000
internal_value=0
internal_weight=998.508
internal_count=8000
is_linear=0
shrinkage=0.01


Tree=134
num_leaves=2
num_cat=0
split_feature=17
split_gain=944.072
threshold=0.022221898073270057
decision_type=2
left_child=-1
right_child=-2
leaf_value=-0.0093240574065128878 0.009634947532115936
leaf_weight=503.91950794309378 486.94624355435371
leaf_count=4064 3936
internal_value=0
internal_weight=990.866
internal_count=8000
is_linear=0
shrinkage=0.01


Tree=135
num_leaves=2
num_cat=0
split_feature=1
split_gain=1230.27
threshold=1.0000000180025095e-35
decision_type=2
left_child=-1
right_child=-2
leaf_value=0.010860720417139869 -0.010839419225896357
leaf_weight=492.12872318923473 492.92129316926003
leaf_count=4000 4000
internal_value=0
internal_weight=985.05
internal_count=8000
is_linear=0
shrinkage=0.01


Tree=136
num_leaves=2
num_cat=0
split_feature=18
split_gain=1124.23
threshold=0.031628108101452702
decision_type=2
left_child=-1
right_child=-2
leaf_value=-0.010299758666900831 0.010520626537723829
leaf_weight=494.12713161110878 483.36245472729206
leaf_count=4032 3968
internal_value=0
internal_weight=977.49
internal_count=8000
is_linear=0
shrinkage=0.01


Tree=137
num_leaves=2
num_cat=0
split_feature=47
split_gain=1105.23
threshold=-0.4978532582557928
decision_type=2
left_child=-1
right_child=-2
leaf_value=0.010363670076398624 -0.010349158566201014
leaf_weight=484.99780482053757 485.4725985750556
leaf_count=4007 3993
internal_value=0
internal_weight=970.47
internal_count=8000
is_linear=0
shrinkage=0.01


Tree=138
num_leaves=2
num_cat=0
split_feature=47
split_gain=1092.06
threshold=-0.51101376064335491
decision_type=2
left_child=-1
right_child=-2
leaf_value=0.010437270112170313 -0.010223019063915659
leaf_weight=476.55383671820164 486.92179480940104
leaf_count=3976 4024
internal_value=0
internal_weight=963.476
internal_count=8000
is_linear=0
shrinkage=0.01


Tree=139
num_leaves=2
num_cat=0
split_feature=45
split_gain=1037.61
threshold=-1.2020895424488842
decision_type=2
left_child=-1
right_child=-2
leaf_value=0.010576540610947262 -0.0096507420389757466
leaf_weight=455.1282576918602 501.39905599504709
leaf_count=3859 4141
internal_value=0
internal_weight=956.527
internal_count=8000
is_linear=0
shrinkage=0.01


Tree=140
num_leaves=2
num_cat=0
split_feature=1
split_gain=1165.96
threshold=1.0000000180025095e-35
decision_type=2
left_child=-1
right_child=-2
leaf_value=0.010756729380554306 -0.010733174721327881
leaf_weight=474.52505869418383 475.36530364304781
leaf_count=4000 4000
internal_value=0
internal_weight=949.89
internal_count=8000
is_linear=0
shrinkage=0.01


Tree=141
num_leaves=2
num_cat=0
split_feature=49
split_gain=1115.5
threshold=-0.1291863916876598
decision_type=2
left_child=-1
right_child=-2
leaf_value=0.010526940887479781 -0.010569660660764505
leaf_weight=472.42518713325262 470.12550538033247
leaf_count=4012 3988
internal_value=0
internal_weight=942.551
internal_count=8000
is_linear=0
shrinkage=0.01


Tree=142
num_leaves=2
num_cat=0
split_feature=49
split_gain=1102.53
threshold=-0.1291863916876598
decision_type=2
left_child=-1
right_child=-2
leaf_value=0.010502415331914575 -0.010546132034649254
leaf_weight=468.88095173984766 466.54747783392668
leaf_count=4012 3988
internal_value=0
internal_weight=935.428
internal_count=8000
is_linear=0
shrinkage=0.01


Tree=143
num_leaves=2
num_cat=0
split_feature=1
split_gain=1127.21
threshold=1.0000000180025095e-35
decision_type=2
left_child=-1
right_child=-2
leaf_value=0.010690940504121907 -0.010667804091904206
leaf_weight=463.77010310441256 464.5826805382967
leaf_count=4000 4000
internal_value=0
internal_weight=928.353
internal_count=8000
is_linear=0
shrinkage=0.01


Tree=144
num_leaves=2
num_cat=0
split_feature=49
split_gain=1077.21
threshold=-0.1291863916876598
decision_type=2
left_child=-1
right_child=-2
leaf_value=0.010455792909395363 -0.010500462521346326
leaf_weight=461.75192827731371 459.39947088807821
leaf_count=4012 3988
internal_value=0
internal_weight=921.151
internal_count=8000
is_linear=0
shrinkage=0.01


Tree=145
num_leaves=2
num_cat=0
split_feature=47
split_gain=1007.28
threshold=-0.4978532582557928
decision_type=2
left_child=-1
right_child=-2
leaf_value=0.010178163148338186 -0.010158864231311069
leaf_weight=456.75452899932861 457.41424879431725
leaf_count=4007 3993
internal_value=0
internal_weight=914.169
internal_count=8000
is_linear=0
shrinkage=0.01


Tree=146
num_leaves=2
num_cat=0
split_feature=18
split_gain=1006.33
threshold=-0.024619247975885342
decision_type=2
left_child=-1
right_child=-2
leaf_value=-0.010260555289656966 0.010136884227055361
leaf_weight=450.70298258960247 456.83102826029062
leaf_count=3969 4031
internal_value=0
internal_weight=907.534
internal_count=8000
is_linear=0
shrinkage=0.01


Tree=147
num_leaves=2
num_cat=0
split_feature=45
split_gain=946.519
threshold=-1.2020895424488842
decision_type=2
left_child=-1
right_child=-2
leaf_value=0.010401275283397706 -0.0094694862972737777
leaf_weight=428.08013752102852 472.88007560372353
leaf_count=3859 4141
internal_value=0
internal_weight=900.96
internal_count=8000
is_linear=0
shrinkage=0.01


Tree=148
num_leaves=2
num_cat=0
split_feature=18
split_gain=984.603
threshold=0.031628108101452702
decision_type=2
left_child=-1
right_child=-2
leaf_value=-0.010045119665838105 0.010267170960622501
leaf_weight=452.41046764701605 442.25809083878994
leaf_count=4032 3968
internal_value=0
internal_weight=894.669
internal_count=8000
is_linear=0
shrinkage=0.01


Tree=149
num_leaves=2
num_cat=0
split_feature=47
split_gain=963.758
threshold=-0.4978532582557928
decision_type=2
left_child=-1
right_child=-2
leaf_value=0.010093822875028672 -0.010069932133442528
leaf_weight=443.66741115599871 444.50044909119606
leaf_count=4007 3993
internal_value=0
internal_weight=888.168
internal_count=8000
is_linear=0
shrinkage=0.01


Tree=150
num_leaves=2
num_cat=0
split_feature=1
split_gain=1046.26
threshold=1.0000000180025095e-35
decision_type=2
left_child=-1
right_child=-2
leaf_value=0.010552868365693803 -0.010528150347861663
leaf_weight=440.4389515593648 441.26750629395247
leaf_count=4000 4000
internal_value=0
internal_weight=881.706
internal_count=8000
is_linear=0
shrinkage=0.01


Tree=151
num_leaves=2
num_cat=0
split_feature=1
split_gain=1034.4
threshold=1.0000000180025095e-35
decision_type=2
left_child=-1
right_child=-2
leaf_value=0.010531455831455276 -0.010506906838273376
leaf_weight=436.99935265630484 437.81604460626841
leaf_count=4000 4000
internal_value=0
internal_weight=874.815
internal_count=8000
is_linear=0
shrinkage=0.01


Tree=152
num_leaves=2
num_cat=0
split_feature=18
split_gain=941.143
threshold=-0.024619247975885342
decision_type=2
left_child=-1
right_child=-2
leaf_value=-0.010132029367228568 0.010009825658967207
leaf_weight=431.02832379192114 436.94263643026352
leaf_count=3969 4031
internal_value=0
internal_weight=867.971
internal_count=8000
is_linear=0
shrinkage=0.01


Tree=153
num_leaves=2
num_cat=0
split_feature=1
split_gain=1012.06
threshold=1.0000000180025095e-35
decision_type=2
left_child=-1
right_child=-2
leaf_value=0.010491014811191754 -0.010466880546392674
leaf_weight=430.43164021521807 431.22658111900091
leaf_count=4000 4000
internal_value=0
internal_weight=861.658
internal_count=8000
is_linear=0
shrinkage=0.01


Tree=154
num_leaves=2
num_cat=0
split_feature=45
split_gain=874.627
threshold=-1.262584276482603
decision_type=2
left_child=-1
right_child=-2
leaf_value=0.010343691600527323 -0.0092418032360290937
leaf_weight=401.85691747069359 453.04686339944601
leaf_count=3828 4172
internal_value=0
internal_weight=854.904
internal_count=8000
is_linear=0
shrinkage=0.01


Tree=155
num_leaves=2
num_cat=0
split_feature=1
split_gain=990.765
threshold=1.0000000180025095e-35
decision_type=2
left_child=-1
right_child=-2
leaf_value=0.010453402276917345 -0.010427678218475588
leaf_weight=424.04810663312674 424.8703615963459
leaf_count=4000 4000
internal_value=0
internal_weight=848.918
internal_count=8000
is_linear=0
shrinkage=0.01


Tree=156
num_leaves=2
num_cat=0
split_feature=1
split_gain=979.601
threshold=1.0000000180025095e-35
decision_type=2
left_child=-1
right_child=-2
leaf_value=0.010432605106673936 -0.010407058638313886
leaf_weight=420.72100166231394 421.53122758120298
leaf_count=4000 4000
internal_value=0
internal_weight=842.252
internal_count=8000
is_linear=0
shrinkage=0.01


Tree=157
num_leaves=2
num_cat=0
split_feature=49
split_gain=934.09
threshold=-0.1291863916876598
decision_type=2
left_child=-1
right_child=-2
leaf_value=0.010191736947652822 -0.010233202986709565
leaf_weight=418.87504197657108 416.7572246491909
leaf_count=4012 3988
internal_value=0
internal_weight=835.632
internal_count=8000
is_linear=0
shrinkage=0.01


Tree=158
num_leaves=2
num_cat=0
split_feature=49
split_gain=923.411
threshold=-0.1291863916876598
decision_type=2
left_child=-1
right_child=-2
leaf_value=0.010169172576672034 -0.010211677535482728
leaf_weight=415.68897411972284 413.53873761743307
leaf_count=4012 3988
internal_value=0
internal_weight=829.228
internal_count=8000
is_linear=0
shrinkage=0.01


Tree=159
num_leaves=2
num_cat=0
split_feature=49
split_gain=912.863
threshold=-0.1291863916876598
decision_type=2
left_child=-1
right_child=-2
leaf_value=0.010146700026231832 -0.010190254866631979
leaf_weight=412.52583798766136 410.34311371296644
leaf_count=4012 3988
internal_value=0
internal_weight=822.869
internal_count=8000
is_linear=0
shrinkage=0.01


Tree=160
num_leaves=2
num_cat=0
split_feature=1
split_gain=937.459
threshold=1.0000000180025095e-35
decision_type=2
left_child=-1
right_child=-2
leaf_value=0.010354039114528877 -0.010329101062641788
leaf_weight=407.89084123075008 408.66504499316216
leaf_count=4000 4000
internal_value=0
internal_weight=816.556
internal_count=8000
is_linear=0
shrinkage=0.01


Tree=161
num_leaves=2
num_cat=0
split_feature=49
split_gain=892.256
threshold=-0.1291863916876598
decision_type=2
left_child=-1
right_child=-2
leaf_value=0.010104162947792072 -0.01014874042775318
leaf_weight=406.15927963703871 403.95759596675634
leaf_count=4012 3988
internal_value=0
internal_weight=810.117
internal_count=8000
is_linear=0
shrinkage=0.01


Tree=162
num_leaves=2
num_cat=0
split_feature=1
split_gain=916.962
threshold=1.0000000180025095e-35
decision_type=2
left_child=-1
right_child=-2
leaf_value=0.010314874307824337 -0.01029025491294629
leaf_weight=401.56987369060516 402.32481206208467
leaf_count=4000 4000
internal_value=0
internal_weight=803.895
internal_count=8000
is_linear=0
shrinkage=0.01


Tree=163
num_leaves=2
num_cat=0
split_feature=49
split_gain=872.313
threshold=-0.19223321122977019
decision_type=2
left_child=-1
right_child=-2
leaf_value=0.010185883304869517 -0.0099864975630430189
leaf_weight=394.67554266750813 402.87049592286348
leaf_count=3981 4019
internal_value=0
internal_weight=797.546
internal_count=8000
is_linear=0
shrinkage=0.01


Tree=164
num_leaves=2
num_cat=0
split_feature=18
split_gain=823.659
threshold=0.031628108101452702
decision_type=2
left_child=-1
right_child=-2
leaf_value=-0.009726668943489317 0.00994592312662077
leaf_weight=400.29979985207319 391.10274216532707
leaf_count=4032 3968
internal_value=0
internal_weight=791.403
internal_count=8000
is_linear=0
shrinkage=0.01


Tree=165
num_leaves=2
num_cat=0
split_feature=1
split_gain=887.766
threshold=1.0000000180025095e-35
decision_type=2
left_child=-1
right_child=-2
leaf_value=0.010258800096721723 -0.010233868036797086
leaf_weight=392.42455692589283 393.1688951253891
leaf_count=4000 4000
internal_value=0
internal_weight=785.593
internal_count=8000
is_linear=0
shrinkage=0.01


Tree=166
num_leaves=2
num_cat=0
split_feature=1
split_gain=877.865
threshold=1.0000000180025095e-35
decision_type=2
left_child=-1
right_child=-2
leaf_value=0.010239079412526953 -0.010214319777565329
leaf_weight=389.32191959768534 390.05517452955246
leaf_count=4000 4000
internal_value=0
internal_weight=779.377
internal_count=8000
is_linear=0
shrinkage=0.01


Tree=167
num_leaves=2
num_cat=0
split_feature=1
split_gain=868.085
threshold=1.0000000180025095e-35
decision_type=2
left_child=-1
right_child=-2
leaf_value=0.010219456816181829 -0.010194869294799201
leaf_weight=386.24180553853512 386.96407520025969
leaf_count=4000 4000
internal_value=0
internal_weight=773.206
internal_count=8000
is_linear=0
shrinkage=0.01


Tree=168
num_leaves=2
num_cat=0
split_feature=49
split_gain=825.111
threshold=-0.1291863916876598
decision_type=2
left_child=-1
right_child=-2
leaf_value=0.0099660255172123059 -0.010010217508284793
leaf_weight=384.59735018759966 382.48237276822329
leaf_count=4012 3988
internal_value=0
internal_weight=767.08
internal_count=8000
is_linear=0
shrinkage=0.01


Tree=169
num_leaves=2
num_cat=0
split_feature=49
split_gain=815.884
threshold=-0.19223321122977019
decision_type=2
left_child=-1
right_child=-2
leaf_value=0.010069335544038249 -0.00986717388136207
leaf_weight=376.56110095232725 384.60651825368404
leaf_count=3981 4019
internal_value=0
internal_weight=761.168
internal_count=8000
is_linear=0
shrinkage=0.01


Tree=170
num_leaves=2
num_cat=0
split_feature=49
split_gain=806.745
threshold=-0.1291863916876598
decision_type=2
left_child=-1
right_child=-2
leaf_value=0.0099254417171489046 -0.0099695502042484972
leaf_weight=378.69111344963312 376.59775198996067
leaf_count=4012 3988
internal_value=0
internal_weight=755.289
internal_count=8000
is_linear=0
shrinkage=0.01


Tree=171
num_leaves=2
num_cat=0
split_feature=49
split_gain=797.742
threshold=-0.19223321122977019
decision_type=2
left_child=-1
right_child=-2
leaf_value=0.010030218190427336 -0.0098254174781305485
leaf_weight=370.69862736016512 378.76587819308043
leaf_count=3981 4019
internal_value=0
internal_weight=749.465
internal_count=8000
is_linear=0
shrinkage=0.01


Tree=172
num_leaves=2
num_cat=0
split_feature=45
split_gain=713.925
threshold=-1.262584276482603
decision_type=2
left_child=-1
right_child=-2
leaf_value=0.0099915085014935043 -0.0088904396948445014
leaf_weight=348.55447216331959 395.11873702704906
leaf_count=3828 4172
internal_value=0
internal_weight=743.673
internal_count=8000
is_linear=0
shrinkage=0.01


Tree=173
num_leaves=2
num_cat=0
split_feature=49
split_gain=781.022
threshold=-0.1291863916876598
decision_type=2
left_child=-1
right_child=-2
leaf_value=0.0098695674978264945 -0.0099112166297351707
leaf_weight=370.21756045520306 368.21613399684429
leaf_count=4012 3988
internal_value=0
internal_weight=738.434
internal_count=8000
is_linear=0
shrinkage=0.01


Tree=174
num_leaves=2
num_cat=0
split_feature=47
split_gain=727.534
threshold=-0.48512674646633275
decision_type=2
left_child=-1
right_child=-2
leaf_value=0.0095034057673958252 -0.0096571370411599675
leaf_weight=369.71091088652611 363.02469976991415
leaf_count=4038 3962
internal_value=0
internal_weight=732.736
internal_count=8000
is_linear=0
shrinkage=0.01


Tree=175
num_leaves=2
num_cat=0
split_feature=49
split_gain=764.21
threshold=-0.19223321122977019
decision_type=2
left_child=-1
right_child=-2
leaf_value=0.009957770067736774 -0.0097469395101142317
leaf_weight=359.62708061188459 367.74308408051729
leaf_count=3981 4019
internal_value=0
internal_weight=727.37
internal_count=8000
is_linear=0
shrinkage=0.01


Tree=176
num_leaves=2
num_cat=0
split_feature=18
split_gain=723.376
threshold=-0.024619247975885342
decision_type=2
left_child=-1
right_child=-2
leaf_value=-0.0096770560103137566 0.0095621880037528671
leaf_weight=358.37919849157333 363.36647579818964
leaf_count=3969 4031
internal_value=0
internal_weight=721.746
internal_count=8000
is_linear=0
shrinkage=0.01


Tree=177
num_leaves=2
num_cat=0
split_feature=1
split_gain=781.336
threshold=1.0000000180025095e-35
decision_type=2
left_child=-1
right_child=-2
leaf_value=0.010044963360904687 -0.010018063141891513
leaf_weight=357.84715092927217 358.58834511786699
leaf_count=4000 4000
internal_value=0
internal_weight=716.435
internal_count=8000
is_linear=0
shrinkage=0.01


Tree=178
num_leaves=2
num_cat=0
split_feature=47
split_gain=695.961
threshold=-0.48512674646633275
decision_type=2
left_child=-1
right_child=-2
leaf_value=0.0094256933641444721 -0.0095801093610378748
leaf_weight=358.65474624186754 352.07859869301319
leaf_count=4038 3962
internal_value=0
internal_weight=710.733
internal_count=8000
is_linear=0
shrinkage=0.01


Tree=179
num_leaves=2
num_cat=0
split_feature=49
split_gain=732.036
threshold=-0.1291863916876598
decision_type=2
left_child=-1
right_child=-2
leaf_value=0.0097570214511795324 -0.0098006181438766524
leaf_weight=353.76709944009781 351.76359338313341
leaf_count=4012 3988
internal_value=0
internal_weight=705.531
internal_count=8000
is_linear=0
shrinkage=0.01


Tree=180
num_leaves=2
num_cat=0
split_feature=49
split_gain=723.897
threshold=-0.19223321122977019
decision_type=2
left_child=-1
right_child=-2
leaf_value=0.009866505862692207 -0.0096527116132404563
leaf_weight=346.0248632133007 354.05695452541113
leaf_count=3981 4019
internal_value=0
internal_weight=700.082
internal_count=8000
is_linear=0
shrinkage=0.01


Tree=181
num_leaves=2
num_cat=0
split_feature=49
split_gain=715.878
threshold=-0.1291863916876598
decision_type=2
left_child=-1
right_child=-2
leaf_value=0.0097179246747860475 -0.0097613985019463761
leaf_weight=348.32346916943789 346.34134551137686
leaf_count=4012 3988
internal_value=0
internal_weight=694.665
internal_count=8000
is_linear=0
shrinkage=0.01


Tree=182
num_leaves=2
num_cat=0
split_feature=45
split_gain=639.482
threshold=-1.262584276482603
decision_type=2
left_child=-1
right_child=-2
leaf_value=0.0098104185631468256 -0.0086988845421350942
leaf_weight=322.30549257993698 366.99430005997419
leaf_count=3828 4172
internal_value=0
internal_weight=689.3
internal_count=8000
is_linear=0
shrinkage=0.01


Tree=183
num_leaves=2
num_cat=0
split_feature=18
split_gain=671.455
threshold=-0.024619247975885342
decision_type=2
left_child=-1
right_child=-2
leaf_value=-0.0095543020335715021 0.0094402943042854546
leaf_weight=339.82228807359934 344.62622932344675
leaf_count=3969 4031
internal_value=0
internal_weight=684.449
internal_count=8000
is_linear=0
shrinkage=0.01


Tree=184
num_leaves=2
num_cat=0
split_feature=1
split_gain=726.722
threshold=1.0000000180025095e-35
decision_type=2
left_child=-1
right_child=-2
leaf_value=0.0099280018883577143 -0.0098996545440851666
leaf_weight=339.33429209887981 340.0768992677331
leaf_count=4000 4000
internal_value=0
internal_weight=679.411
internal_count=8000
is_linear=0
shrinkage=0.01


Tree=185
num_leaves=2
num_cat=0
split_feature=1
split_gain=718.748
threshold=1.0000000180025095e-35
decision_type=2
left_child=-1
right_child=-2
leaf_value=0.0099096839894223417 -0.0098815245414710252
leaf_weight=336.63095267862082 337.36250650137663
leaf_count=4000 4000
internal_value=0
internal_weight=673.993
internal_count=8000
is_linear=0
shrinkage=0.01


Tree=186
num_leaves=2
num_cat=0
split_feature=49
split_gain=678.514
threshold=-0.1291863916876598
decision_type=2
left_child=-1
right_child=-2
leaf_value=0.0096290261368172942 -0.0096711317593651432
leaf_weight=335.26284892857075 333.35488308221102
leaf_count=4012 3988
internal_value=0
internal_weight=668.618
internal_count=8000
is_linear=0
shrinkage=0.01


Tree=187
num_leaves=2
num_cat=0
split_feature=1
split_gain=703.43
threshold=1.0000000180025095e-35
decision_type=2
left_child=-1
right_child=-2
leaf_value=0.0098745688779661861 -0.0098467288895246492
leaf_weight=331.36949218809605 332.08375981450081
leaf_count=4000 4000
internal_value=0
internal_weight=663.453
internal_count=8000
is_linear=0
shrinkage=0.01


Tree=188
num_leaves=2
num_cat=0
split_feature=1
split_gain=695.73
threshold=1.0000000180025095e-35
decision_type=2
left_child=-1
right_child=-2
leaf_value=0.0098564293781550471 -0.0098287742874869181
leaf_weight=328.72801533341408 329.43159435689449
leaf_count=4000 4000
internal_value=0
internal_weight=658.16
internal_count=8000
is_linear=0
shrinkage=0.01


Tree=189
num_leaves=2
num_cat=0
split_feature=47
split_gain=616.505
threshold=-0.48512674646633275
decision_type=2
left_child=-1
right_child=-2
leaf_value=0.0092238351570742092 -0.0093755158867151172
leaf_weight=329.52100073546171 323.38630881160498
leaf_count=4038 3962
internal_value=0
internal_weight=652.907
internal_count=8000
is_linear=0
shrinkage=0.01


Tree=190
num_leaves=2
num_cat=0
split_feature=18
split_gain=622.15
threshold=0.031628108101452702
decision_type=2
left_child=-1
right_child=-2
leaf_value=-0.0092670244480544794 0.009480558774414229
leaf_weight=327.94603314995766 320.19012971222401
leaf_count=4032 3968
internal_value=0
internal_weight=648.136
internal_count=8000
is_linear=0
shrinkage=0.01


Tree=191
num_leaves=2
num_cat=0
split_feature=47
split_gain=603.191
threshold=-0.48512674646633275
decision_type=2
left_child=-1
right_child=-2
leaf_value=0.009184045375070846 -0.0093378248040192954
leaf_weight=324.75953988730907 318.60205726325512
leaf_count=4038 3962
internal_value=0
internal_weight=643.362
internal_count=8000
is_linear=0
shrinkage=0.01


Tree=192
num_leaves=2
num_cat=0
split_feature=1
split_gain=667.991
threshold=1.0000000180025095e-35
decision_type=2
left_child=-1
right_child=-2
leaf_value=0.0097915605123354166 -0.0097644745176870325
leaf_weight=318.99552419036627 319.67041651159525
leaf_count=4000 4000
internal_value=0
internal_weight=638.666
internal_count=8000
is_linear=0
shrinkage=0.01


Tree=193
num_leaves=2
num_cat=0
split_feature=49
split_gain=629.47
threshold=-0.19223321122977019
decision_type=2
left_child=-1
right_child=-2
leaf_value=0.0096377828976747636 -0.0094168326283004204
leaf_weight=312.91180641949177 320.65580882132053
leaf_count=3981 4019
internal_value=0
internal_weight=633.568
internal_count=8000
is_linear=0
shrinkage=0.01


Tree=194
num_leaves=2
num_cat=0
split_feature=1
split_gain=653.839
threshold=1.0000000180025095e-35
decision_type=2
left_child=-1
right_child=-2
leaf_value=0.0097575898934915556 -0.0097301208673892768
leaf_weight=313.99652177840471 314.67118907719851
leaf_count=4000 4000
internal_value=0
internal_weight=628.668
internal_count=8000
is_linear=0
shrinkage=0.01


Tree=195
num_leaves=2
num_cat=0
split_feature=47
split_gain=576.773
threshold=-0.48512674646633275
decision_type=2
left_child=-1
right_child=-2
leaf_value=0.0091084389589543933 -0.0092625611281641016
leaf_weight=314.84795890003443 308.80073978751898
leaf_count=4038 3962
internal_value=0
internal_weight=623.649
internal_count=8000
is_linear=0
shrinkage=0.01


Tree=196
num_leaves=2
num_cat=0
split_feature=49
split_gain=609.385
threshold=-0.19223321122977019
decision_type=2
left_child=-1
right_child=-2
leaf_value=0.0095851852074206184 -0.0093615958068725587
leaf_weight=305.69248045235872 313.41255954653025
leaf_count=3981 4019
internal_value=0
internal_weight=619.105
internal_count=8000
is_linear=0
shrinkage=0.01


Tree=197
num_leaves=2
num_cat=0
split_feature=1
split_gain=633.802
threshold=1.0000000180025095e-35
decision_type=2
left_child=-1
right_child=-2
leaf_value=0.0097087667627838679 -0.0096810533219741559
leaf_weight=306.82419783622026 307.49622908979654
leaf_count=4000 4000
internal_value=0
internal_weight=614.32
internal_count=8000
is_linear=0
shrinkage=0.01


Tree=198
num_leaves=2
num_cat=0
split_feature=49
split_gain=596.092
threshold=-0.1291863916876598
decision_type=2
left_child=-1
right_child=-2
leaf_value=0.0094147020982375228 -0.0094582722969152443
leaf_weight=305.62954661250114 303.7865054756403
leaf_count=4012 3988
internal_value=0
internal_weight=609.416
internal_count=8000
is_linear=0
shrinkage=0.01


Tree=199
num_leaves=2
num_cat=0
split_feature=47
split_gain=551.631
threshold=-0.48512674646633275
decision_type=2
left_child=-1
right_child=-2
leaf_value=0.0090323051210858384 -0.009187900308029618
leaf_weight=305.34888446331024 299.36879469454288
leaf_count=4038 3962
internal_value=0
internal_weight=604.718
internal_count=8000
is_linear=0
shrinkage=0.01


Tree=200
num_leaves=2
num_cat=0
split_feature=45
split_gain=525.555
threshold=-1.262584276482603
decision_type=2
left_child=-1
right_child=-2
leaf_value=0.0094965553962064395 -0.0083805372478352805
leaf_weight=279.70027925819159 320.62175358086824
leaf_count=3828 4172
internal_value=0
internal_weight=600.322
internal_count=8000
is_linear=0
shrinkage=0.01


Tree=201
num_leaves=2
num_cat=0
split_feature=48
split_gain=419.215
threshold=-0.85894372514470441
decision_type=2
left_child=-1
right_child=-2
leaf_value=0.0086981340056771078 -0.0073448741063274802
leaf_weight=270.57634870707989 325.54530978947878
leaf_count=3704 4296
internal_value=0
internal_weight=596.122
internal_count=8000
is_linear=0
shrinkage=0.01


Tree=202
num_leaves=2
num_cat=0
split_feature=1
split_gain=604.163
threshold=1.0000000180025095e-35
decision_type=2
left_child=-1
right_child=-2
leaf_value=0.0096359329261901001 -0.0096057054366096035
leaf_weight=296.02726515382528 296.6975955888629
leaf_count=4000 4000
internal_value=0
internal_weight=592.725
internal_count=8000
is_linear=0
shrinkage=0.01


Tree=203
num_leaves=2
num_cat=0
split_feature=1
split_gain=597.614
threshold=1.0000000180025095e-35
decision_type=2
left_child=-1
right_child=-2
leaf_value=0.0096184094791990967 -0.0095883800342847422
leaf_weight=293.66740992665291 294.32746432721615
leaf_count=4000 4000
internal_value=0
internal_weight=587.995
internal_count=8000
is_linear=0
shrinkage=0.01


Tree=204
num_leaves=2
num_cat=0
split_feature=49
split_gain=560.755
threshold=-0.1291863916876598
decision_type=2
left_child=-1
right_child=-2
leaf_value=0.0093151969418315099 -0.0093576440964629262
leaf_weight=292.56301710754633 290.74013770371675
leaf_count=4012 3988
internal_value=0
internal_weight=583.303
internal_count=8000
is_linear=0
shrinkage=0.01


Tree=205
num_leaves=2
num_cat=0
split_feature=1
split_gain=585.066
threshold=1.0000000180025095e-35
decision_type=2
left_child=-1
right_child=-2
leaf_value=0.0095849077425180212 -0.0095552229430984799
leaf_weight=289.08578419685364 289.72987297177315
leaf_count=4000 4000
internal_value=0
internal_weight=578.816
internal_count=8000
is_linear=0
shrinkage=0.01


Tree=206
num_leaves=2
num_cat=0
split_feature=1
split_gain=578.737
threshold=1.0000000180025095e-35
decision_type=2
left_child=-1
right_child=-2
leaf_value=0.0095674876107982969 -0.0095379986845855417
leaf_weight=286.78217681497335 287.41632510721684
leaf_count=4000 4000
internal_value=0
internal_weight=574.199
internal_count=8000
is_linear=0
shrinkage=0.01


Tree=207
num_leaves=2
num_cat=0
split_feature=49
split_gain=542.587
threshold=-0.19223321122977019
decision_type=2
left_child=-1
right_child=-2
leaf_value=0.0094003085240045598 -0.0091673394079209297
leaf_weight=281.03557700663805 288.58332628011703
leaf_count=3981 4019
internal_value=0
internal_weight=569.619
internal_count=8000
is_linear=0
shrinkage=0.01


Tree=208
num_leaves=2
num_cat=0
split_feature=1
split_gain=566.613
threshold=1.0000000180025095e-35
decision_type=2
left_child=-1
right_child=-2
leaf_value=0.009534628238695813 -0.0095047366285214967
leaf_weight=282.29964616149664 282.93348014354706
leaf_count=4000 4000
internal_value=0
internal_weight=565.233
internal_count=8000
is_linear=0
shrinkage=0.01


Tree=209
num_leaves=2
num_cat=0
split_feature=1
split_gain=560.495
threshold=1.0000000180025095e-35
decision_type=2
left_child=-1
right_child=-2
leaf_value=0.0095173006907453891 -0.0094876053619193778
leaf_weight=280.05136455595493 280.67541716992855
leaf_count=4000 4000
internal_value=0
internal_weight=560.727
internal_count=8000
is_linear=0
shrinkage=0.01


Tree=210
num_leaves=2
num_cat=0
split_feature=49
split_gain=524.97
threshold=-0.1291863916876598
decision_type=2
left_child=-1
right_child=-2
leaf_value=0.0092086996904091698 -0.0092507097182738425
leaf_weight=279.00665605813265 277.25073082745075
leaf_count=4012 3988
internal_value=0
internal_weight=556.257
internal_count=8000
is_linear=0
shrinkage=0.01


Tree=211
num_leaves=2
num_cat=0
split_feature=49
split_gain=519.271
threshold=-0.19223321122977019
decision_type=2
left_child=-1
right_child=-2
leaf_value=0.0093300606447311793 -0.009094104031271923
leaf_weight=272.25003615021706 279.73867874592543
leaf_count=3981 4019
internal_value=0
internal_weight=551.989
internal_count=8000
is_linear=0
shrinkage=0.01


Tree=212
num_leaves=2
num_cat=0
split_feature=49
split_gain=513.594
threshold=-0.1291863916876598
decision_type=2
left_child=-1
right_child=-2
leaf_value=0.009171966014004421 -0.0092137347835285887
leaf_weight=274.74105387926102 273.00595304369926
leaf_count=4012 3988
internal_value=0
internal_weight=547.747
internal_count=8000
is_linear=0
shrinkage=0.01


Tree=213
num_leaves=2
num_cat=0
split_feature=49
split_gain=508.027
threshold=-0.19223321122977019
decision_type=2
left_child=-1
right_child=-2
leaf_value=0.0092947959498495564 -0.0090558251401100485
leaf_weight=268.01962902396917 275.52931052446365
leaf_count=3981 4019
internal_value=0
internal_weight=543.549
internal_count=8000
is_linear=0
shrinkage=0.01


Tree=214
num_leaves=2
num_cat=0
split_feature=1
split_gain=532.166
threshold=1.0000000180025095e-35
decision_type=2
left_child=-1
right_child=-2
leaf_value=0.0094378918959114929 -0.0094074336780218277
leaf_weight=269.3770702406764 270.00029764324427
leaf_count=4000 4000
internal_value=0
internal_weight=539.377
internal_count=8000
is_linear=0
shrinkage=0.01


Tree=215
num_leaves=2
num_cat=0
split_feature=1
split_gain=526.44
threshold=1.0000000180025095e-35
decision_type=2
left_child=-1
right_child=-2
leaf_value=0.0094207100458134924 -0.0093904489181001385
leaf_weight=267.23514035344124 267.84882515668869
leaf_count=4000 4000
internal_value=0
internal_weight=535.084
internal_count=8000
is_linear=0
shrinkage=0.01


Tree=216
num_leaves=2
num_cat=0
split_feature=18
split_gain=473.848
threshold=-0.024619247975885342
decision_type=2
left_child=-1
right_child=-2
leaf_value=-0.0090094890019735228 0.0089018982198521331
leaf_weight=263.45941173285246 267.36667066067457
leaf_count=3969 4031
internal_value=0
internal_weight=530.826
internal_count=8000
is_linear=0
shrinkage=0.01


Tree=217
num_leaves=2
num_cat=0
split_feature=18
split_gain=468.553
threshold=0.031628108101452702
decision_type=2
left_child=-1
right_child=-2
leaf_value=-0.0088324868969241709 0.0090379379211756924
leaf_weight=266.67272897064686 260.27632706612349
leaf_count=4032 3968
internal_value=0
internal_weight=526.949
internal_count=8000
is_linear=0
shrinkage=0.01


Tree=218
num_leaves=2
num_cat=0
split_feature=1
split_gain=510.642
threshold=1.0000000180025095e-35
decision_type=2
left_child=-1
right_child=-2
leaf_value=0.0093728504198878904 -0.0093432962417761764
leaf_weight=261.26007519289851 261.84156995266676
leaf_count=4000 4000
internal_value=0
internal_weight=523.102
internal_count=8000
is_linear=0
shrinkage=0.01


Tree=219
num_leaves=2
num_cat=0
split_feature=1
split_gain=505.16
threshold=1.0000000180025095e-35
decision_type=2
left_child=-1
right_child=-2
leaf_value=0.0093557463259801438 -0.0093263874637727305
leaf_weight=259.18557232990861 259.75796230882406
leaf_count=4000 4000
internal_value=0
internal_weight=518.944
internal_count=8000
is_linear=0
shrinkage=0.01


Tree=220
num_leaves=2
num_cat=0
split_feature=49
split_gain=471.451
threshold=-0.1291863916876598
decision_type=2
left_child=-1
right_child=-2
leaf_value=0.0090357794120547504 -0.0090769472843629326
leaf_weight=258.23605166003108 256.58404317498207
leaf_count=4012 3988
internal_value=0
internal_weight=514.82
internal_count=8000
is_linear=0
shrinkage=0.01


Tree=221
num_leaves=2
num_cat=0
split_feature=18
split_gain=448.73
threshold=-0.024619247975885342
decision_type=2
left_child=-1
right_child=-2
leaf_value=-0.0089202133798020142 0.0088116924102573917
leaf_weight=253.52521158754826 257.36695596203208
leaf_count=3969 4031
internal_value=0
internal_weight=510.892
internal_count=8000
is_linear=0
shrinkage=0.01


Tree=222
num_leaves=2
num_cat=0
split_feature=45
split_gain=414.653
threshold=-1.262584276482603
decision_type=2
left_child=-1
right_child=-2
leaf_value=0.0091262181214827563 -0.0080101345375023555
leaf_weight=235.29460313171148 271.88237428665161
leaf_count=3828 4172
internal_value=0
internal_weight=507.177
internal_count=8000
is_linear=0
shrinkage=0.01


Tree=223
num_leaves=2
num_cat=0
split_feature=1
split_gain=485.41
threshold=1.0000000180025095e-35
decision_type=2
left_child=-1
right_child=-2
leaf_value=0.0092950003180822059 -0.0092645781051667059
leaf_weight=251.55822449922562 252.12211695685983
leaf_count=4000 4000
internal_value=0
internal_weight=503.68
internal_count=8000
is_linear=0
shrinkage=0.01


Tree=224
num_leaves=2
num_cat=0
split_feature=49
split_gain=452.325
threshold=-0.1291863916876598
decision_type=2
left_child=-1
right_child=-2
leaf_value=0.0089700534596572762 -0.0090097594109192509
leaf_weight=250.6449180804193 249.03996386379004
leaf_count=4012 3988
internal_value=0
internal_weight=499.685
internal_count=8000
is_linear=0
shrinkage=0.01


Tree=225
num_leaves=2
num_cat=0
split_feature=18
split_gain=430.494
threshold=0.031628108101452702
decision_type=2
left_child=-1
right_child=-2
leaf_value=-0.0086983847252025855 0.0089030403685122061
leaf_weight=250.98740135878325 244.89564889296889
leaf_count=4032 3968
internal_value=0
internal_weight=495.883
internal_count=8000
is_linear=0
shrinkage=0.01


Tree=226
num_leaves=2
num_cat=0
split_feature=18
split_gain=425.718
threshold=-0.024619247975885342
decision_type=2
left_child=-1
right_child=-2
leaf_value=-0.0088338164567489021 0.0087259819731663087
leaf_weight=244.25859354063869 248.02627717703581
leaf_count=3969 4031
internal_value=0
internal_weight=492.285
internal_count=8000
is_linear=0
shrinkage=0.01


Tree=227
num_leaves=2
num_cat=0
split_feature=1
split_gain=466.196
threshold=1.0000000180025095e-35
decision_type=2
left_child=-1
right_child=-2
leaf_value=0.0092321755431447727 -0.0092026096397184263
leaf_weight=244.09641102328897 244.62555713951588
leaf_count=4000 4000
internal_value=0
internal_weight=488.722
internal_count=8000
is_linear=0
shrinkage=0.01


Tree=228
num_leaves=2
num_cat=0
split_feature=45
split_gain=388.987
threshold=-1.262584276482603
decision_type=2
left_child=-1
right_child=-2
leaf_value=0.0090276503955018898 -0.0079075440610453882
leaf_weight=224.59741923958063 260.25519598647952
leaf_count=3828 4172
internal_value=0
internal_weight=484.853
internal_count=8000
is_linear=0
shrinkage=0.01


Tree=229
num_leaves=2
num_cat=0
split_feature=47
split_gain=400.905
threshold=-0.48512674646633275
decision_type=2
left_child=-1
right_child=-2
leaf_value=0.0085359060110952369 -0.0086731163086243793
leaf_weight=243.12907811626792 238.40079951286316
leaf_count=4038 3962
internal_value=0
internal_weight=481.53
internal_count=8000
is_linear=0
shrinkage=0.01


Tree=230
num_leaves=2
num_cat=0
split_feature=1
split_gain=452.759
threshold=1.0000000180025095e-35
decision_type=2
left_child=-1
right_child=-2
leaf_value=0.0091882643392732655 -0.0091573307384529654
leaf_weight=238.78503342717886 239.31589371711016
leaf_count=4000 4000
internal_value=0
internal_weight=478.101
internal_count=8000
is_linear=0
shrinkage=0.01


Tree=231
num_leaves=2
num_cat=0
split_feature=1
split_gain=447.927
threshold=1.0000000180025095e-35
decision_type=2
left_child=-1
right_child=-2
leaf_value=0.0091712895545028577 -0.0091405604804145543
leaf_weight=236.89970549941063 237.42195314541459
leaf_count=4000 4000
internal_value=0
internal_weight=474.322
internal_count=8000
is_linear=0
shrinkage=0.01


Tree=232
num_leaves=2
num_cat=0
split_feature=49
split_gain=416.314
threshold=-0.1291863916876598
decision_type=2
left_child=-1
right_child=-2
leaf_value=0.0088384971590857783 -0.0088776341403672583
leaf_weight=236.06532400846481 234.50907706469297
leaf_count=4012 3988
internal_value=0
internal_weight=470.574
internal_count=8000
is_linear=0
shrinkage=0.01


Tree=233
num_leaves=2
num_cat=0
split_feature=18
split_gain=395.932
threshold=0.031628108101452702
decision_type=2
left_child=-1
right_child=-2
leaf_value=-0.0085663879496716243 0.0087698359461847539
leaf_weight=236.40680273622274 230.6091787032783
leaf_count=4032 3968
internal_value=0
internal_weight=467.016
internal_count=8000
is_linear=0
shrinkage=0.01


Tree=234
num_leaves=2
num_cat=0
split_feature=47
split_gain=379.826
threshold=-0.48512674646633275
decision_type=2
left_child=-1
right_child=-2
leaf_value=0.0084473532909801717 -0.0085867063063546824
leaf_weight=234.16657698899508 229.48511685058475
leaf_count=4038 3962
internal_value=0
internal_weight=463.652
internal_count=8000
is_linear=0
shrinkage=0.01


Tree=235
num_leaves=2
num_cat=0
split_feature=1
split_gain=430.423
threshold=1.0000000180025095e-35
decision_type=2
left_child=-1
right_child=-2
leaf_value=0.0091098102244388975 -0.0090797612890295559
leaf_weight=229.93614478781819 230.43211548775434
leaf_count=4000 4000
internal_value=0
internal_weight=460.368
internal_count=8000
is_linear=0
shrinkage=0.01


Tree=236
num_leaves=2
num_cat=0
split_feature=1
split_gain=425.84
threshold=1.0000000180025095e-35
decision_type=2
left_child=-1
right_child=-2
leaf_value=0.009092863509073219 -0.0090630160077798325
leaf_weight=228.12602662295103 228.61384376138449
leaf_count=4000 4000
internal_value=0
internal_weight=456.74
internal_count=8000
is_linear=0
shrinkage=0.01


Tree=237
num_leaves=2
num_cat=0
split_feature=49
split_gain=395.155
threshold=-0.19223321122977019
decision_type=2
left_child=-1
right_child=-2
leaf_value=0.0089005252435024745 -0.0086517676836899721
leaf_weight=223.12067599222064 230.02173337340355
leaf_count=3981 4019
internal_value=0
internal_weight=453.142
internal_count=8000
is_linear=0
shrinkage=0.01


Tree=238
num_leaves=2
num_cat=0
split_feature=1
split_gain=417.098
threshold=1.0000000180025095e-35
decision_type=2
left_child=-1
right_child=-2
leaf_value=0.009061016169751383 -0.0090307761651641522
leaf_weight=224.61854641512036 225.10517145320773
leaf_count=4000 4000
internal_value=0
internal_weight=449.724
internal_count=8000
is_linear=0
shrinkage=0.01


Tree=239
num_leaves=2
num_cat=0
split_feature=49
split_gain=386.617
threshold=-0.19223321122977019
decision_type=2
left_child=-1
right_child=-2
leaf_value=0.0088658768718881294 -0.008614684071574355
leaf_weight=219.64388897642493 226.54231789708138
leaf_count=3981 4019
internal_value=0
internal_weight=446.186
internal_count=8000
is_linear=0
shrinkage=0.01


Tree=240
num_leaves=2
num_cat=0
split_feature=45
split_gain=342.01
threshold=-1.262584276482603
decision_type=2
left_child=-1
right_child=-2
leaf_value=0.0088274980322134988 -0.0077043384859202795
leaf_weight=204.5338733009994 238.29301259294152
leaf_count=3828 4172
internal_value=0
internal_weight=442.827
internal_count=8000
is_linear=0
shrinkage=0.01


Tree=241
num_leaves=2
num_cat=0
split_feature=49
split_gain=378.929
threshold=-0.1291863916876598
decision_type=2
left_child=-1
right_child=-2
leaf_value=0.0086892135526821287 -0.0087247707711869387
leaf_weight=220.63587709143758 219.19641123712063
leaf_count=4012 3988
internal_value=0
internal_weight=439.832
internal_count=8000
is_linear=0
shrinkage=0.01


Tree=242
num_leaves=2
num_cat=0
split_feature=47
split_gain=348.528
threshold=-0.48512674646633275
decision_type=2
left_child=-1
right_child=-2
leaf_value=0.0083116231910150846 -0.0084451735264180587
leaf_weight=220.46036748960614 216.07350569963455
leaf_count=4038 3962
internal_value=0
internal_weight=436.534
internal_count=8000
is_linear=0
shrinkage=0.01


Tree=243
num_leaves=2
num_cat=0
split_feature=18
split_gain=357.6
threshold=-0.024619247975885342
decision_type=2
left_child=-1
right_child=-2
leaf_value=-0.0085649902718286791 0.0084608198522718777
leaf_weight=215.01937451213598 218.45212909206748
leaf_count=3969 4031
internal_value=0
internal_weight=433.472
internal_count=8000
is_linear=0
shrinkage=0.01


Tree=244
num_leaves=2
num_cat=0
split_feature=45
split_gain=327.935
threshold=-1.262584276482603
decision_type=2
left_child=-1
right_child=-2
leaf_value=0.0087628465382639815 -0.0076305974670759997
leaf_weight=198.46558069810271 231.91361974552274
leaf_count=3828 4172
internal_value=0
internal_weight=430.379
internal_count=8000
is_linear=0
shrinkage=0.01


Tree=245
num_leaves=2
num_cat=0
split_feature=49
split_gain=364.054
threshold=-0.1291863916876598
decision_type=2
left_child=-1
right_child=-2
leaf_value=0.0086241606483470987 -0.0086594088568958914
leaf_weight=214.45830573514104 213.0275772549212
leaf_count=4012 3988
internal_value=0
internal_weight=427.486
internal_count=8000
is_linear=0
shrinkage=0.01


Tree=246
num_leaves=2
num_cat=0
split_feature=49
split_gain=360.081
threshold=-0.19223321122977019
decision_type=2
left_child=-1
right_child=-2
leaf_value=0.0087543283946432508 -0.0084929086918538784
leaf_weight=208.69236175343394 215.60116182267666
leaf_count=3981 4019
internal_value=0
internal_weight=424.294
internal_count=8000
is_linear=0
shrinkage=0.01


Tree=247
num_leaves=2
num_cat=0
split_feature=18
split_gain=343.499
threshold=0.031628108101452702
decision_type=2
left_child=-1
right_child=-2
leaf_value=-0.0083493486827274904 0.0085508224035028592
leaf_weight=213.2062055170536 207.91642699763179
leaf_count=4032 3968
internal_value=0
internal_weight=421.123
internal_count=8000
is_linear=0
shrinkage=0.01


Tree=248
num_leaves=2
num_cat=0
split_feature=1
split_gain=378.534
threshold=1.0000000180025095e-35
decision_type=2
left_child=-1
right_child=-2
leaf_value=0.0089146264205803658 -0.0088808699231897933
leaf_weight=208.82422945648432 209.30491030961275
leaf_count=4000 4000
internal_value=0
internal_weight=418.129
internal_count=8000
is_linear=0
shrinkage=0.01


Tree=249
num_leaves=2
num_cat=0
split_feature=49
split_gain=349.016
threshold=-0.1291863916876598
decision_type=2
left_child=-1
right_child=-2
leaf_value=0.0085558324043153861 -0.0085904388176068752
leaf_weight=208.13069193810225 206.73309091478586
leaf_count=4012 3988
internal_value=0
internal_weight=414.864
internal_count=8000
is_linear=0
shrinkage=0.01


Tree=250
num_leaves=2
num_cat=0
split_feature=45
split_gain=307.637
threshold=-1.262584276482603
decision_type=2
left_child=-1
right_child=-2
leaf_value=0.0086635089619929769 -0.0075256954073792941
leaf_weight=189.54039050266147 222.23903298377991
leaf_count=3828 4172
internal_value=0
internal_weight=411.779
internal_count=8000
is_linear=0
shrinkage=0.01


Tree=251
num_leaves=2
num_cat=0
split_feature=18
split_gain=329.779
threshold=-0.024619247975885342
decision_type=2
left_child=-1
right_child=-2
leaf_value=-0.0084357606747251426 0.0083348924895930102
leaf_weight=202.86598608270288 206.1682483330369
leaf_count=3969 4031
internal_value=0
internal_weight=409.034
internal_count=8000
is_linear=0
shrinkage=0.01


Tree=252
num_leaves=2
num_cat=0
split_feature=49
split_gain=338.701
threshold=-0.1291863916876598
decision_type=2
left_child=-1
right_child=-2
leaf_value=0.0085076147929503652 -0.0085406483032657091
leaf_weight=203.7554370649159 202.3873446919024
leaf_count=4012 3988
internal_value=0
internal_weight=406.143
internal_count=8000
is_linear=0
shrinkage=0.01


Tree=253
num_leaves=2
num_cat=0
split_feature=1
split_gain=360.472
threshold=1.0000000180025095e-35
decision_type=2
left_child=-1
right_child=-2
leaf_value=0.0088396668265208825 -0.0088049762657843207
leaf_weight=201.3332542181015 201.80038047209382
leaf_count=4000 4000
internal_value=0
internal_weight=403.134
internal_count=8000
is_linear=0
shrinkage=0.01


Tree=254
num_leaves=2
num_cat=0
split_feature=1
split_gain=356.663
threshold=1.0000000180025095e-35
decision_type=2
left_child=-1
right_child=-2
leaf_value=0.008822672389612065 -0.0087882045820674333
leaf_weight=199.76948812603951 200.22878301143646
leaf_count=4000 4000
internal_value=0
internal_weight=399.998
internal_count=8000
is_linear=0
shrinkage=0.01


Tree=255
num_leaves=2
num_cat=0
split_feature=47
split_gain=304.262
threshold=-0.48512674646633275
decision_type=2
left_child=-1
right_child=-2
